{"sizes":[14,40,20,1],"layers":[{"0":{},"1":{},"2":{},"3":{},"4":{},"5":{},"6":{},"7":{},"8":{},"9":{},"10":{},"11":{},"12":{},"13":{}},{"0":{"bias":-3.8230514526367188,"weights":{"0":-3.144702911376953,"1":4.728216648101807,"2":6.391776084899902,"3":27.66604232788086,"4":11.468186378479004,"5":-25.430004119873047,"6":6.673521041870117,"7":-7.874982833862305,"8":6.193106174468994,"9":-2.7301156520843506,"10":-14.24526596069336,"11":2.6998934745788574,"12":-16.334545135498047,"13":14.340226173400879}},"1":{"bias":-14.94568157196045,"weights":{"0":7.229633808135986,"1":3.747493267059326,"2":-1.4415693283081055,"3":-1.6937119960784912,"4":10.358338356018066,"5":-8.219145774841309,"6":25.47357940673828,"7":-0.7480350732803345,"8":21.91069221496582,"9":-31.746641159057617,"10":10.136194229125977,"11":-0.11374152451753616,"12":-7.927727699279785,"13":-6.336214542388916}},"2":{"bias":14.417881965637207,"weights":{"0":-24.015932083129883,"1":-20.30498504638672,"2":-38.675418853759766,"3":5.067328929901123,"4":21.075864791870117,"5":8.847261428833008,"6":19.878129959106445,"7":-30.078054428100586,"8":-13.657832145690918,"9":5.633683204650879,"10":10.443028450012207,"11":-0.7397159934043884,"12":11.392271041870117,"13":-39.84659194946289}},"3":{"bias":19.78276824951172,"weights":{"0":-3.700047254562378,"1":-20.91168785095215,"2":-15.977354049682617,"3":16.66284942626953,"4":-15.867654800415039,"5":-5.011796474456787,"6":-24.890260696411133,"7":-25.490875244140625,"8":-9.959427833557129,"9":10.587506294250488,"10":31.019113540649414,"11":-1.0194196701049805,"12":30.477821350097656,"13":-22.560564041137695}},"4":{"bias":-1.5488113164901733,"weights":{"0":2.082307815551758,"1":-24.34898567199707,"2":13.720698356628418,"3":-7.410326957702637,"4":17.882463455200195,"5":-3.1216883659362793,"6":3.0244946479797363,"7":-2.132148265838623,"8":16.092172622680664,"9":-27.509117126464844,"10":21.986391067504883,"11":23.551410675048828,"12":12.331280708312988,"13":5.895384788513184}},"5":{"bias":-28.261241912841797,"weights":{"0":3.615135908126831,"1":14.049123764038086,"2":-13.744236946105957,"3":18.306758880615234,"4":10.940628051757812,"5":-15.3833589553833,"6":7.742043972015381,"7":29.194255828857422,"8":-23.424087524414062,"9":-2.461937665939331,"10":-2.437380075454712,"11":24.75798797607422,"12":39.02587890625,"13":-12.474961280822754}},"6":{"bias":-8.753454208374023,"weights":{"0":5.9850921630859375,"1":-9.246953010559082,"2":7.398011207580566,"3":0.15113359689712524,"4":4.818330764770508,"5":1.01148521900177,"6":-2.8264708518981934,"7":6.915884017944336,"8":0.6103547811508179,"9":-4.555997848510742,"10":0.1843727082014084,"11":8.157892227172852,"12":33.534912109375,"13":-6.583364486694336}},"7":{"bias":6.486356258392334,"weights":{"0":-5.486395359039307,"1":-1.3471455574035645,"2":-7.4121527671813965,"3":20.140472412109375,"4":0.6907556653022766,"5":-14.925026893615723,"6":-4.021451473236084,"7":17.033077239990234,"8":7.6266560554504395,"9":-3.6492605209350586,"10":-11.108198165893555,"11":-18.799053192138672,"12":26.245025634765625,"13":-4.123559474945068}},"8":{"bias":-5.527430057525635,"weights":{"0":-13.367898941040039,"1":9.402108192443848,"2":8.554585456848145,"3":4.961667060852051,"4":15.746626853942871,"5":-25.02410888671875,"6":-12.469467163085938,"7":12.33642292022705,"8":14.916898727416992,"9":13.316720008850098,"10":-3.423715353012085,"11":5.711735248565674,"12":5.987464427947998,"13":-21.72825813293457}},"9":{"bias":-20.213619232177734,"weights":{"0":15.601432800292969,"1":2.8704166412353516,"2":-11.868861198425293,"3":9.63110065460205,"4":11.716841697692871,"5":6.722903251647949,"6":-5.902132511138916,"7":3.7494912147521973,"8":-10.174342155456543,"9":4.6362833976745605,"10":-3.8286657333374023,"11":-11.871112823486328,"12":13.853078842163086,"13":-21.56361198425293}},"10":{"bias":-6.93801736831665,"weights":{"0":6.406702995300293,"1":-8.658478736877441,"2":-10.8947114944458,"3":14.816620826721191,"4":23.348392486572266,"5":-14.417513847351074,"6":16.154340744018555,"7":-9.66641616821289,"8":9.855624198913574,"9":-7.886927127838135,"10":-11.568503379821777,"11":-8.232775688171387,"12":9.000401496887207,"13":-3.5753657817840576}},"11":{"bias":-4.81307315826416,"weights":{"0":-6.153872013092041,"1":-0.737265944480896,"2":-4.343992710113525,"3":-7.675638198852539,"4":-8.203850746154785,"5":3.2861478328704834,"6":4.107477188110352,"7":-11.141462326049805,"8":20.465869903564453,"9":6.010458946228027,"10":2.264281749725342,"11":-8.312886238098145,"12":5.32412052154541,"13":2.4594273567199707}},"12":{"bias":2.659823179244995,"weights":{"0":-4.423678874969482,"1":-3.9886691570281982,"2":23.948945999145508,"3":-12.495710372924805,"4":7.094196319580078,"5":-13.15031623840332,"6":23.4818172454834,"7":-5.132440567016602,"8":6.950906276702881,"9":5.148906707763672,"10":-0.358705073595047,"11":-6.976973056793213,"12":9.906413078308105,"13":-14.656109809875488}},"13":{"bias":-11.559524536132812,"weights":{"0":12.155068397521973,"1":-13.047042846679688,"2":5.526309967041016,"3":-10.470163345336914,"4":11.37614631652832,"5":-2.2703397274017334,"6":-7.678853988647461,"7":21.415388107299805,"8":24.270715713500977,"9":-13.39388656616211,"10":1.966472864151001,"11":7.2401347160339355,"12":-12.259966850280762,"13":9.428994178771973}},"14":{"bias":-2.1385388374328613,"weights":{"0":2.1749298572540283,"1":-9.856281280517578,"2":-21.055152893066406,"3":-6.623736381530762,"4":18.93452262878418,"5":-0.006180285941809416,"6":-12.491127014160156,"7":11.646462440490723,"8":2.5870532989501953,"9":-5.282798767089844,"10":1.1732981204986572,"11":-4.847618579864502,"12":-2.7426421642303467,"13":1.371768593788147}},"15":{"bias":-27.361581802368164,"weights":{"0":5.421698570251465,"1":12.26984691619873,"2":5.450138568878174,"3":12.487419128417969,"4":18.312593460083008,"5":17.719276428222656,"6":-1.6681201457977295,"7":-20.31313705444336,"8":32.18578338623047,"9":-18.61063575744629,"10":0.8844585418701172,"11":12.917679786682129,"12":25.226221084594727,"13":-4.416036128997803}},"16":{"bias":-8.275747299194336,"weights":{"0":1.3467742204666138,"1":-2.333120822906494,"2":-5.788777828216553,"3":-11.037932395935059,"4":21.93919563293457,"5":13.883780479431152,"6":16.592056274414062,"7":-23.89449691772461,"8":-0.343925803899765,"9":-12.971416473388672,"10":-4.838037967681885,"11":-0.36999398469924927,"12":29.079147338867188,"13":3.1968328952789307}},"17":{"bias":-20.072111129760742,"weights":{"0":12.13106632232666,"1":4.183957576751709,"2":-18.793224334716797,"3":-6.897420883178711,"4":18.310142517089844,"5":32.23383331298828,"6":-33.77529525756836,"7":-12.247495651245117,"8":-7.023013114929199,"9":14.565874099731445,"10":-15.789447784423828,"11":-13.310351371765137,"12":52.33563995361328,"13":-21.735912322998047}},"18":{"bias":1.5642653703689575,"weights":{"0":7.8589768409729,"1":2.0720605850219727,"2":-23.669191360473633,"3":26.316669464111328,"4":-19.00015640258789,"5":-14.965445518493652,"6":-0.6973657608032227,"7":29.38434410095215,"8":14.736040115356445,"9":-17.708148956298828,"10":0.5812144875526428,"11":-1.920702338218689,"12":-3.1661300659179688,"13":-18.078811645507812}},"19":{"bias":-13.403804779052734,"weights":{"0":-0.37688297033309937,"1":3.1720008850097656,"2":4.1267619132995605,"3":12.246634483337402,"4":-13.778640747070312,"5":-2.0480899810791016,"6":-16.899246215820312,"7":7.673181056976318,"8":27.49485969543457,"9":-4.187722682952881,"10":0.3946632146835327,"11":-6.734142780303955,"12":6.027002811431885,"13":11.440629959106445}},"20":{"bias":-0.8239307403564453,"weights":{"0":-25.6956844329834,"1":2.554517984390259,"2":-4.692621231079102,"3":6.746246337890625,"4":14.28292179107666,"5":-11.23450756072998,"6":-11.5623140335083,"7":0.3621382713317871,"8":2.6936590671539307,"9":-12.365776062011719,"10":-8.598163604736328,"11":25.667009353637695,"12":4.167241096496582,"13":5.309597015380859}},"21":{"bias":-30.695161819458008,"weights":{"0":14.268026351928711,"1":16.550579071044922,"2":42.74159622192383,"3":-22.98505401611328,"4":21.211130142211914,"5":-20.81498146057129,"6":2.4299378395080566,"7":-24.995502471923828,"8":38.05183029174805,"9":2.4374468326568604,"10":9.857016563415527,"11":-32.10755157470703,"12":-1.7080546617507935,"13":-4.071871757507324}},"22":{"bias":-11.50858211517334,"weights":{"0":18.81048583984375,"1":16.477079391479492,"2":-18.399438858032227,"3":-11.4254789352417,"4":5.0261454582214355,"5":12.393196105957031,"6":9.245732307434082,"7":-15.971451759338379,"8":-1.4691916704177856,"9":4.068033695220947,"10":-27.995168685913086,"11":-37.396087646484375,"12":-7.1192450523376465,"13":3.380208730697632}},"23":{"bias":-12.981247901916504,"weights":{"0":-1.6575411558151245,"1":-3.0390069484710693,"2":-21.941091537475586,"3":-5.406932353973389,"4":19.826379776000977,"5":17.720932006835938,"6":-13.852116584777832,"7":-17.215307235717773,"8":30.012557983398438,"9":29.078248977661133,"10":-7.739745616912842,"11":-22.781038284301758,"12":6.627466201782227,"13":-15.729623794555664}},"24":{"bias":-8.907149314880371,"weights":{"0":6.810694694519043,"1":-5.842123031616211,"2":-14.078225135803223,"3":6.479938507080078,"4":9.767984390258789,"5":-0.650810718536377,"6":-16.031991958618164,"7":25.184423446655273,"8":1.0709341764450073,"9":-15.590804100036621,"10":-3.5261571407318115,"11":-10.77212142944336,"12":-2.0970749855041504,"13":7.08442497253418}},"25":{"bias":-4.914612293243408,"weights":{"0":-12.882417678833008,"1":-3.937316417694092,"2":-12.47278881072998,"3":11.453965187072754,"4":9.025646209716797,"5":-17.631240844726562,"6":0.5986407995223999,"7":10.669281959533691,"8":9.71751880645752,"9":0.5594327449798584,"10":28.54037857055664,"11":11.900777816772461,"12":-7.118535995483398,"13":18.518367767333984}},"26":{"bias":0.23181627690792084,"weights":{"0":-4.416584491729736,"1":-27.344329833984375,"2":-11.904755592346191,"3":-5.879258632659912,"4":4.141345024108887,"5":17.180248260498047,"6":-17.33370590209961,"7":17.088579177856445,"8":-24.381797790527344,"9":-6.877389430999756,"10":19.561952590942383,"11":50.19040298461914,"12":12.881387710571289,"13":19.79599380493164}},"27":{"bias":-9.91752815246582,"weights":{"0":-6.747014045715332,"1":3.217958688735962,"2":5.235801696777344,"3":-24.802738189697266,"4":-18.87820053100586,"5":14.434530258178711,"6":-9.426229476928711,"7":3.6284449100494385,"8":-4.242366313934326,"9":25.67361831665039,"10":-7.245938777923584,"11":-14.121047973632812,"12":25.931150436401367,"13":-3.024698495864868}},"28":{"bias":0.5546831488609314,"weights":{"0":6.256430625915527,"1":-21.814823150634766,"2":21.243112564086914,"3":5.434230327606201,"4":13.064109802246094,"5":-39.511837005615234,"6":-9.119437217712402,"7":-21.30385398864746,"8":25.430055618286133,"9":4.744385719299316,"10":7.904678821563721,"11":-13.572275161743164,"12":-4.726653575897217,"13":-0.8440191149711609}},"29":{"bias":6.239129543304443,"weights":{"0":0.13631810247898102,"1":-13.73739242553711,"2":-25.103527069091797,"3":-12.839041709899902,"4":-14.138076782226562,"5":0.8931281566619873,"6":-3.9370951652526855,"7":3.072296380996704,"8":1.789454460144043,"9":16.158466339111328,"10":3.799461841583252,"11":-18.774629592895508,"12":-0.7363256216049194,"13":3.9652504920959473}},"30":{"bias":22.995895385742188,"weights":{"0":-15.04964828491211,"1":-14.655534744262695,"2":-23.959468841552734,"3":-27.08113670349121,"4":11.828723907470703,"5":16.982187271118164,"6":-12.88241195678711,"7":-3.874176025390625,"8":-1.4459590911865234,"9":12.142927169799805,"10":-14.995718002319336,"11":-21.7701358795166,"12":14.936745643615723,"13":39.19202423095703}},"31":{"bias":15.746477127075195,"weights":{"0":0.2089165300130844,"1":-14.527775764465332,"2":4.856761932373047,"3":23.095014572143555,"4":-0.855493426322937,"5":-2.8987302780151367,"6":18.42469024658203,"7":-41.265140533447266,"8":7.3014421463012695,"9":-15.865623474121094,"10":-26.396581649780273,"11":-13.567496299743652,"12":15.714713096618652,"13":-19.39661407470703}},"32":{"bias":-15.472034454345703,"weights":{"0":1.8772735595703125,"1":7.841573238372803,"2":18.05088996887207,"3":-3.8729894161224365,"4":-8.062712669372559,"5":2.2200543880462646,"6":24.960140228271484,"7":25.6628475189209,"8":15.021492958068848,"9":-19.089649200439453,"10":-16.410377502441406,"11":-16.686445236206055,"12":7.251134395599365,"13":12.6575927734375}},"33":{"bias":-9.840471267700195,"weights":{"0":5.808294296264648,"1":-9.794326782226562,"2":15.294501304626465,"3":13.010296821594238,"4":-8.07939624786377,"5":-6.6831207275390625,"6":-23.1876220703125,"7":-26.50572967529297,"8":6.832702159881592,"9":16.722171783447266,"10":2.667269229888916,"11":-5.385628700256348,"12":17.214136123657227,"13":-9.008021354675293}},"34":{"bias":-13.294897079467773,"weights":{"0":2.7469143867492676,"1":-0.03751683980226517,"2":24.67412567138672,"3":-6.735935211181641,"4":-12.748111724853516,"5":-12.629385948181152,"6":-29.474994659423828,"7":16.485668182373047,"8":-0.5942977070808411,"9":14.964397430419922,"10":0.9407933354377747,"11":-6.8739190101623535,"12":17.080472946166992,"13":7.6625165939331055}},"35":{"bias":-12.901305198669434,"weights":{"0":-6.423902988433838,"1":11.337394714355469,"2":-15.859619140625,"3":-20.787796020507812,"4":28.44437026977539,"5":0.26072126626968384,"6":8.502908706665039,"7":10.349300384521484,"8":-6.399829864501953,"9":-0.4683612287044525,"10":2.7358415126800537,"11":-10.794909477233887,"12":2.4788906574249268,"13":-3.4191389083862305}},"36":{"bias":-0.5403693914413452,"weights":{"0":-4.8760271072387695,"1":1.3594099283218384,"2":-5.863483905792236,"3":27.68471336364746,"4":-47.052642822265625,"5":-1.9309382438659668,"6":0.8190458416938782,"7":-0.34685850143432617,"8":14.734342575073242,"9":-0.15256047248840332,"10":-5.6735005378723145,"11":-15.493232727050781,"12":-14.143509864807129,"13":-0.14561492204666138}},"37":{"bias":-1.7597503662109375,"weights":{"0":-1.7446054220199585,"1":-5.819891452789307,"2":14.243022918701172,"3":-10.171823501586914,"4":23.271406173706055,"5":10.238607406616211,"6":14.63430404663086,"7":-12.456284523010254,"8":-8.660314559936523,"9":2.7334916591644287,"10":-29.281524658203125,"11":-10.376554489135742,"12":-4.888189315795898,"13":0.0014213683316484094}},"38":{"bias":-1.568091630935669,"weights":{"0":-7.758258819580078,"1":-4.996012210845947,"2":13.943763732910156,"3":19.930038452148438,"4":-6.697928428649902,"5":-10.823142051696777,"6":17.996530532836914,"7":-4.661242485046387,"8":6.153548240661621,"9":-11.567476272583008,"10":-7.440706253051758,"11":4.361592769622803,"12":-21.799718856811523,"13":13.84975528717041}},"39":{"bias":-20.630352020263672,"weights":{"0":-1.6436197757720947,"1":6.564977169036865,"2":20.397340774536133,"3":1.0205345153808594,"4":-0.9743892550468445,"5":-11.98652172088623,"6":16.859472274780273,"7":-18.881450653076172,"8":3.9252235889434814,"9":-14.369744300842285,"10":13.989842414855957,"11":32.504024505615234,"12":16.882322311401367,"13":-8.163256645202637}}},{"0":{"bias":-24.602697372436523,"weights":{"0":-9.211222648620605,"1":1.28996741771698,"2":-1.125008225440979,"3":9.293615341186523,"4":4.7624735832214355,"5":-3.99040150642395,"6":-1.3358352184295654,"7":0.2163948267698288,"8":2.325972318649292,"9":0.20703956484794617,"10":7.744325637817383,"11":-2.0457639694213867,"12":0.059582121670246124,"13":1.6071457862854004,"14":5.706691265106201,"15":2.0205516815185547,"16":8.41933822631836,"17":-3.246018886566162,"18":0.6237505078315735,"19":8.186383247375488,"20":-0.8236806988716125,"21":0.20771265029907227,"22":-2.657980442047119,"23":1.712778925895691,"24":3.8825244903564453,"25":-1.5054194927215576,"26":-3.78120756149292,"27":-9.769189834594727,"28":-1.7971010208129883,"29":-2.4537696838378906,"30":5.725870609283447,"31":15.713875770568848,"32":-14.256250381469727,"33":-14.74432373046875,"34":-6.596223831176758,"35":-5.258981704711914,"36":-12.747611045837402,"37":-8.655842781066895,"38":-10.75801944732666,"39":16.382701873779297}},"1":{"bias":-2.896866798400879,"weights":{"0":6.5619707107543945,"1":3.496260404586792,"2":19.60515594482422,"3":5.873588562011719,"4":0.7328228950500488,"5":4.853227138519287,"6":-4.230975151062012,"7":-3.2795279026031494,"8":8.106915473937988,"9":-5.914237022399902,"10":-1.1234805583953857,"11":5.416844367980957,"12":-18.114521026611328,"13":5.207546710968018,"14":-2.1847057342529297,"15":-11.168686866760254,"16":3.735530376434326,"17":-8.440119743347168,"18":-3.717798948287964,"19":-0.5033907294273376,"20":-10.30623722076416,"21":7.952267646789551,"22":-5.131315231323242,"23":-2.0478405952453613,"24":0.0650358572602272,"25":0.508285403251648,"26":-0.9421124458312988,"27":8.911900520324707,"28":-10.577028274536133,"29":0.5267186164855957,"30":-7.362733364105225,"31":-2.132681131362915,"32":-6.213691234588623,"33":-7.073182582855225,"34":-21.80542755126953,"35":4.187411308288574,"36":-2.2612171173095703,"37":-8.730420112609863,"38":1.2977571487426758,"39":2.2920961380004883}},"2":{"bias":-11.319621086120605,"weights":{"0":-12.708733558654785,"1":-30.71826171875,"2":-21.286376953125,"3":-2.6824772357940674,"4":-14.312768936157227,"5":-14.694915771484375,"6":-0.8101346492767334,"7":-3.631843090057373,"8":8.643901824951172,"9":-7.826224327087402,"10":3.862826347351074,"11":0.10709008574485779,"12":-4.339899063110352,"13":0.3500509262084961,"14":3.448850154876709,"15":1.4516123533248901,"16":-3.822697639465332,"17":-10.401503562927246,"18":7.449721813201904,"19":-13.475305557250977,"20":12.20319938659668,"21":-5.889784812927246,"22":-0.13954605162143707,"23":-6.14426326751709,"24":-4.316495895385742,"25":-0.17410902678966522,"26":-4.351631164550781,"27":-10.161468505859375,"28":11.441518783569336,"29":10.23581600189209,"30":-5.615234375,"31":14.850594520568848,"32":4.226223945617676,"33":-9.37442684173584,"34":-1.2992548942565918,"35":11.83576488494873,"36":12.028667449951172,"37":-1.8198565244674683,"38":-1.48823881149292,"39":5.218511581420898}},"3":{"bias":-14.484135627746582,"weights":{"0":6.056169033050537,"1":-18.92357063293457,"2":-12.660401344299316,"3":8.899709701538086,"4":3.832395315170288,"5":16.062366485595703,"6":5.149531841278076,"7":-3.200985908508301,"8":0.22369436919689178,"9":-6.774073600769043,"10":-1.977454662322998,"11":-1.6884981393814087,"12":-0.05129629746079445,"13":2.9071338176727295,"14":6.175259590148926,"15":7.646352767944336,"16":-10.488300323486328,"17":-5.224173069000244,"18":-4.761824607849121,"19":-5.299736976623535,"20":-6.192734241485596,"21":-14.556595802307129,"22":11.42341423034668,"23":0.6986790895462036,"24":18.198322296142578,"25":3.9339301586151123,"26":-14.461459159851074,"27":7.367701530456543,"28":16.857707977294922,"29":2.1961727142333984,"30":6.906379699707031,"31":-15.508368492126465,"32":-1.8879755735397339,"33":-2.493358612060547,"34":-21.23963165283203,"35":-5.393636703491211,"36":-19.42973518371582,"37":-23.411157608032227,"38":-0.6182481646537781,"39":-15.475427627563477}},"4":{"bias":-12.506000518798828,"weights":{"0":2.4203314781188965,"1":-8.469076156616211,"2":-2.3669321537017822,"3":18.890295028686523,"4":0.30823615193367004,"5":9.008696556091309,"6":0.44563180208206177,"7":-6.459786891937256,"8":0.47350960969924927,"9":1.6953374147415161,"10":-1.948447585105896,"11":-12.5243501663208,"12":10.808355331420898,"13":-11.001265525817871,"14":-6.835545063018799,"15":12.860979080200195,"16":3.0281238555908203,"17":1.9942914247512817,"18":1.9188439846038818,"19":8.64693546295166,"20":9.304128646850586,"21":-23.074533462524414,"22":-14.760148048400879,"23":-12.798280715942383,"24":-6.879683971405029,"25":-1.577166199684143,"26":-17.54352569580078,"27":-12.750923156738281,"28":-6.3929643630981445,"29":-2.7786762714385986,"30":1.2087122201919556,"31":-7.79433536529541,"32":4.069952964782715,"33":-3.3053364753723145,"34":-19.5153865814209,"35":-8.049725532531738,"36":-12.205232620239258,"37":-9.252569198608398,"38":-4.496391773223877,"39":-7.119078636169434}},"5":{"bias":-7.259192943572998,"weights":{"0":2.360525131225586,"1":0.02857436239719391,"2":-4.946959495544434,"3":3.3021838665008545,"4":0.9857628345489502,"5":6.236186504364014,"6":-0.9455569982528687,"7":2.6656885147094727,"8":3.573615074157715,"9":-1.2805683612823486,"10":-1.6277661323547363,"11":-1.3326702117919922,"12":-4.503159523010254,"13":-5.179100513458252,"14":-4.571349143981934,"15":-6.403048992156982,"16":-2.207101345062256,"17":-2.2467777729034424,"18":-1.756437063217163,"19":-4.776965141296387,"20":-1.5861197710037231,"21":-20.546424865722656,"22":-7.1011552810668945,"23":9.155279159545898,"24":-4.1813764572143555,"25":-0.8457092046737671,"26":-6.2727580070495605,"27":-7.407597064971924,"28":-6.159578323364258,"29":1.6794567108154297,"30":-11.133030891418457,"31":-11.047441482543945,"32":-3.265038013458252,"33":4.2368035316467285,"34":13.957290649414062,"35":-2.9457194805145264,"36":-19.30486488342285,"37":-3.186776876449585,"38":-0.3083534240722656,"39":5.0883307456970215}},"6":{"bias":-25.24785804748535,"weights":{"0":7.985105037689209,"1":13.987632751464844,"2":-11.316057205200195,"3":-19.411958694458008,"4":0.7414692640304565,"5":-14.426912307739258,"6":-4.214656829833984,"7":3.3397397994995117,"8":-5.013651371002197,"9":4.4045281410217285,"10":6.200244426727295,"11":7.8182172775268555,"12":2.455632209777832,"13":-4.974483966827393,"14":-0.2355768084526062,"15":-11.765603065490723,"16":5.195629119873047,"17":-0.6124111413955688,"18":-2.601726531982422,"19":-4.985306739807129,"20":-6.855562210083008,"21":16.618379592895508,"22":0.13037976622581482,"23":1.845220685005188,"24":0.4736531972885132,"25":-2.3419077396392822,"26":-9.798665046691895,"27":-10.101302146911621,"28":15.319961547851562,"29":-1.6419826745986938,"30":1.421026349067688,"31":7.501172065734863,"32":-19.28511619567871,"33":3.3726606369018555,"34":10.621659278869629,"35":0.8965994715690613,"36":2.319479465484619,"37":12.642459869384766,"38":-9.31857681274414,"39":-2.6435179710388184}},"7":{"bias":-3.555574893951416,"weights":{"0":-3.6748619079589844,"1":0.516213595867157,"2":-7.568594455718994,"3":-18.292400360107422,"4":7.678383827209473,"5":7.264593124389648,"6":-8.744173049926758,"7":-3.2475738525390625,"8":2.2922167778015137,"9":2.6453847885131836,"10":6.52366304397583,"11":3.0728819370269775,"12":-12.22246265411377,"13":5.478957653045654,"14":-0.7930036187171936,"15":-6.48728084564209,"16":-6.49350118637085,"17":-25.9609375,"18":-1.2613517045974731,"19":3.729804277420044,"20":-3.6684343814849854,"21":4.906633377075195,"22":9.646758079528809,"23":-4.615148067474365,"24":13.84624195098877,"25":-8.433423042297363,"26":12.977741241455078,"27":-10.181328773498535,"28":15.61431884765625,"29":8.342318534851074,"30":-3.3877055644989014,"31":5.70086145401001,"32":-24.477231979370117,"33":-5.351860523223877,"34":-3.113401174545288,"35":-7.400778293609619,"36":-4.2608561515808105,"37":-1.4437644481658936,"38":7.413020133972168,"39":-5.3900861740112305}},"8":{"bias":-1.4757137298583984,"weights":{"0":-2.940542221069336,"1":0.623466968536377,"2":3.382693290710449,"3":-12.25683879852295,"4":-13.50123405456543,"5":-12.34882926940918,"6":4.999155521392822,"7":5.775001525878906,"8":-2.1815052032470703,"9":0.394024521112442,"10":-2.5766265392303467,"11":5.520134925842285,"12":3.809692859649658,"13":0.9088509678840637,"14":-8.513254165649414,"15":-9.179824829101562,"16":-4.950817108154297,"17":-11.796987533569336,"18":7.297659873962402,"19":1.8944196701049805,"20":-15.397543907165527,"21":-2.36981463432312,"22":-8.68244743347168,"23":1.7107172012329102,"24":-7.333083152770996,"25":1.7727018594741821,"26":-0.0013565229019150138,"27":6.863475799560547,"28":0.11593829095363617,"29":-12.062631607055664,"30":18.24321937561035,"31":-11.87325382232666,"32":-10.754721641540527,"33":2.106995105743408,"34":-4.276614189147949,"35":-6.592224597930908,"36":-2.609531879425049,"37":-12.316856384277344,"38":-10.762198448181152,"39":-0.8385456800460815}},"9":{"bias":-10.042353630065918,"weights":{"0":-0.4185122847557068,"1":-1.3372516632080078,"2":5.157381534576416,"3":8.759251594543457,"4":-7.958558559417725,"5":3.1909866333007812,"6":-4.089874744415283,"7":-6.32176399230957,"8":4.910773277282715,"9":-2.4339599609375,"10":-0.4774627983570099,"11":-1.9811809062957764,"12":-11.20377254486084,"13":-2.629528522491455,"14":-4.270352363586426,"15":-18.68075942993164,"16":9.790955543518066,"17":-5.324759483337402,"18":-8.329757690429688,"19":-1.0167536735534668,"20":-3.3918161392211914,"21":-0.5032749176025391,"22":3.8692281246185303,"23":-0.8016448020935059,"24":-0.7690987586975098,"25":4.863081455230713,"26":-3.0884721279144287,"27":-4.844783306121826,"28":0.9824543595314026,"29":-15.84207534790039,"30":9.078410148620605,"31":0.33224546909332275,"32":-7.3830766677856445,"33":8.286477088928223,"34":-0.5929145216941833,"35":6.291938304901123,"36":-2.1533172130584717,"37":-2.717421770095825,"38":2.1537561416625977,"39":5.811250686645508}},"10":{"bias":-25.002193450927734,"weights":{"0":-12.934072494506836,"1":-7.626888275146484,"2":10.323726654052734,"3":-10.297897338867188,"4":-7.437812805175781,"5":-2.3380351066589355,"6":-11.145379066467285,"7":-6.266984939575195,"8":-1.6869827508926392,"9":1.3244907855987549,"10":-12.240264892578125,"11":-5.3327178955078125,"12":3.1950600147247314,"13":0.3800497055053711,"14":8.416237831115723,"15":11.956040382385254,"16":8.904630661010742,"17":-2.0776288509368896,"18":-0.5505591034889221,"19":12.921656608581543,"20":10.070738792419434,"21":18.160085678100586,"22":1.3417720794677734,"23":6.62445068359375,"24":-4.213720798492432,"25":2.3225722312927246,"26":2.089707612991333,"27":7.6455535888671875,"28":-11.637694358825684,"29":3.6035444736480713,"30":-10.386065483093262,"31":2.5314247608184814,"32":-16.162036895751953,"33":17.74999237060547,"34":10.672220230102539,"35":22.28246307373047,"36":9.849698066711426,"37":2.078650951385498,"38":-1.076322078704834,"39":-4.168605804443359}},"11":{"bias":-6.790205001831055,"weights":{"0":9.277811050415039,"1":-12.674283981323242,"2":-3.585204601287842,"3":3.6250264644622803,"4":0.5899367928504944,"5":-10.243330955505371,"6":-0.7193957567214966,"7":2.023552894592285,"8":7.708913803100586,"9":-19.04479217529297,"10":-10.636272430419922,"11":-3.8447647094726562,"12":-2.3904104232788086,"13":6.855273723602295,"14":-5.460855960845947,"15":-4.016108512878418,"16":-7.5151824951171875,"17":-4.838298320770264,"18":-9.083479881286621,"19":-6.3422722816467285,"20":5.109322547912598,"21":-12.183762550354004,"22":-7.653345584869385,"23":9.507930755615234,"24":6.849438190460205,"25":-2.1827895641326904,"26":6.104854583740234,"27":-14.43403148651123,"28":3.6994102001190186,"29":-8.618575096130371,"30":-5.7841949462890625,"31":10.208260536193848,"32":2.980252742767334,"33":-2.1376261711120605,"34":-9.227418899536133,"35":-10.893946647644043,"36":5.957251071929932,"37":-5.062572002410889,"38":2.3481647968292236,"39":-15.395442962646484}},"12":{"bias":-14.184012413024902,"weights":{"0":-3.42317271232605,"1":-9.323250770568848,"2":-3.368375539779663,"3":4.995730400085449,"4":3.4523394107818604,"5":-1.887457251548767,"6":-3.6312716007232666,"7":15.183979034423828,"8":-9.41330337524414,"9":4.320276737213135,"10":-11.949065208435059,"11":-7.656921863555908,"12":-0.7128919959068298,"13":-5.751452445983887,"14":6.91664457321167,"15":-5.613903045654297,"16":2.6832985877990723,"17":-8.80984878540039,"18":3.281118154525757,"19":0.5106054544448853,"20":-7.244705677032471,"21":-12.836699485778809,"22":-0.07606460154056549,"23":-2.8451592922210693,"24":-14.531895637512207,"25":1.3072377443313599,"26":10.383946418762207,"27":2.569031238555908,"28":5.736979007720947,"29":9.615792274475098,"30":7.357817649841309,"31":-7.57049560546875,"32":6.845175743103027,"33":-0.41425061225891113,"34":-2.0986168384552,"35":0.676965057849884,"36":-19.70915412902832,"37":-9.663288116455078,"38":-10.683673858642578,"39":-12.550790786743164}},"13":{"bias":-15.107114791870117,"weights":{"0":11.86677074432373,"1":13.423282623291016,"2":-0.12287032604217529,"3":-14.805538177490234,"4":1.509583592414856,"5":3.2738301753997803,"6":-1.6204906702041626,"7":3.57131028175354,"8":-7.177317142486572,"9":-1.7976964712142944,"10":-8.321651458740234,"11":-5.311862468719482,"12":-4.318453788757324,"13":-3.483982563018799,"14":7.37809944152832,"15":14.944093704223633,"16":5.8916215896606445,"17":7.677435398101807,"18":-0.969406247138977,"19":3.4998321533203125,"20":-1.5504040718078613,"21":-19.371339797973633,"22":6.8339009284973145,"23":-12.316410064697266,"24":18.480510711669922,"25":-0.24010755121707916,"26":-22.6214599609375,"27":4.774519920349121,"28":14.610746383666992,"29":4.466866970062256,"30":-10.467822074890137,"31":0.6027847528457642,"32":4.525846004486084,"33":3.981349468231201,"34":-9.855101585388184,"35":-3.9253523349761963,"36":4.560751438140869,"37":-8.194095611572266,"38":-10.194997787475586,"39":4.077846050262451}},"14":{"bias":2.414567232131958,"weights":{"0":-6.090788841247559,"1":0.4683561623096466,"2":-7.917672157287598,"3":-3.9114158153533936,"4":4.488385200500488,"5":-10.5011568069458,"6":-8.729701042175293,"7":-6.0450639724731445,"8":-6.853519439697266,"9":-0.8442151546478271,"10":-1.5794615745544434,"11":-7.262998104095459,"12":-9.035429000854492,"13":-1.4274905920028687,"14":-2.4713640213012695,"15":-12.111539840698242,"16":-0.3602079749107361,"17":-1.3128174543380737,"18":1.2151296138763428,"19":-1.151619553565979,"20":-3.047762155532837,"21":0.844012975692749,"22":8.043752670288086,"23":-7.593470573425293,"24":-1.9876539707183838,"25":-1.980291485786438,"26":2.8101587295532227,"27":-4.679601192474365,"28":6.2235612869262695,"29":-10.889655113220215,"30":-18.85098648071289,"31":0.8235135078430176,"32":-1.1973100900650024,"33":-0.5319721102714539,"34":-2.6555607318878174,"35":-12.97177505493164,"36":8.220229148864746,"37":-2.999408483505249,"38":-5.335641860961914,"39":9.850438117980957}},"15":{"bias":0.3839866518974304,"weights":{"0":0.3507658839225769,"1":-1.4094887971878052,"2":-2.889150381088257,"3":-1.8017730712890625,"4":-5.266770362854004,"5":8.388164520263672,"6":1.5813926458358765,"7":10.00757884979248,"8":-5.215903282165527,"9":-2.2455968856811523,"10":1.0900341272354126,"11":0.7975462675094604,"12":5.914280891418457,"13":-2.8482260704040527,"14":-4.282670497894287,"15":-6.886552333831787,"16":-1.3119304180145264,"17":0.32184934616088867,"18":2.4632325172424316,"19":3.727963447570801,"20":-2.5844926834106445,"21":-4.328431129455566,"22":-3.593569278717041,"23":-10.73179817199707,"24":-0.9940213561058044,"25":-10.608381271362305,"26":-8.596600532531738,"27":7.931321620941162,"28":-2.8598132133483887,"29":-16.51778793334961,"30":-8.57287311553955,"31":-11.338044166564941,"32":-13.22314453125,"33":2.789421796798706,"34":-9.304038047790527,"35":-2.927385091781616,"36":-5.141263961791992,"37":-14.345345497131348,"38":1.869580626487732,"39":-0.5414720177650452}},"16":{"bias":-12.079534530639648,"weights":{"0":1.1896257400512695,"1":-5.548791408538818,"2":-17.298809051513672,"3":-4.431020259857178,"4":-8.076517105102539,"5":7.36320161819458,"6":0.2862696647644043,"7":-10.946553230285645,"8":-9.525018692016602,"9":0.8717281222343445,"10":-0.9090849161148071,"11":-2.544588327407837,"12":-4.580687999725342,"13":-11.837735176086426,"14":1.690965175628662,"15":5.002746105194092,"16":-10.440373420715332,"17":16.077659606933594,"18":-16.374561309814453,"19":1.2900770902633667,"20":1.1033685207366943,"21":-3.8541171550750732,"22":-12.809515953063965,"23":-8.241347312927246,"24":0.19472196698188782,"25":-3.3793280124664307,"26":10.923745155334473,"27":-7.789492130279541,"28":0.20616120100021362,"29":-3.9419384002685547,"30":2.2782986164093018,"31":-0.2419222742319107,"32":7.560183525085449,"33":-5.777066230773926,"34":-3.371588945388794,"35":2.4833202362060547,"36":-3.496976852416992,"37":-7.3118391036987305,"38":12.117533683776855,"39":3.5556228160858154}},"17":{"bias":-5.856868743896484,"weights":{"0":-17.037364959716797,"1":-17.97046661376953,"2":-6.955230712890625,"3":-8.846821784973145,"4":1.233756422996521,"5":-16.365642547607422,"6":-6.300116062164307,"7":3.23171067237854,"8":-12.665574073791504,"9":-8.40841293334961,"10":-3.300947904586792,"11":4.505353927612305,"12":2.640005588531494,"13":10.845651626586914,"14":-12.626951217651367,"15":15.7620210647583,"16":-0.9988515973091125,"17":7.726320743560791,"18":-2.095186233520508,"19":-0.6329755783081055,"20":-9.432955741882324,"21":-19.17499542236328,"22":-10.935091018676758,"23":3.5316789150238037,"24":3.92276668548584,"25":3.8077991008758545,"26":6.672077655792236,"27":-2.2711517810821533,"28":5.5608415603637695,"29":-4.4949541091918945,"30":3.876267194747925,"31":7.4787750244140625,"32":-8.805710792541504,"33":0.03431268036365509,"34":-1.202526569366455,"35":-3.2239863872528076,"36":-8.680566787719727,"37":-10.607705116271973,"38":1.9239004850387573,"39":-0.37865203619003296}},"18":{"bias":-7.86883020401001,"weights":{"0":-2.200695276260376,"1":0.8001099228858948,"2":-7.925649642944336,"3":-12.83292007446289,"4":3.00655460357666,"5":-9.564248085021973,"6":-4.71967077255249,"7":3.640235662460327,"8":-6.129358291625977,"9":7.696501731872559,"10":-6.8628034591674805,"11":-5.097133159637451,"12":-0.07117394357919693,"13":3.151176929473877,"14":-0.24321681261062622,"15":-5.642642498016357,"16":-4.644716739654541,"17":13.937308311462402,"18":1.0128763914108276,"19":-11.853666305541992,"20":4.716111183166504,"21":-4.25175142288208,"22":-3.1790924072265625,"23":0.06554671376943588,"24":13.55445384979248,"25":-0.5429958701133728,"26":-10.339245796203613,"27":-20.131845474243164,"28":1.9827286005020142,"29":16.17641830444336,"30":3.629525661468506,"31":-5.872531890869141,"32":-1.1240812540054321,"33":0.39175862073898315,"34":-11.675768852233887,"35":0.043015528470277786,"36":-15.07099437713623,"37":-0.629833459854126,"38":-0.8370040655136108,"39":-2.466322183609009}},"19":{"bias":-2.144205093383789,"weights":{"0":10.07889461517334,"1":0.16549748182296753,"2":-11.345373153686523,"3":-1.7873919010162354,"4":-0.9318575263023376,"5":-15.212228775024414,"6":1.5019917488098145,"7":-7.940860271453857,"8":4.882758140563965,"9":-3.9182143211364746,"10":-5.072780132293701,"11":-1.5976210832595825,"12":-0.8446897268295288,"13":4.809414386749268,"14":3.0969462394714355,"15":-11.61949634552002,"16":-2.9975879192352295,"17":6.883690357208252,"18":4.0957794189453125,"19":-10.536986351013184,"20":-11.592168807983398,"21":6.191039085388184,"22":-7.348836421966553,"23":0.20860756933689117,"24":-19.157787322998047,"25":-2.998368263244629,"26":-0.6410205960273743,"27":1.97742760181427,"28":2.7934274673461914,"29":-3.9827027320861816,"30":-14.0940580368042,"31":-17.828393936157227,"32":12.361454010009766,"33":-5.052671432495117,"34":-3.669992208480835,"35":0.22450406849384308,"36":-24.68534278869629,"37":-4.268387317657471,"38":15.878024101257324,"39":-0.19537948071956635}}},{"0":{"bias":-15.159128189086914,"weights":{"0":8.922611236572266,"1":3.986032485961914,"2":12.770182609558105,"3":16.15114974975586,"4":11.589146614074707,"5":18.68832778930664,"6":17.043134689331055,"7":15.037101745605469,"8":14.602137565612793,"9":8.518216133117676,"10":15.003150939941406,"11":9.870426177978516,"12":11.95952033996582,"13":17.054048538208008,"14":11.830728530883789,"15":17.896249771118164,"16":7.450571537017822,"17":9.428810119628906,"18":18.155136108398438,"19":18.8277645111084}}}],"outputLookup":true,"inputLookup":true,"activation":"sigmoid","trainOpts":{"iterations":3000,"errorThresh":0.005,"log":true,"logPeriod":10,"learningRate":0.3,"momentum":0.1,"callbackPeriod":10,"beta1":0.9,"beta2":0.999,"epsilon":1e-8}}