{"sizes":[14,40,20,1],"layers":[{"0":{},"1":{},"2":{},"3":{},"4":{},"5":{},"6":{},"7":{},"8":{},"9":{},"10":{},"11":{},"12":{},"13":{}},{"0":{"bias":10.911157608032227,"weights":{"0":-1.7045836448669434,"1":-24.881816864013672,"2":-6.735126495361328,"3":8.956053733825684,"4":8.0081205368042,"5":-8.051292419433594,"6":8.798441886901855,"7":-10.603686332702637,"8":16.665178298950195,"9":-29.8883056640625,"10":2.306112289428711,"11":5.892105579376221,"12":11.03197956085205,"13":-0.27082863450050354}},"1":{"bias":7.126450538635254,"weights":{"0":-12.436067581176758,"1":-3.1438422203063965,"2":3.0147788524627686,"3":-10.860811233520508,"4":6.546687602996826,"5":17.281951904296875,"6":0.13307130336761475,"7":-8.07884693145752,"8":-5.662726402282715,"9":9.557680130004883,"10":-14.171547889709473,"11":-11.31185531616211,"12":-14.752873420715332,"13":33.53215026855469}},"2":{"bias":-2.1498894691467285,"weights":{"0":12.013402938842773,"1":-7.851174831390381,"2":-22.716960906982422,"3":-15.181143760681152,"4":-11.55299186706543,"5":4.461765766143799,"6":-2.848743438720703,"7":31.535341262817383,"8":20.423622131347656,"9":-10.746813774108887,"10":1.7959754467010498,"11":-20.245359420776367,"12":-21.161943435668945,"13":8.227532386779785}},"3":{"bias":-23.033306121826172,"weights":{"0":7.882465362548828,"1":9.318856239318848,"2":-19.039140701293945,"3":-1.416020393371582,"4":-9.565882682800293,"5":12.294690132141113,"6":1.9296975135803223,"7":-19.578662872314453,"8":41.36750411987305,"9":-3.2844290733337402,"10":4.575697898864746,"11":-8.029494285583496,"12":5.209601402282715,"13":-21.302398681640625}},"4":{"bias":-9.993404388427734,"weights":{"0":-0.1180957481265068,"1":-0.9305450320243835,"2":-20.932188034057617,"3":12.959146499633789,"4":-18.21622085571289,"5":14.501587867736816,"6":0.6585216522216797,"7":-33.164180755615234,"8":-5.918066024780273,"9":19.657730102539062,"10":-27.189889907836914,"11":13.451693534851074,"12":8.092617988586426,"13":1.3507574796676636}},"5":{"bias":-8.456382751464844,"weights":{"0":-3.1182973384857178,"1":-15.254690170288086,"2":14.110616683959961,"3":2.189652919769287,"4":-18.024778366088867,"5":30.848819732666016,"6":-15.851800918579102,"7":-2.2471070289611816,"8":19.934812545776367,"9":11.651753425598145,"10":-13.16159725189209,"11":-3.606381893157959,"12":-3.007307291030884,"13":31.24501609802246}},"6":{"bias":-6.235434055328369,"weights":{"0":0.7462330460548401,"1":-6.074047088623047,"2":16.703506469726562,"3":4.078795433044434,"4":-11.234596252441406,"5":4.5899739265441895,"6":-2.8719987869262695,"7":-7.470528602600098,"8":-7.989401817321777,"9":10.658432006835938,"10":-12.662548065185547,"11":-13.271428108215332,"12":6.895036220550537,"13":2.4202966690063477}},"7":{"bias":-14.931026458740234,"weights":{"0":-15.867128372192383,"1":23.84245491027832,"2":-9.896873474121094,"3":-14.952268600463867,"4":9.143675804138184,"5":11.285967826843262,"6":34.71453857421875,"7":-1.4808460474014282,"8":-16.53572654724121,"9":-31.5112361907959,"10":-17.30402183532715,"11":-0.9617007374763489,"12":-17.13228416442871,"13":29.68960189819336}},"8":{"bias":-11.837246894836426,"weights":{"0":-8.919235229492188,"1":11.569169998168945,"2":8.519919395446777,"3":-47.24801254272461,"4":-35.00382995605469,"5":32.476009368896484,"6":14.979063987731934,"7":-1.7972443103790283,"8":7.881494998931885,"9":-24.900022506713867,"10":3.983950614929199,"11":20.55370330810547,"12":8.222379684448242,"13":-15.476949691772461}},"9":{"bias":-4.756991863250732,"weights":{"0":-7.068417549133301,"1":-12.870536804199219,"2":22.84575653076172,"3":-17.334089279174805,"4":-31.42401695251465,"5":13.331646919250488,"6":18.208227157592773,"7":12.745699882507324,"8":5.469150543212891,"9":5.14045524597168,"10":0.7347826361656189,"11":12.510151863098145,"12":-28.990550994873047,"13":9.174504280090332}},"10":{"bias":-5.39933443069458,"weights":{"0":-6.2022809982299805,"1":-11.06553840637207,"2":12.440865516662598,"3":27.77968978881836,"4":-22.50250816345215,"5":-8.14981460571289,"6":11.408753395080566,"7":-15.82542610168457,"8":0.657955527305603,"9":2.049326181411743,"10":4.278156280517578,"11":12.884340286254883,"12":22.118539810180664,"13":8.727381706237793}},"11":{"bias":11.04092025756836,"weights":{"0":-1.406123161315918,"1":-17.553382873535156,"2":-18.995586395263672,"3":5.9234466552734375,"4":3.94095778465271,"5":-11.157010078430176,"6":40.33989334106445,"7":-9.9895658493042,"8":-10.525042533874512,"9":-22.687456130981445,"10":-4.512143611907959,"11":-4.587545394897461,"12":-3.655935287475586,"13":-10.003192901611328}},"12":{"bias":-9.299668312072754,"weights":{"0":-1.3626357316970825,"1":-0.6187003254890442,"2":-21.004182815551758,"3":20.740375518798828,"4":18.12388038635254,"5":-10.206470489501953,"6":4.436778545379639,"7":-6.191972732543945,"8":-6.911045074462891,"9":14.220379829406738,"10":-3.5720374584198,"11":-14.493102073669434,"12":-7.863186836242676,"13":7.463815212249756}},"13":{"bias":-2.843097686767578,"weights":{"0":10.245806694030762,"1":-19.509517669677734,"2":-0.9785451889038086,"3":38.206687927246094,"4":-19.12191390991211,"5":-5.932214736938477,"6":-32.5892333984375,"7":18.649255752563477,"8":7.149552822113037,"9":10.285720825195312,"10":-9.511832237243652,"11":-23.24286460876465,"12":-16.452184677124023,"13":-5.015957832336426}},"14":{"bias":-10.770140647888184,"weights":{"0":9.102145195007324,"1":-4.178489685058594,"2":-1.5719505548477173,"3":-39.00677490234375,"4":-18.289804458618164,"5":20.710010528564453,"6":-8.876147270202637,"7":13.253371238708496,"8":-7.938577651977539,"9":-8.310243606567383,"10":18.29555892944336,"11":8.782713890075684,"12":-15.117388725280762,"13":13.44360637664795}},"15":{"bias":-3.0534636974334717,"weights":{"0":-7.649075031280518,"1":-7.1243977546691895,"2":-26.355010986328125,"3":-9.542989730834961,"4":-8.873129844665527,"5":-8.980050086975098,"6":12.369730949401855,"7":-1.4845157861709595,"8":20.227264404296875,"9":0.985332727432251,"10":38.110294342041016,"11":24.600343704223633,"12":8.584298133850098,"13":17.638668060302734}},"16":{"bias":6.185581207275391,"weights":{"0":3.0778746604919434,"1":-14.117037773132324,"2":13.743452072143555,"3":-2.311988353729248,"4":-19.760435104370117,"5":-14.37313461303711,"6":12.078670501708984,"7":-4.861786842346191,"8":-28.454782485961914,"9":3.0472843647003174,"10":30.136194229125977,"11":-11.696756362915039,"12":-9.746644973754883,"13":-5.353975772857666}},"17":{"bias":-3.062183141708374,"weights":{"0":-7.624686241149902,"1":6.155510425567627,"2":-21.52477264404297,"3":-3.6602625846862793,"4":-11.616741180419922,"5":12.804397583007812,"6":8.790274620056152,"7":10.002331733703613,"8":-7.381401062011719,"9":14.886911392211914,"10":-0.9070307612419128,"11":-19.083799362182617,"12":-11.262271881103516,"13":22.31480598449707}},"18":{"bias":2.827935218811035,"weights":{"0":-4.524016380310059,"1":-8.141180992126465,"2":-29.72523307800293,"3":25.67754554748535,"4":-23.23698616027832,"5":6.886509895324707,"6":15.51563549041748,"7":-1.8658974170684814,"8":-15.624778747558594,"9":-34.63052749633789,"10":19.157730102539062,"11":5.9664483070373535,"12":10.781342506408691,"13":-24.470239639282227}},"19":{"bias":3.5638697147369385,"weights":{"0":9.58634090423584,"1":-20.48650360107422,"2":-10.574785232543945,"3":6.261546611785889,"4":-3.447603940963745,"5":15.417451858520508,"6":5.010447025299072,"7":-3.9565131664276123,"8":-9.253595352172852,"9":-7.888286113739014,"10":-6.782501220703125,"11":13.410504341125488,"12":-20.48828125,"13":3.0879688262939453}},"20":{"bias":-6.050583362579346,"weights":{"0":-5.623542308807373,"1":-13.345267295837402,"2":-19.807374954223633,"3":8.313567161560059,"4":9.185792922973633,"5":-15.638925552368164,"6":9.050847053527832,"7":-10.850539207458496,"8":5.076371669769287,"9":22.175729751586914,"10":11.413373947143555,"11":0.21447031199932098,"12":-28.786991119384766,"13":21.706851959228516}},"21":{"bias":5.279290676116943,"weights":{"0":3.3534152507781982,"1":-5.1402764320373535,"2":-6.3045172691345215,"3":-1.353432059288025,"4":-4.379300594329834,"5":16.829370498657227,"6":-10.862049102783203,"7":5.459909915924072,"8":-0.22924073040485382,"9":-10.431159973144531,"10":-16.249719619750977,"11":-0.4899021089076996,"12":-15.433534622192383,"13":8.537588119506836}},"22":{"bias":4.497903347015381,"weights":{"0":-8.800576210021973,"1":-9.65949535369873,"2":-28.491455078125,"3":2.526398181915283,"4":9.21248722076416,"5":-0.2808015048503876,"6":-4.229351997375488,"7":14.720890998840332,"8":-15.641929626464844,"9":-4.021986961364746,"10":4.315993309020996,"11":4.857857704162598,"12":-18.481088638305664,"13":-6.767914295196533}},"23":{"bias":-1.4597121477127075,"weights":{"0":16.32239532470703,"1":-14.343459129333496,"2":4.5528340339660645,"3":-20.319141387939453,"4":4.486748695373535,"5":20.520612716674805,"6":-16.021949768066406,"7":7.865019798278809,"8":-9.017507553100586,"9":9.000364303588867,"10":-32.19757843017578,"11":-21.276371002197266,"12":-21.419658660888672,"13":-11.907940864562988}},"24":{"bias":2.5725722312927246,"weights":{"0":2.0730018615722656,"1":-23.817676544189453,"2":-21.07398223876953,"3":14.990550994873047,"4":3.9172756671905518,"5":9.737587928771973,"6":-18.17259979248047,"7":7.245039939880371,"8":-4.608950138092041,"9":-11.947574615478516,"10":17.397947311401367,"11":7.214800834655762,"12":0.6856089234352112,"13":-6.746764183044434}},"25":{"bias":11.664026260375977,"weights":{"0":-15.521925926208496,"1":-10.752945899963379,"2":-30.305683135986328,"3":19.307693481445312,"4":3.880415678024292,"5":9.61103630065918,"6":-25.17287254333496,"7":-10.952044486999512,"8":-21.321548461914062,"9":7.090603351593018,"10":-19.08150291442871,"11":3.5399951934814453,"12":9.424789428710938,"13":-14.291001319885254}},"26":{"bias":-8.014416694641113,"weights":{"0":11.941494941711426,"1":-17.320659637451172,"2":1.7655116319656372,"3":2.8283796310424805,"4":6.118195533752441,"5":-3.4190473556518555,"6":-31.915903091430664,"7":22.425256729125977,"8":2.1510424613952637,"9":-23.080585479736328,"10":7.787552833557129,"11":25.045713424682617,"12":-0.7963383793830872,"13":-18.543914794921875}},"27":{"bias":1.370161771774292,"weights":{"0":-23.80854606628418,"1":0.23597979545593262,"2":-11.663996696472168,"3":-11.186086654663086,"4":2.8628649711608887,"5":0.1899668276309967,"6":5.781710624694824,"7":3.784222364425659,"8":-7.7905988693237305,"9":-5.681362628936768,"10":-1.613091230392456,"11":7.382004737854004,"12":10.872929573059082,"13":-0.06507558375597}},"28":{"bias":-8.210192680358887,"weights":{"0":18.724884033203125,"1":-10.976985931396484,"2":-25.33837890625,"3":-12.257339477539062,"4":3.866176128387451,"5":6.3207526206970215,"6":5.672542572021484,"7":26.679059982299805,"8":-22.04527473449707,"9":15.486055374145508,"10":-17.91481590270996,"11":-7.17179536819458,"12":-14.727609634399414,"13":19.64177894592285}},"29":{"bias":5.354641437530518,"weights":{"0":2.656794309616089,"1":-27.06378173828125,"2":9.90666675567627,"3":-4.59657096862793,"4":-20.5872859954834,"5":3.4204158782958984,"6":23.999670028686523,"7":-1.2233591079711914,"8":15.226999282836914,"9":-10.586099624633789,"10":14.771647453308105,"11":-2.372102737426758,"12":-1.5278693437576294,"13":-11.896629333496094}},"30":{"bias":-12.805116653442383,"weights":{"0":3.2924582958221436,"1":1.7822133302688599,"2":0.16905952990055084,"3":-5.891042232513428,"4":-9.321240425109863,"5":19.612045288085938,"6":-15.39123821258545,"7":17.484188079833984,"8":-13.855499267578125,"9":-8.898038864135742,"10":11.491042137145996,"11":4.880424976348877,"12":-17.5775146484375,"13":15.708715438842773}},"31":{"bias":-2.8652355670928955,"weights":{"0":-1.4562978744506836,"1":-12.110074996948242,"2":-11.538541793823242,"3":1.9031912088394165,"4":9.811603546142578,"5":-5.925892353057861,"6":1.883219838142395,"7":2.9360432624816895,"8":-9.708637237548828,"9":-19.992992401123047,"10":21.916208267211914,"11":25.104358673095703,"12":10.316719055175781,"13":-17.18587875366211}},"32":{"bias":3.6869735717773438,"weights":{"0":5.106565952301025,"1":-12.142623901367188,"2":-25.96836280822754,"3":-2.8465662002563477,"4":-13.856292724609375,"5":33.98271942138672,"6":-6.155644416809082,"7":40.31136703491211,"8":-11.442493438720703,"9":-26.884769439697266,"10":-10.818389892578125,"11":-15.256525993347168,"12":10.793523788452148,"13":-8.070154190063477}},"33":{"bias":8.56237506866455,"weights":{"0":-15.13228988647461,"1":-15.720192909240723,"2":-25.08359146118164,"3":16.30790138244629,"4":-2.7953734397888184,"5":21.307697296142578,"6":-18.397216796875,"7":7.5480170249938965,"8":-21.91937828063965,"9":3.1858811378479004,"10":2.1730306148529053,"11":11.763792991638184,"12":-7.368879318237305,"13":3.663154125213623}},"34":{"bias":15.280511856079102,"weights":{"0":4.703147888183594,"1":-26.869951248168945,"2":15.715502738952637,"3":5.533411979675293,"4":-15.808050155639648,"5":12.696024894714355,"6":-0.36669695377349854,"7":-29.358428955078125,"8":-5.891770362854004,"9":0.877303421497345,"10":-17.64631462097168,"11":-10.712814331054688,"12":1.8864861726760864,"13":5.294905185699463}},"35":{"bias":11.940542221069336,"weights":{"0":-19.48740577697754,"1":-7.504489421844482,"2":-3.947457790374756,"3":-13.108967781066895,"4":5.800144195556641,"5":0.5037293434143066,"6":-5.374528884887695,"7":-22.127681732177734,"8":4.7411932945251465,"9":15.684531211853027,"10":-6.555431365966797,"11":2.025268077850342,"12":1.4771232604980469,"13":-13.376686096191406}},"36":{"bias":13.187776565551758,"weights":{"0":-7.796230792999268,"1":-37.322994232177734,"2":21.861007690429688,"3":-24.566213607788086,"4":23.79141616821289,"5":-25.260498046875,"6":-7.568641662597656,"7":-22.690479278564453,"8":5.174834728240967,"9":-9.71424388885498,"10":19.13884162902832,"11":11.363588333129883,"12":-10.269864082336426,"13":3.0714292526245117}},"37":{"bias":4.399682998657227,"weights":{"0":-7.972326278686523,"1":-21.772260665893555,"2":-39.08384323120117,"3":9.118674278259277,"4":-21.151094436645508,"5":6.5651936531066895,"6":-8.59875774383545,"7":-9.094852447509766,"8":11.74897289276123,"9":9.473037719726562,"10":17.19880485534668,"11":0.4319249093532562,"12":5.580793857574463,"13":4.605427265167236}},"38":{"bias":7.113603115081787,"weights":{"0":-6.192897319793701,"1":-2.877518892288208,"2":10.224198341369629,"3":18.089509963989258,"4":8.242941856384277,"5":-6.627113342285156,"6":-7.228720188140869,"7":-26.71392059326172,"8":-3.9990129470825195,"9":-20.285776138305664,"10":-19.864370346069336,"11":20.90987205505371,"12":-4.991139888763428,"13":18.008485794067383}},"39":{"bias":-26.602352142333984,"weights":{"0":19.925975799560547,"1":-3.6666600704193115,"2":2.56684947013855,"3":-36.35564041137695,"4":32.004127502441406,"5":9.495576858520508,"6":23.59951400756836,"7":1.0059826374053955,"8":10.610881805419922,"9":3.625814914703369,"10":-6.8864054679870605,"11":15.079882621765137,"12":-5.7870707511901855,"13":-1.802264928817749}}},{"0":{"bias":-8.639939308166504,"weights":{"0":7.314387321472168,"1":-9.231322288513184,"2":0.5048061609268188,"3":-19.515432357788086,"4":2.8240931034088135,"5":-6.746336460113525,"6":-8.550614356994629,"7":3.2982919216156006,"8":5.856428146362305,"9":6.401411056518555,"10":0.6353843808174133,"11":6.783246994018555,"12":0.13020442426204681,"13":-3.923039436340332,"14":-3.2815792560577393,"15":-3.2380669116973877,"16":3.8925464153289795,"17":-0.2129092514514923,"18":-12.36854076385498,"19":0.042333733290433884,"20":4.822190761566162,"21":3.152991533279419,"22":-10.568353652954102,"23":18.369014739990234,"24":5.398858547210693,"25":-18.237701416015625,"26":-0.28724461793899536,"27":0.2364719957113266,"28":-22.76461410522461,"29":8.157815933227539,"30":1.058755874633789,"31":2.559762716293335,"32":2.392571449279785,"33":3.5165491104125977,"34":-16.506114959716797,"35":2.6873292922973633,"36":5.760311126708984,"37":-11.058045387268066,"38":0.7090780735015869,"39":-17.101430892944336}},"1":{"bias":3.7367022037506104,"weights":{"0":5.380969524383545,"1":-10.765281677246094,"2":-1.790152907371521,"3":-12.416314125061035,"4":-5.993431568145752,"5":-12.919122695922852,"6":-3.2703747749328613,"7":13.99266242980957,"8":2.469022035598755,"9":-12.959612846374512,"10":-10.488191604614258,"11":1.2819794416427612,"12":-5.847835063934326,"13":2.694582462310791,"14":-5.634222507476807,"15":-7.596774578094482,"16":-15.68046760559082,"17":0.5161389708518982,"18":-17.64592170715332,"19":1.2975964546203613,"20":-12.247915267944336,"21":-3.24653959274292,"22":-4.251197814941406,"23":-14.752809524536133,"24":3.3261849880218506,"25":21.4357852935791,"26":-3.4872243404388428,"27":-3.09206223487854,"28":-2.5551419258117676,"29":5.3853864669799805,"30":-5.2890496253967285,"31":6.930020809173584,"32":-7.301032066345215,"33":3.0082545280456543,"34":-9.237245559692383,"35":-8.182147026062012,"36":11.221968650817871,"37":3.671900987625122,"38":7.6992998123168945,"39":3.338041305541992}},"2":{"bias":-8.621200561523438,"weights":{"0":-19.341033935546875,"1":6.539685249328613,"2":-14.375321388244629,"3":5.30640172958374,"4":-13.670175552368164,"5":6.765971660614014,"6":-6.253180027008057,"7":13.544356346130371,"8":4.016258239746094,"9":-0.7390517592430115,"10":-11.643391609191895,"11":11.591888427734375,"12":-0.01663028821349144,"13":-0.571884274482727,"14":19.295913696289062,"15":-9.818944931030273,"16":-4.26140832901001,"17":-4.933962821960449,"18":13.588190078735352,"19":2.076932668685913,"20":7.486759662628174,"21":-5.273163795471191,"22":-1.3954808712005615,"23":-21.655284881591797,"24":8.158727645874023,"25":-7.749845027923584,"26":0.5718299746513367,"27":7.027011394500732,"28":-16.82421112060547,"29":-9.30261516571045,"30":5.585012912750244,"31":-6.55841064453125,"32":2.556994915008545,"33":-7.086583614349365,"34":1.8991271257400513,"35":19.450571060180664,"36":16.12445068359375,"37":21.27216339111328,"38":-0.3685637414455414,"39":-9.589983940124512}},"3":{"bias":-1.1344659328460693,"weights":{"0":3.625720262527466,"1":3.606945276260376,"2":-7.289999008178711,"3":-4.803635120391846,"4":11.076339721679688,"5":3.911492347717285,"6":-1.4350069761276245,"7":19.84365463256836,"8":-9.187118530273438,"9":0.6661345362663269,"10":2.3662004470825195,"11":-32.008155822753906,"12":7.584356784820557,"13":17.547801971435547,"14":-4.458662986755371,"15":-15.34903621673584,"16":-2.9251768589019775,"17":-0.8935925960540771,"18":-21.53179168701172,"19":-2.8105697631835938,"20":1.1498323678970337,"21":-4.109521389007568,"22":-6.896773338317871,"23":13.26183032989502,"24":-7.555542945861816,"25":-8.284038543701172,"26":3.1571011543273926,"27":-0.9197094440460205,"28":-1.149277925491333,"29":-4.411551475524902,"30":5.904959201812744,"31":-7.6347784996032715,"32":-2.718790054321289,"33":-6.169493675231934,"34":-1.7852073907852173,"35":-3.212367296218872,"36":12.719467163085938,"37":0.8971773386001587,"38":-1.7469402551651,"39":-24.95793342590332}},"4":{"bias":-11.191704750061035,"weights":{"0":0.862400472164154,"1":1.8799912929534912,"2":8.157600402832031,"3":2.124941349029541,"4":8.549666404724121,"5":-4.669633865356445,"6":-2.3803606033325195,"7":-13.154661178588867,"8":16.596153259277344,"9":-4.887416362762451,"10":-19.814008712768555,"11":-8.021839141845703,"12":6.70271635055542,"13":12.932082176208496,"14":-0.9749280214309692,"15":-9.799808502197266,"16":-4.974152565002441,"17":-4.131916522979736,"18":-8.217530250549316,"19":6.290815830230713,"20":2.11409330368042,"21":-1.8229165077209473,"22":-4.2820210456848145,"23":-6.293403148651123,"24":3.1544952392578125,"25":-9.85845947265625,"26":-7.621077060699463,"27":-8.590126991271973,"28":-16.694169998168945,"29":-3.1856260299682617,"30":2.1611955165863037,"31":-1.9867311716079712,"32":-10.266705513000488,"33":-2.229271173477173,"34":8.796116828918457,"35":0.640130341053009,"36":-6.549927234649658,"37":-0.6470181941986084,"38":10.474249839782715,"39":-14.274139404296875}},"5":{"bias":4.616491317749023,"weights":{"0":-14.955205917358398,"1":-10.130123138427734,"2":2.518904209136963,"3":-5.972833156585693,"4":9.69288444519043,"5":-13.898386001586914,"6":-3.2694342136383057,"7":-9.843748092651367,"8":-2.135356903076172,"9":-0.6670824885368347,"10":6.929564476013184,"11":-0.830686628818512,"12":-15.599109649658203,"13":0.3597150444984436,"14":-17.24475860595703,"15":1.3748633861541748,"16":2.9272830486297607,"17":0.9886518716812134,"18":7.477863788604736,"19":-6.665200710296631,"20":8.86754322052002,"21":-3.002556324005127,"22":-6.5729827880859375,"23":-9.679292678833008,"24":-9.146336555480957,"25":2.611983299255371,"26":-10.601400375366211,"27":10.558649063110352,"28":-3.8787736892700195,"29":-3.0576295852661133,"30":-8.514768600463867,"31":-10.209222793579102,"32":0.20678609609603882,"33":-0.16300228238105774,"34":-3.5908823013305664,"35":-18.165987014770508,"36":-10.618372917175293,"37":-3.9428553581237793,"38":4.8511457443237305,"39":-9.342368125915527}},"6":{"bias":0.5582559108734131,"weights":{"0":-6.083643913269043,"1":0.042092714458703995,"2":-4.516971111297607,"3":-2.33475399017334,"4":-18.19347381591797,"5":-8.518688201904297,"6":9.543763160705566,"7":11.830670356750488,"8":-12.848841667175293,"9":0.157570481300354,"10":7.210172653198242,"11":5.9573469161987305,"12":-15.21793270111084,"13":14.868513107299805,"14":-9.846623420715332,"15":-0.2143024355173111,"16":-0.6602590084075928,"17":-3.5093045234680176,"18":-13.251100540161133,"19":-2.426034450531006,"20":5.183469772338867,"21":-3.5963151454925537,"22":-2.922762393951416,"23":-0.2206391841173172,"24":-9.079927444458008,"25":7.194167613983154,"26":9.884527206420898,"27":12.452356338500977,"28":2.7143027782440186,"29":-6.237486839294434,"30":-6.895826816558838,"31":-13.26624584197998,"32":10.50583553314209,"33":-0.7807447910308838,"34":-13.568065643310547,"35":-13.358633995056152,"36":3.0381319522857666,"37":6.19260311126709,"38":6.80341911315918,"39":-13.292799949645996}},"7":{"bias":-4.249570846557617,"weights":{"0":-7.184512138366699,"1":1.5896373987197876,"2":-9.839348793029785,"3":-8.58695125579834,"4":-11.043647766113281,"5":-14.242518424987793,"6":0.7823696136474609,"7":1.6778264045715332,"8":-6.947953224182129,"9":-25.975278854370117,"10":1.776761770248413,"11":-5.979158401489258,"12":5.552058219909668,"13":-7.396708965301514,"14":9.916939735412598,"15":0.798712432384491,"16":-3.4816176891326904,"17":-1.7272851467132568,"18":4.322587013244629,"19":-8.691082954406738,"20":-11.845250129699707,"21":-9.167258262634277,"22":-3.0187366008758545,"23":8.188231468200684,"24":5.124171733856201,"25":-4.063536643981934,"26":15.780464172363281,"27":-0.7524256706237793,"28":10.266071319580078,"29":-4.445714950561523,"30":-5.230926036834717,"31":8.224420547485352,"32":-15.172747611999512,"33":-10.50140380859375,"34":15.537066459655762,"35":-2.039677858352661,"36":2.700087070465088,"37":7.907759666442871,"38":0.47717371582984924,"39":-9.446386337280273}},"8":{"bias":0.6191926598548889,"weights":{"0":3.0917842388153076,"1":-11.894549369812012,"2":7.647968769073486,"3":-5.962152481079102,"4":-7.796349048614502,"5":11.273489952087402,"6":1.231187343597412,"7":9.416199684143066,"8":6.134633541107178,"9":-2.0713772773742676,"10":8.393280029296875,"11":-8.739487648010254,"12":17.728485107421875,"13":-9.873215675354004,"14":-19.305505752563477,"15":1.5521880388259888,"16":-2.63843035697937,"17":4.411157608032227,"18":-2.7196435928344727,"19":1.445349931716919,"20":-3.84381365776062,"21":-5.402383327484131,"22":1.3475096225738525,"23":-4.073714256286621,"24":-4.269675254821777,"25":7.247177600860596,"26":-0.6895281672477722,"27":8.997881889343262,"28":-3.0453271865844727,"29":5.497405529022217,"30":-2.797834634780884,"31":3.200019359588623,"32":-30.63321876525879,"33":8.628416061401367,"34":0.2814349830150604,"35":-11.730304718017578,"36":-18.088865280151367,"37":-5.08746862411499,"38":-4.069063663482666,"39":16.248201370239258}},"9":{"bias":-14.353177070617676,"weights":{"0":10.188989639282227,"1":-7.556808948516846,"2":-6.682875156402588,"3":23.280845642089844,"4":2.9310710430145264,"5":0.484922856092453,"6":-1.0799436569213867,"7":-1.7410019636154175,"8":-23.471826553344727,"9":6.6136651039123535,"10":1.885378122329712,"11":8.830601692199707,"12":-9.984431266784668,"13":-0.9508559107780457,"14":-5.872976779937744,"15":-6.992132663726807,"16":0.730402946472168,"17":3.1216940879821777,"18":10.6170654296875,"19":2.0010600090026855,"20":-2.4704833030700684,"21":-0.0012666095281019807,"22":2.3567163944244385,"23":-8.372869491577148,"24":-16.898014068603516,"25":-0.5300124883651733,"26":8.154194831848145,"27":14.245233535766602,"28":3.2060189247131348,"29":-5.093306064605713,"30":-0.055922623723745346,"31":-7.710066318511963,"32":10.706476211547852,"33":8.727157592773438,"34":1.9711276292800903,"35":-6.692275524139404,"36":-5.705198764801025,"37":-7.118914604187012,"38":2.8535408973693848,"39":-8.288747787475586}},"10":{"bias":0.8964225649833679,"weights":{"0":4.215745449066162,"1":-0.9291877150535583,"2":-9.804012298583984,"3":-11.129565238952637,"4":5.473397731781006,"5":-10.38078498840332,"6":13.801060676574707,"7":-1.043053388595581,"8":-3.818896532058716,"9":4.049316883087158,"10":-6.390267848968506,"11":-6.0875959396362305,"12":-11.305654525756836,"13":-4.952303409576416,"14":-5.442264556884766,"15":-3.2802696228027344,"16":2.4895219802856445,"17":-8.877176284790039,"18":10.193100929260254,"19":4.690099716186523,"20":7.952197074890137,"21":1.2733917236328125,"22":-3.5366599559783936,"23":0.5491085648536682,"24":-6.2794342041015625,"25":10.84305477142334,"26":2.3862404823303223,"27":-4.0410847663879395,"28":2.790900230407715,"29":-0.5684974789619446,"30":-7.449604511260986,"31":-3.8540685176849365,"32":-26.56913948059082,"33":0.39879080653190613,"34":-7.04790735244751,"35":-11.403725624084473,"36":2.0477406978607178,"37":-5.98076057434082,"38":-1.190559983253479,"39":-1.6779066324234009}},"11":{"bias":0.2719772756099701,"weights":{"0":5.027287006378174,"1":5.521052837371826,"2":7.9761786460876465,"3":2.093191385269165,"4":-1.8027105331420898,"5":4.465917587280273,"6":3.555812358856201,"7":0.4256688058376312,"8":-1.8812735080718994,"9":-0.8457152843475342,"10":-9.72774600982666,"11":-2.7420735359191895,"12":-2.952869176864624,"13":-4.149494171142578,"14":8.937973976135254,"15":-6.797837257385254,"16":4.43413782119751,"17":-7.662095546722412,"18":-5.003685474395752,"19":-9.381424903869629,"20":4.300361156463623,"21":-5.379022121429443,"22":6.250580787658691,"23":-13.402433395385742,"24":3.499608278274536,"25":-1.6979458332061768,"26":2.5074636936187744,"27":9.713080406188965,"28":-2.798267364501953,"29":-2.9777028560638428,"30":-24.273387908935547,"31":1.9289437532424927,"32":2.555478811264038,"33":-2.6605896949768066,"34":-4.7565789222717285,"35":0.8783493041992188,"36":-15.987997055053711,"37":-3.621344804763794,"38":-0.7435342669487,"39":1.5729990005493164}},"12":{"bias":-2.7439281940460205,"weights":{"0":8.21162223815918,"1":-2.7233660221099854,"2":-5.049777030944824,"3":-7.126961708068848,"4":-0.6334916353225708,"5":4.913699150085449,"6":-7.852518081665039,"7":-16.606164932250977,"8":2.3471081256866455,"9":-13.412701606750488,"10":-16.06386375427246,"11":10.996325492858887,"12":-2.3394389152526855,"13":5.295555114746094,"14":-14.233478546142578,"15":16.433155059814453,"16":-15.148944854736328,"17":-1.06168532371521,"18":-4.459979057312012,"19":-0.6266566514968872,"20":-9.791110038757324,"21":-1.547032117843628,"22":9.716913223266602,"23":-7.308791637420654,"24":-9.292993545532227,"25":1.5615895986557007,"26":0.8507945537567139,"27":-2.015381097793579,"28":2.5309932231903076,"29":9.996908187866211,"30":14.837913513183594,"31":-3.778362274169922,"32":7.827038288116455,"33":2.446471691131592,"34":2.2863636016845703,"35":1.8881717920303345,"36":1.0274041891098022,"37":-6.311121940612793,"38":-7.75288200378418,"39":-16.07333755493164}},"13":{"bias":-9.047126770019531,"weights":{"0":-1.559592366218567,"1":-2.8726885318756104,"2":-1.053015947341919,"3":11.464425086975098,"4":-5.404119491577148,"5":-0.8923548460006714,"6":-6.045121192932129,"7":-20.057527542114258,"8":12.208328247070312,"9":-3.1748061180114746,"10":3.6668527126312256,"11":14.135376930236816,"12":2.257222890853882,"13":-9.016100883483887,"14":-4.831024169921875,"15":-10.992904663085938,"16":15.383721351623535,"17":-2.486177682876587,"18":19.060165405273438,"19":-1.9471923112869263,"20":19.701740264892578,"21":-7.835457801818848,"22":-11.496075630187988,"23":6.373811721801758,"24":-6.27801513671875,"25":13.890898704528809,"26":-7.123112201690674,"27":-0.13585884869098663,"28":-9.703779220581055,"29":-3.1871426105499268,"30":4.180600166320801,"31":-6.956408977508545,"32":9.34849739074707,"33":-2.006542921066284,"34":-12.357786178588867,"35":-6.405181884765625,"36":-27.966005325317383,"37":-17.028011322021484,"38":-0.0685802698135376,"39":5.223172664642334}},"14":{"bias":-7.065446376800537,"weights":{"0":0.032886575907468796,"1":3.647561550140381,"2":-1.3130296468734741,"3":19.518362045288086,"4":2.968994140625,"5":8.671473503112793,"6":-1.7815223932266235,"7":-0.677145779132843,"8":-7.6217474937438965,"9":-9.10579776763916,"10":-8.428452491760254,"11":-2.460667848587036,"12":0.47315600514411926,"13":9.03868293762207,"14":3.613252878189087,"15":-2.7993502616882324,"16":-8.555184364318848,"17":-20.962112426757812,"18":0.7199018597602844,"19":0.07468366622924805,"20":3.0353620052337646,"21":0.5664623975753784,"22":-2.904649496078491,"23":-4.5661940574646,"24":-6.052769660949707,"25":-8.563543319702148,"26":-6.92059850692749,"27":2.4598708152770996,"28":-4.567608833312988,"29":-7.141268253326416,"30":-17.528072357177734,"31":-7.019145488739014,"32":-15.096850395202637,"33":-8.046113967895508,"34":-1.8108294010162354,"35":-6.975493907928467,"36":-4.439450263977051,"37":-5.130684852600098,"38":8.850662231445312,"39":-9.398140907287598}},"15":{"bias":-17.941312789916992,"weights":{"0":-6.682707786560059,"1":-5.138470649719238,"2":6.192095756530762,"3":-9.52149486541748,"4":2.0650126934051514,"5":5.869426727294922,"6":-3.0821425914764404,"7":7.584810256958008,"8":-18.813488006591797,"9":12.88820743560791,"10":-7.54729700088501,"11":-0.19473566114902496,"12":-1.3558933734893799,"13":-13.670133590698242,"14":9.901838302612305,"15":-1.7328938245773315,"16":0.8837928175926208,"17":4.907215118408203,"18":-7.985538005828857,"19":6.057159423828125,"20":-3.529367446899414,"21":-1.7999627590179443,"22":-14.634964942932129,"23":11.59373950958252,"24":-1.00467848777771,"25":-5.229877471923828,"26":-3.408987045288086,"27":-2.862962007522583,"28":9.051051139831543,"29":-14.413957595825195,"30":4.319164276123047,"31":-2.3339109420776367,"32":6.770361423492432,"33":-14.874006271362305,"34":7.25493049621582,"35":-6.5835418701171875,"36":-3.143381118774414,"37":7.393866539001465,"38":9.99493408203125,"39":-4.86464786529541}},"16":{"bias":2.8108179569244385,"weights":{"0":-9.425734519958496,"1":3.4502787590026855,"2":-2.9019501209259033,"3":-6.283327579498291,"4":11.207200050354004,"5":-8.074119567871094,"6":-1.7785429954528809,"7":-4.842776298522949,"8":-0.26434165239334106,"9":-24.910499572753906,"10":1.6608984470367432,"11":-3.2772672176361084,"12":-3.870208263397217,"13":5.650488376617432,"14":-0.24314798414707184,"15":-4.039745807647705,"16":-14.329456329345703,"17":-6.1774373054504395,"18":-1.0487443208694458,"19":-6.886284828186035,"20":13.579794883728027,"21":-5.324859619140625,"22":-7.946821689605713,"23":-4.347889423370361,"24":-7.267784118652344,"25":2.48157000541687,"26":-4.864455223083496,"27":-9.506998062133789,"28":-2.404163360595703,"29":-3.2760987281799316,"30":-4.79477071762085,"31":-9.44922924041748,"32":1.609585165977478,"33":-2.991323709487915,"34":3.3581173419952393,"35":-1.780409812927246,"36":1.207023024559021,"37":-0.8423601388931274,"38":9.094743728637695,"39":-18.29551887512207}},"17":{"bias":-7.500051975250244,"weights":{"0":2.8306686878204346,"1":-4.430360794067383,"2":-5.979737281799316,"3":2.169654607772827,"4":0.9118582606315613,"5":-12.385579109191895,"6":6.276175022125244,"7":7.555227756500244,"8":7.263505458831787,"9":-5.313902378082275,"10":6.594738483428955,"11":6.305063247680664,"12":-8.043063163757324,"13":15.203984260559082,"14":-7.30085563659668,"15":-14.17294979095459,"16":8.659673690795898,"17":-8.487445831298828,"18":-9.223553657531738,"19":5.3774309158325195,"20":-9.918782234191895,"21":-3.256594657897949,"22":3.4904186725616455,"23":1.8690074682235718,"24":-12.25816535949707,"25":5.132081031799316,"26":-2.4581563472747803,"27":-0.8706449866294861,"28":-4.773542404174805,"29":-2.6404876708984375,"30":6.282423496246338,"31":4.655304431915283,"32":-5.21187162399292,"33":-4.757126331329346,"34":-3.74855637550354,"35":-7.0074944496154785,"36":17.38771629333496,"37":-1.1545114517211914,"38":2.4994821548461914,"39":-10.797233581542969}},"18":{"bias":-11.854671478271484,"weights":{"0":-5.203047275543213,"1":2.6561708450317383,"2":1.2291508913040161,"3":-1.3136175870895386,"4":4.768284320831299,"5":-13.257264137268066,"6":7.661666393280029,"7":-10.840776443481445,"8":-3.719012975692749,"9":-0.5239773392677307,"10":-5.8680853843688965,"11":0.3184543251991272,"12":1.9846256971359253,"13":-15.896025657653809,"14":-6.9021315574646,"15":1.3608061075210571,"16":-1.3274686336517334,"17":-1.2158647775650024,"18":-1.907669186592102,"19":4.046468257904053,"20":-11.000591278076172,"21":-3.334813117980957,"22":9.763537406921387,"23":2.1029412746429443,"24":-0.8560535311698914,"25":-3.7000885009765625,"26":14.373360633850098,"27":-1.9972251653671265,"28":-4.584039688110352,"29":-2.7131035327911377,"30":2.3892815113067627,"31":-3.815622568130493,"32":11.09618854522705,"33":-4.363555908203125,"34":14.376313209533691,"35":-2.1456797122955322,"36":0.8658478260040283,"37":0.5589251518249512,"38":12.935787200927734,"39":-0.8194109797477722}},"19":{"bias":-8.16322135925293,"weights":{"0":11.940189361572266,"1":-2.6040329933166504,"2":-13.783174514770508,"3":-0.11708520352840424,"4":1.5375864505767822,"5":-7.145781993865967,"6":-0.6940338611602783,"7":11.247323989868164,"8":-13.160942077636719,"9":-2.91137433052063,"10":-4.988748550415039,"11":7.8838725090026855,"12":1.1619118452072144,"13":-6.4902873039245605,"14":-7.261876583099365,"15":-5.427943229675293,"16":-10.042449951171875,"17":2.2834601402282715,"18":-9.507110595703125,"19":-10.222601890563965,"20":-0.3797813653945923,"21":1.9100465774536133,"22":4.336721420288086,"23":-6.3074188232421875,"24":1.019220232963562,"25":-6.226368427276611,"26":0.5166015028953552,"27":-0.8420838713645935,"28":2.227879285812378,"29":0.5915552377700806,"30":-2.264237403869629,"31":4.871121406555176,"32":-19.589174270629883,"33":-3.925844669342041,"34":-8.821009635925293,"35":-0.2833995521068573,"36":17.97023582458496,"37":-7.525905132293701,"38":10.21219253540039,"39":-2.5079259872436523}}},{"0":{"bias":7.006534099578857,"weights":{"0":-10.6415376663208,"1":14.212807655334473,"2":-6.114720821380615,"3":23.747478485107422,"4":-17.89635467529297,"5":10.858283042907715,"6":-10.045541763305664,"7":-5.431705474853516,"8":-7.892133712768555,"9":-21.193323135375977,"10":-15.420122146606445,"11":-6.3892364501953125,"12":-6.798652172088623,"13":26.875286102294922,"14":14.621703147888184,"15":-12.06663703918457,"16":-18.72279167175293,"17":-22.827953338623047,"18":18.436777114868164,"19":-21.407527923583984}}}],"outputLookup":true,"inputLookup":true,"activation":"sigmoid","trainOpts":{"iterations":3000,"errorThresh":0.005,"log":true,"logPeriod":10,"learningRate":0.3,"momentum":0.1,"callbackPeriod":10,"beta1":0.9,"beta2":0.999,"epsilon":1e-8}}