{"sizes":[14,40,20,1],"layers":[{"0":{},"1":{},"2":{},"3":{},"4":{},"5":{},"6":{},"7":{},"8":{},"9":{},"10":{},"11":{},"12":{},"13":{}},{"0":{"bias":-11.035391807556152,"weights":{"0":-5.210521697998047,"1":-35.68545913696289,"2":0.9922937154769897,"3":37.69586181640625,"4":-22.10942840576172,"5":-5.792872905731201,"6":28.79092788696289,"7":-17.828481674194336,"8":16.959535598754883,"9":-6.845829486846924,"10":28.534326553344727,"11":28.464359283447266,"12":-14.444937705993652,"13":11.99155330657959}},"1":{"bias":21.717971801757812,"weights":{"0":5.461691379547119,"1":-30.1248722076416,"2":8.942278861999512,"3":12.398491859436035,"4":-4.022136688232422,"5":-19.508935928344727,"6":16.880151748657227,"7":-22.540771484375,"8":-33.29119873046875,"9":-9.217971801757812,"10":9.124167442321777,"11":25.57763671875,"12":6.951349258422852,"13":4.1144609451293945}},"2":{"bias":-1.7510546445846558,"weights":{"0":0.8310526609420776,"1":12.459746360778809,"2":-33.06003952026367,"3":-5.557878494262695,"4":16.6091365814209,"5":-13.642868041992188,"6":-21.349124908447266,"7":8.863990783691406,"8":-11.238329887390137,"9":11.471312522888184,"10":-19.576330184936523,"11":-17.377384185791016,"12":-14.45474910736084,"13":30.55002784729004}},"3":{"bias":-31.330549240112305,"weights":{"0":14.43645191192627,"1":1.5077096223831177,"2":35.399444580078125,"3":-22.9129695892334,"4":-16.98847198486328,"5":20.52358055114746,"6":-18.189958572387695,"7":8.330896377563477,"8":2.350086212158203,"9":16.015642166137695,"10":3.1812968254089355,"11":-12.002877235412598,"12":-26.340322494506836,"13":-1.521453857421875}},"4":{"bias":8.558358192443848,"weights":{"0":-17.121362686157227,"1":-18.14072036743164,"2":-13.573652267456055,"3":17.68606185913086,"4":-1.3064008951187134,"5":-7.936157703399658,"6":-2.272737741470337,"7":2.441988706588745,"8":-4.183866024017334,"9":-5.8322529792785645,"10":22.153539657592773,"11":12.704629898071289,"12":-16.52571678161621,"13":24.191972732543945}},"5":{"bias":-2.192878484725952,"weights":{"0":11.400188446044922,"1":-16.336990356445312,"2":6.500215530395508,"3":-3.016806125640869,"4":4.620487689971924,"5":10.879751205444336,"6":5.656922340393066,"7":19.715587615966797,"8":-8.26550006866455,"9":-22.902013778686523,"10":0.617416501045227,"11":8.417299270629883,"12":-12.070493698120117,"13":15.297794342041016}},"6":{"bias":-32.994171142578125,"weights":{"0":22.4322452545166,"1":-10.355302810668945,"2":16.800294876098633,"3":23.21204376220703,"4":26.259510040283203,"5":23.1982364654541,"6":3.755246639251709,"7":-8.504409790039062,"8":-24.953142166137695,"9":-8.1073579788208,"10":-8.687559127807617,"11":31.625102996826172,"12":13.815062522888184,"13":20.80068016052246}},"7":{"bias":-4.273481845855713,"weights":{"0":-5.215921401977539,"1":10.18301010131836,"2":-12.017580032348633,"3":-9.671363830566406,"4":-3.3232898712158203,"5":-0.13938574492931366,"6":-4.553481101989746,"7":-18.738616943359375,"8":2.5339648723602295,"9":4.270926475524902,"10":0.9169619679450989,"11":-4.684142589569092,"12":-35.94804382324219,"13":35.16527557373047}},"8":{"bias":-1.3438868522644043,"weights":{"0":-2.9008402824401855,"1":-1.1259361505508423,"2":8.015046119689941,"3":-9.233396530151367,"4":10.951788902282715,"5":-11.77480411529541,"6":-4.545729160308838,"7":12.004297256469727,"8":1.1527047157287598,"9":-23.505226135253906,"10":11.415926933288574,"11":6.0322065353393555,"12":-12.149896621704102,"13":24.02632713317871}},"9":{"bias":6.051623821258545,"weights":{"0":0.1550271213054657,"1":-18.503358840942383,"2":-14.454782485961914,"3":-17.79930877685547,"4":9.761651992797852,"5":-15.234289169311523,"6":-10.481234550476074,"7":-5.890012741088867,"8":26.834400177001953,"9":-21.421245574951172,"10":18.283395767211914,"11":14.130772590637207,"12":-12.826007843017578,"13":2.752347230911255}},"10":{"bias":14.681861877441406,"weights":{"0":-5.90936279296875,"1":-7.241306781768799,"2":24.377695083618164,"3":7.435855388641357,"4":-34.60350799560547,"5":0.15509238839149475,"6":-9.947174072265625,"7":3.582908868789673,"8":-14.42084789276123,"9":10.653010368347168,"10":-13.810522079467773,"11":-10.46750259399414,"12":-10.086326599121094,"13":-0.3645371198654175}},"11":{"bias":8.566425323486328,"weights":{"0":-19.304941177368164,"1":-4.799931526184082,"2":-2.234003782272339,"3":32.42350769042969,"4":14.562914848327637,"5":-4.436052322387695,"6":0.03194878622889519,"7":9.616064071655273,"8":-33.2495231628418,"9":-15.59659481048584,"10":-10.246094703674316,"11":20.0618953704834,"12":-22.954511642456055,"13":-4.847347736358643}},"12":{"bias":1.8332405090332031,"weights":{"0":8.413379669189453,"1":-14.15758228302002,"2":30.466588973999023,"3":1.4983891248703003,"4":-13.727394104003906,"5":-1.733009934425354,"6":2.5967953205108643,"7":-7.499173641204834,"8":5.1777777671813965,"9":-5.6448187828063965,"10":-16.608882904052734,"11":-25.741191864013672,"12":-12.429080963134766,"13":13.339618682861328}},"13":{"bias":-6.72788667678833,"weights":{"0":-5.985779762268066,"1":-0.06729434430599213,"2":-2.186490535736084,"3":-14.130314826965332,"4":4.530195713043213,"5":9.964067459106445,"6":-16.888599395751953,"7":15.296367645263672,"8":5.627808570861816,"9":-19.87373161315918,"10":-12.572210311889648,"11":-9.454107284545898,"12":-7.094120502471924,"13":19.06751251220703}},"14":{"bias":-2.8874170780181885,"weights":{"0":-22.26754379272461,"1":-12.42841911315918,"2":-6.809576034545898,"3":9.928197860717773,"4":-29.993364334106445,"5":20.07989501953125,"6":-1.396593451499939,"7":-15.988994598388672,"8":14.352773666381836,"9":-24.650074005126953,"10":16.09228515625,"11":15.824737548828125,"12":19.36226463317871,"13":29.240102767944336}},"15":{"bias":-13.391839981079102,"weights":{"0":8.38894271850586,"1":-2.6838226318359375,"2":22.358976364135742,"3":-7.6742262840271,"4":-15.020744323730469,"5":8.533008575439453,"6":35.13660430908203,"7":-26.249618530273438,"8":10.960243225097656,"9":-13.549703598022461,"10":11.11121654510498,"11":-1.998201847076416,"12":-2.687464952468872,"13":8.874469757080078}},"16":{"bias":3.896568775177002,"weights":{"0":-7.084368705749512,"1":-17.203968048095703,"2":-5.483456611633301,"3":-2.048521041870117,"4":-1.6234278678894043,"5":-7.734267711639404,"6":-4.613794326782227,"7":-4.3460893630981445,"8":-9.025795936584473,"9":-1.5489815473556519,"10":15.707877159118652,"11":11.326196670532227,"12":2.048823833465576,"13":-6.72914981842041}},"17":{"bias":5.240748405456543,"weights":{"0":19.148439407348633,"1":-11.20941162109375,"2":-9.383706092834473,"3":26.6356201171875,"4":-10.726168632507324,"5":-15.533517837524414,"6":-6.549100399017334,"7":-27.50025749206543,"8":26.167898178100586,"9":9.734060287475586,"10":27.231210708618164,"11":-18.07445526123047,"12":-23.973752975463867,"13":42.91144943237305}},"18":{"bias":0.34326547384262085,"weights":{"0":-39.6774787902832,"1":17.644025802612305,"2":-22.034770965576172,"3":1.991239070892334,"4":20.215818405151367,"5":29.295106887817383,"6":-6.314030170440674,"7":1.5959620475769043,"8":-10.587037086486816,"9":18.05742835998535,"10":-27.228065490722656,"11":-9.985156059265137,"12":-36.89533233642578,"13":39.100921630859375}},"19":{"bias":1.9874070882797241,"weights":{"0":-12.79034423828125,"1":0.04683767259120941,"2":18.48198699951172,"3":-16.683513641357422,"4":-10.290122032165527,"5":-9.03760051727295,"6":15.552906036376953,"7":-2.073025703430176,"8":12.589681625366211,"9":-11.455169677734375,"10":2.4493072032928467,"11":-1.7937978506088257,"12":-3.203864574432373,"13":-4.165384769439697}},"20":{"bias":-0.30428293347358704,"weights":{"0":-10.586904525756836,"1":-3.6702165603637695,"2":-3.3392326831817627,"3":5.626344203948975,"4":7.735583305358887,"5":1.7488775253295898,"6":-14.413705825805664,"7":-15.27978801727295,"8":24.109704971313477,"9":-15.2039155960083,"10":-12.032464027404785,"11":8.84956169128418,"12":-1.6635024547576904,"13":-5.927981853485107}},"21":{"bias":3.4273741245269775,"weights":{"0":0.2617148756980896,"1":0.17773279547691345,"2":-16.398374557495117,"3":-8.119722366333008,"4":-15.619288444519043,"5":17.698684692382812,"6":0.3514252305030823,"7":-10.400115966796875,"8":9.615361213684082,"9":-2.001019239425659,"10":-7.511739253997803,"11":-24.891963958740234,"12":4.68350887298584,"13":1.215132236480713}},"22":{"bias":-9.0792236328125,"weights":{"0":-4.31097936630249,"1":9.802497863769531,"2":-5.800081729888916,"3":24.60088539123535,"4":-27.754873275756836,"5":-9.974682807922363,"6":1.5771102905273438,"7":34.00372314453125,"8":-12.012130737304688,"9":-21.116859436035156,"10":13.59958267211914,"11":-15.713072776794434,"12":5.6803083419799805,"13":-26.375450134277344}},"23":{"bias":-2.416318893432617,"weights":{"0":-9.845160484313965,"1":9.87130355834961,"2":-0.7427469491958618,"3":-4.7090373039245605,"4":27.17444610595703,"5":-31.258054733276367,"6":-20.322751998901367,"7":-12.452458381652832,"8":-4.635514736175537,"9":34.88645553588867,"10":-14.11954402923584,"11":-6.7926025390625,"12":7.4777116775512695,"13":-10.055377006530762}},"24":{"bias":8.033063888549805,"weights":{"0":8.687385559082031,"1":-32.466400146484375,"2":-6.737105369567871,"3":-3.4471540451049805,"4":15.65904426574707,"5":7.286971569061279,"6":21.617950439453125,"7":-0.06276164948940277,"8":-21.106542587280273,"9":14.768131256103516,"10":-21.218839645385742,"11":-39.02090835571289,"12":-12.476507186889648,"13":28.388078689575195}},"25":{"bias":-13.09253978729248,"weights":{"0":7.348296165466309,"1":10.09998607635498,"2":24.010419845581055,"3":-13.43736457824707,"4":13.167245864868164,"5":2.6257412433624268,"6":-0.9018236994743347,"7":-9.828553199768066,"8":13.411942481994629,"9":-30.20873260498047,"10":4.505208492279053,"11":-19.668004989624023,"12":27.335838317871094,"13":-0.5125176906585693}},"26":{"bias":-9.57165241241455,"weights":{"0":10.26605224609375,"1":4.18474817276001,"2":-5.405899524688721,"3":7.165532112121582,"4":17.00798797607422,"5":-6.567535400390625,"6":4.4900593757629395,"7":-0.6574811339378357,"8":-0.8639940619468689,"9":-20.529891967773438,"10":1.7262928485870361,"11":7.024339199066162,"12":-10.335163116455078,"13":8.583975791931152}},"27":{"bias":9.059215545654297,"weights":{"0":4.050862789154053,"1":-15.359130859375,"2":-5.053400993347168,"3":-18.87845802307129,"4":14.290129661560059,"5":4.752502918243408,"6":8.419437408447266,"7":-6.194534778594971,"8":-11.753036499023438,"9":7.240258693695068,"10":-14.237451553344727,"11":-17.56304359436035,"12":-27.930034637451172,"13":6.769653797149658}},"28":{"bias":-1.276122808456421,"weights":{"0":0.9383366703987122,"1":-1.8313077688217163,"2":22.048059463500977,"3":-6.195174217224121,"4":-11.787033081054688,"5":-4.05789041519165,"6":19.32952308654785,"7":11.41380500793457,"8":11.304157257080078,"9":-19.939882278442383,"10":-8.552327156066895,"11":-17.50204849243164,"12":-7.478012561798096,"13":-5.750734806060791}},"29":{"bias":-2.7826297283172607,"weights":{"0":6.162858009338379,"1":-5.488647937774658,"2":-25.81962013244629,"3":15.246341705322266,"4":19.41116714477539,"5":-13.518546104431152,"6":14.000606536865234,"7":-9.955361366271973,"8":11.511307716369629,"9":0.022865690290927887,"10":-16.043092727661133,"11":-23.960487365722656,"12":-19.56391716003418,"13":2.731705904006958}},"30":{"bias":-10.971298217773438,"weights":{"0":-27.31393051147461,"1":2.030912160873413,"2":0.3750409781932831,"3":26.464153289794922,"4":-21.161907196044922,"5":11.536662101745605,"6":13.826735496520996,"7":-33.6414680480957,"8":11.672200202941895,"9":-7.719978332519531,"10":-24.0577449798584,"11":7.483226299285889,"12":24.690183639526367,"13":-20.54872703552246}},"31":{"bias":-17.932844161987305,"weights":{"0":3.141108512878418,"1":3.7491204738616943,"2":28.297985076904297,"3":-12.386330604553223,"4":12.337061882019043,"5":2.331214427947998,"6":24.918106079101562,"7":8.862740516662598,"8":-5.672486305236816,"9":-21.893753051757812,"10":-4.44474983215332,"11":6.988530158996582,"12":-15.257574081420898,"13":17.666553497314453}},"32":{"bias":-2.4959962368011475,"weights":{"0":3.9195492267608643,"1":-9.557649612426758,"2":2.3822102546691895,"3":4.1593451499938965,"4":-19.759078979492188,"5":-12.657096862792969,"6":-20.962858200073242,"7":-10.627423286437988,"8":34.02410125732422,"9":1.861297845840454,"10":9.71787166595459,"11":-15.66006851196289,"12":-31.294736862182617,"13":23.379261016845703}},"33":{"bias":-15.109195709228516,"weights":{"0":-13.237554550170898,"1":23.698801040649414,"2":-0.9137966632843018,"3":-1.5396568775177002,"4":-2.487006902694702,"5":-3.618743419647217,"6":25.407943725585938,"7":-20.64086151123047,"8":-0.16768841445446014,"9":-11.579959869384766,"10":-14.114889144897461,"11":8.26572322845459,"12":18.447267532348633,"13":-5.351974964141846}},"34":{"bias":4.486379146575928,"weights":{"0":-24.194490432739258,"1":-14.530817985534668,"2":14.138890266418457,"3":-5.607715129852295,"4":13.34093952178955,"5":-2.501851797103882,"6":3.9197335243225098,"7":-27.131027221679688,"8":6.299320220947266,"9":-2.463968276977539,"10":23.859895706176758,"11":29.8680419921875,"12":-32.946929931640625,"13":8.47291088104248}},"35":{"bias":6.036903381347656,"weights":{"0":-7.461367607116699,"1":-5.234631538391113,"2":-12.246758460998535,"3":-20.710838317871094,"4":13.050207138061523,"5":-0.3899753987789154,"6":12.480973243713379,"7":-14.561909675598145,"8":10.005316734313965,"9":-7.650996685028076,"10":6.409283638000488,"11":0.6362703442573547,"12":7.257612228393555,"13":3.002683401107788}},"36":{"bias":4.483489990234375,"weights":{"0":-11.924999237060547,"1":-5.0039825439453125,"2":14.905075073242188,"3":-6.412618637084961,"4":-3.6188948154449463,"5":-23.366931915283203,"6":-12.44121265411377,"7":4.301703453063965,"8":1.9803569316864014,"9":8.802416801452637,"10":18.659215927124023,"11":4.546372413635254,"12":-20.74668312072754,"13":30.6749324798584}},"37":{"bias":6.995765209197998,"weights":{"0":-7.328426361083984,"1":-1.5543689727783203,"2":2.234055995941162,"3":29.88203239440918,"4":12.643879890441895,"5":-13.70668888092041,"6":31.401132583618164,"7":-24.156747817993164,"8":1.5395848751068115,"9":-12.750667572021484,"10":-0.4147056043148041,"11":-13.502508163452148,"12":19.471506118774414,"13":-5.885580539703369}},"38":{"bias":-4.257297039031982,"weights":{"0":1.9731413125991821,"1":8.62197208404541,"2":16.010656356811523,"3":-9.213501930236816,"4":-5.822426795959473,"5":-13.825119972229004,"6":14.909070014953613,"7":-8.384493827819824,"8":6.968763828277588,"9":9.960651397705078,"10":3.9581735134124756,"11":-22.519447326660156,"12":0.752809464931488,"13":-7.660313606262207}},"39":{"bias":-1.3155746459960938,"weights":{"0":-7.726627349853516,"1":-3.02311110496521,"2":4.771111011505127,"3":6.772458076477051,"4":-17.502593994140625,"5":-2.7485947608947754,"6":-18.98623275756836,"7":0.8057488203048706,"8":2.161257266998291,"9":-9.350724220275879,"10":8.027992248535156,"11":19.75722885131836,"12":-16.684816360473633,"13":6.745421886444092}}},{"0":{"bias":6.959807872772217,"weights":{"0":-24.978044509887695,"1":6.8443779945373535,"2":-18.831314086914062,"3":-3.2721173763275146,"4":-6.30311918258667,"5":0.5345112681388855,"6":-7.710194110870361,"7":3.7132768630981445,"8":9.46383285522461,"9":-22.091991424560547,"10":-3.416579246520996,"11":3.3885834217071533,"12":-14.621869087219238,"13":-10.004029273986816,"14":7.219528675079346,"15":-3.676565170288086,"16":-6.531644344329834,"17":-3.244382619857788,"18":-6.503089427947998,"19":-6.116182327270508,"20":2.079228639602661,"21":-0.14061351120471954,"22":-4.677929401397705,"23":-7.381720066070557,"24":-16.332881927490234,"25":11.060022354125977,"26":-5.849512100219727,"27":3.3628523349761963,"28":-2.358863115310669,"29":-7.139029502868652,"30":-0.8593724370002747,"31":1.0033700466156006,"32":-0.4885854125022888,"33":-10.09223747253418,"34":-9.658308982849121,"35":-1.384766697883606,"36":-2.800478935241699,"37":-8.283543586730957,"38":-2.636180877685547,"39":-13.271137237548828}},"1":{"bias":-19.912572860717773,"weights":{"0":-36.09844207763672,"1":4.674985885620117,"2":-1.1652859449386597,"3":-12.749811172485352,"4":-9.813992500305176,"5":-6.6456098556518555,"6":-16.53207015991211,"7":-6.509527206420898,"8":-1.045335292816162,"9":-3.0818421840667725,"10":-5.99453067779541,"11":2.7308921813964844,"12":-4.425741195678711,"13":-3.9507064819335938,"14":23.125932693481445,"15":-4.197269439697266,"16":0.5062642097473145,"17":10.660733222961426,"18":-10.20655345916748,"19":-10.423713684082031,"20":5.567032814025879,"21":2.527287006378174,"22":3.2248334884643555,"23":-8.440101623535156,"24":-0.5708440542221069,"25":-15.922131538391113,"26":-0.9960867762565613,"27":2.513291358947754,"28":-20.95876693725586,"29":10.235445976257324,"30":17.2889461517334,"31":6.028953552246094,"32":-2.905846357345581,"33":5.287017822265625,"34":4.136360168457031,"35":1.4913740158081055,"36":0.23574261367321014,"37":5.300747871398926,"38":4.57696008682251,"39":-7.736166954040527}},"2":{"bias":-18.596847534179688,"weights":{"0":4.4975762367248535,"1":6.921705722808838,"2":10.316570281982422,"3":6.386353015899658,"4":0.08237217366695404,"5":5.137558937072754,"6":2.9975762367248535,"7":3.1418800354003906,"8":-2.361125946044922,"9":6.324941635131836,"10":-1.8411238193511963,"11":1.6848617792129517,"12":27.703811645507812,"13":-11.274823188781738,"14":-5.768822193145752,"15":-16.5316162109375,"16":0.3939131200313568,"17":-5.576344966888428,"18":6.817117691040039,"19":-14.360564231872559,"20":12.55306339263916,"21":1.6766157150268555,"22":4.966158866882324,"23":-3.529925584793091,"24":-27.746910095214844,"25":-0.3847525715827942,"26":-3.14247727394104,"27":-14.398662567138672,"28":-7.365710258483887,"29":-10.349172592163086,"30":-10.539834022521973,"31":-13.92120361328125,"32":3.988337278366089,"33":-17.51102638244629,"34":5.554872512817383,"35":-3.2799036502838135,"36":1.4996148347854614,"37":6.662313461303711,"38":-4.2834153175354,"39":-2.7661869525909424}},"3":{"bias":-22.16774559020996,"weights":{"0":-15.210076332092285,"1":-9.423210144042969,"2":4.80582857131958,"3":-14.197572708129883,"4":4.356950283050537,"5":7.829610347747803,"6":4.125404357910156,"7":-14.830512046813965,"8":-5.110053539276123,"9":-2.763728380203247,"10":-3.606339693069458,"11":11.77515697479248,"12":22.992124557495117,"13":-14.753814697265625,"14":-4.2240166664123535,"15":6.87363862991333,"16":-2.0237953662872314,"17":-15.477380752563477,"18":-5.970833778381348,"19":18.80485725402832,"20":9.598084449768066,"21":-4.488935470581055,"22":12.432644844055176,"23":-4.66104793548584,"24":21.317447662353516,"25":0.145522341132164,"26":2.3456685543060303,"27":7.864636421203613,"28":0.4609282612800598,"29":11.408949851989746,"30":0.6755644083023071,"31":-1.1372133493423462,"32":-0.1956528127193451,"33":7.858854293823242,"34":5.585866451263428,"35":-4.764477252960205,"36":2.0528340339660645,"37":1.1612766981124878,"38":3.5136594772338867,"39":-2.0932934284210205}},"4":{"bias":-6.595589637756348,"weights":{"0":-3.932964563369751,"1":-1.2961231470108032,"2":-4.714244842529297,"3":-9.449959754943848,"4":-10.56223201751709,"5":3.498530387878418,"6":1.9135619401931763,"7":-3.5185062885284424,"8":-0.08173356205224991,"9":-8.021546363830566,"10":5.104903697967529,"11":0.11176077276468277,"12":-1.080201506614685,"13":-4.741706371307373,"14":-2.8319826126098633,"15":-12.94259262084961,"16":-0.9927372336387634,"17":-2.2504160404205322,"18":-18.289274215698242,"19":-5.788357257843018,"20":-3.3165276050567627,"21":11.487075805664062,"22":-0.7508707642555237,"23":2.526284694671631,"24":7.992610931396484,"25":-2.1662845611572266,"26":8.72308349609375,"27":5.869899272918701,"28":2.5625104904174805,"29":-4.000862121582031,"30":-0.2842734158039093,"31":3.356062173843384,"32":-7.609673023223877,"33":-1.6264400482177734,"34":2.0389015674591064,"35":-1.979897379875183,"36":1.2614834308624268,"37":-5.859786510467529,"38":-8.043950080871582,"39":4.623521327972412}},"5":{"bias":0.8397261500358582,"weights":{"0":-12.563284873962402,"1":-0.8514272570610046,"2":5.9241790771484375,"3":-2.149301052093506,"4":1.7218223810195923,"5":-4.745569705963135,"6":-0.27200615406036377,"7":-11.245180130004883,"8":-1.7114841938018799,"9":-2.867671251296997,"10":-3.9349937438964844,"11":-0.4339117407798767,"12":1.1922942399978638,"13":-1.5530179738998413,"14":-3.0771005153656006,"15":3.649563789367676,"16":4.525593280792236,"17":-5.263591289520264,"18":-14.327330589294434,"19":-2.935154914855957,"20":-2.278602123260498,"21":8.652583122253418,"22":-3.9213807582855225,"23":1.6672747135162354,"24":-0.7063819169998169,"25":-5.875753879547119,"26":2.8386471271514893,"27":-5.11334228515625,"28":-0.12130415439605713,"29":-13.610955238342285,"30":-0.06362845748662949,"31":3.8201406002044678,"32":0.6289243698120117,"33":-3.6417036056518555,"34":-3.1345064640045166,"35":-4.1385087966918945,"36":2.7260541915893555,"37":-0.07812922447919846,"38":-0.5747967958450317,"39":5.237662315368652}},"6":{"bias":-0.35500580072402954,"weights":{"0":8.12514591217041,"1":-6.4180450439453125,"2":-7.269188404083252,"3":3.6120738983154297,"4":4.750740051269531,"5":-0.3861536383628845,"6":-10.225932121276855,"7":-0.10168860107660294,"8":5.897078514099121,"9":1.0165553092956543,"10":0.8830111026763916,"11":-4.221493721008301,"12":-15.488176345825195,"13":-8.786900520324707,"14":12.274744987487793,"15":2.868201494216919,"16":-8.28731632232666,"17":-11.124375343322754,"18":9.716448783874512,"19":1.1387171745300293,"20":-0.21993881464004517,"21":-6.960124492645264,"22":-23.37117576599121,"23":12.570747375488281,"24":2.152792453765869,"25":-6.197787284851074,"26":-1.5895938873291016,"27":-3.0534567832946777,"28":-13.718915939331055,"29":1.4794777631759644,"30":-31.380483627319336,"31":-8.772072792053223,"32":6.4325337409973145,"33":2.658864974975586,"34":-7.692509174346924,"35":5.997573375701904,"36":-1.1396610736846924,"37":-7.944866180419922,"38":-0.2623434066772461,"39":-1.066493272781372}},"7":{"bias":-12.291397094726562,"weights":{"0":17.31219482421875,"1":15.437688827514648,"2":-8.9059419631958,"3":18.158231735229492,"4":-1.6098002195358276,"5":-0.17353180050849915,"6":-4.42440128326416,"7":-10.832273483276367,"8":0.9867549538612366,"9":-2.6676082611083984,"10":-7.455642223358154,"11":7.431336879730225,"12":-12.581600189208984,"13":-0.21124738454818726,"14":-22.08865737915039,"15":4.0029754638671875,"16":-7.095379829406738,"17":-3.785287380218506,"18":2.1859326362609863,"19":-10.088811874389648,"20":-10.281821250915527,"21":-4.959785461425781,"22":3.9825427532196045,"23":3.3731212615966797,"24":-22.063119888305664,"25":-0.8088024854660034,"26":-9.709797859191895,"27":14.846267700195312,"28":2.9421956539154053,"29":-2.9270987510681152,"30":4.430960655212402,"31":-10.79886531829834,"32":3.4536571502685547,"33":4.742091178894043,"34":-8.241555213928223,"35":2.4588141441345215,"36":4.487213134765625,"37":-7.275651454925537,"38":0.03572174161672592,"39":-9.414992332458496}},"8":{"bias":-27.022056579589844,"weights":{"0":-7.8082122802734375,"1":-5.819866180419922,"2":-3.7013704776763916,"3":-1.116252064704895,"4":0.8434571623802185,"5":-3.6287267208099365,"6":16.27885627746582,"7":-2.0664618015289307,"8":-0.6107319593429565,"9":-6.292623996734619,"10":1.6998145580291748,"11":4.940215587615967,"12":4.40460729598999,"13":-5.727622985839844,"14":-15.431598663330078,"15":4.487290859222412,"16":-3.4065985679626465,"17":10.718375205993652,"18":0.5641705989837646,"19":-8.395736694335938,"20":-2.9186739921569824,"21":-16.081283569335938,"22":10.809857368469238,"23":-8.182796478271484,"24":-1.5197805166244507,"25":-0.8645539283752441,"26":-2.751331090927124,"27":1.2767517566680908,"28":-0.9199889302253723,"29":4.858418941497803,"30":-1.4446953535079956,"31":8.480350494384766,"32":-3.908982992172241,"33":-4.826010704040527,"34":2.2549121379852295,"35":-0.24651485681533813,"36":-5.2779130935668945,"37":-2.2910430431365967,"38":-4.717347621917725,"39":-13.841509819030762}},"9":{"bias":-0.7875559329986572,"weights":{"0":-7.505306243896484,"1":-12.983976364135742,"2":6.502752780914307,"3":1.8119481801986694,"4":13.55059814453125,"5":-3.293102502822876,"6":7.914079189300537,"7":-5.062722206115723,"8":8.047269821166992,"9":-2.004422426223755,"10":-3.1110122203826904,"11":-17.3659725189209,"12":16.983991622924805,"13":2.5186455249786377,"14":-1.594888687133789,"15":-1.1220605373382568,"16":0.4712960124015808,"17":-14.646865844726562,"18":-16.372299194335938,"19":0.7938788533210754,"20":-3.2527239322662354,"21":4.528313159942627,"22":6.278484344482422,"23":-3.8324904441833496,"24":-6.2596564292907715,"25":-17.191383361816406,"26":4.457125663757324,"27":11.204888343811035,"28":-7.123749256134033,"29":6.467919826507568,"30":12.733864784240723,"31":0.09149142354726791,"32":-12.270730972290039,"33":3.3418259620666504,"34":-2.3701276779174805,"35":-0.9138146042823792,"36":-3.9463586807250977,"37":13.77254867553711,"38":2.30631422996521,"39":4.1475982666015625}},"10":{"bias":-4.103640556335449,"weights":{"0":-3.1112589836120605,"1":-3.8030636310577393,"2":-1.4405086040496826,"3":3.8861348628997803,"4":-1.5851390361785889,"5":-3.241913080215454,"6":-8.406909942626953,"7":-5.49143123626709,"8":3.0528817176818848,"9":14.819975852966309,"10":12.017080307006836,"11":-5.570807456970215,"12":3.5977373123168945,"13":0.7253519892692566,"14":-5.287702560424805,"15":1.9812251329421997,"16":9.021220207214355,"17":-1.8424413204193115,"18":-22.350505828857422,"19":-0.4682602882385254,"20":13.863889694213867,"21":-8.541085243225098,"22":-12.057910919189453,"23":-4.8290934562683105,"24":-16.527587890625,"25":-0.737309455871582,"26":-8.815397262573242,"27":-10.014334678649902,"28":-0.09342071413993835,"29":-4.6773762702941895,"30":-2.5033998489379883,"31":-19.447053909301758,"32":-12.780166625976562,"33":-0.865096390247345,"34":4.5061774253845215,"35":-3.2621734142303467,"36":1.6433345079421997,"37":-3.896263360977173,"38":-0.7506783604621887,"39":0.7865704298019409}},"11":{"bias":-2.304158926010132,"weights":{"0":-4.865055561065674,"1":-2.5654540061950684,"2":-7.626373767852783,"3":-10.227177619934082,"4":-3.1515166759490967,"5":1.9554821252822876,"6":-4.161380767822266,"7":5.358789443969727,"8":0.30241283774375916,"9":1.454807162284851,"10":13.879440307617188,"11":-15.496984481811523,"12":-4.109177112579346,"13":7.592559337615967,"14":-2.3750245571136475,"15":-7.244062423706055,"16":2.399538040161133,"17":0.08651313930749893,"18":-17.57557487487793,"19":4.304568290710449,"20":-8.15869426727295,"21":-4.274418830871582,"22":-13.86453914642334,"23":-19.169984817504883,"24":26.520692825317383,"25":-21.906978607177734,"26":-1.1742113828659058,"27":-15.370290756225586,"28":-18.063804626464844,"29":-7.79434871673584,"30":-10.662999153137207,"31":-15.812355041503906,"32":-6.458254337310791,"33":10.833106994628906,"34":10.822263717651367,"35":-3.0130388736724854,"36":-8.6581392288208,"37":-4.881646156311035,"38":1.324045181274414,"39":7.224119663238525}},"12":{"bias":-23.44631004333496,"weights":{"0":-0.5287804007530212,"1":15.608811378479004,"2":-5.203205108642578,"3":-5.336815357208252,"4":6.6483259201049805,"5":4.805603981018066,"6":9.136197090148926,"7":2.094451665878296,"8":-11.189581871032715,"9":-1.589247226715088,"10":4.3562798500061035,"11":2.392491579055786,"12":-5.318689346313477,"13":-1.9376217126846313,"14":-13.79603385925293,"15":7.480728626251221,"16":-4.393398761749268,"17":-22.326030731201172,"18":7.524385452270508,"19":-9.133010864257812,"20":-4.521695137023926,"21":-12.344136238098145,"22":-0.0660870224237442,"23":10.459147453308105,"24":5.4613494873046875,"25":4.384102821350098,"26":-4.0927534103393555,"27":-10.267395973205566,"28":-7.997043132781982,"29":3.6975531578063965,"30":-2.8603219985961914,"31":0.955219030380249,"32":-10.838753700256348,"33":-13.769399642944336,"34":-0.7219129204750061,"35":4.3482770919799805,"36":9.50484561920166,"37":8.695920944213867,"38":-1.3726568222045898,"39":-1.2929099798202515}},"13":{"bias":-7.5014190673828125,"weights":{"0":-3.8920953273773193,"1":-10.22429084777832,"2":-10.510394096374512,"3":-18.289947509765625,"4":-0.30616283416748047,"5":-4.093486309051514,"6":0.3531213402748108,"7":-1.31783127784729,"8":10.536396026611328,"9":-0.35995447635650635,"10":-7.8313188552856445,"11":9.16064453125,"12":-12.137007713317871,"13":0.9619328379631042,"14":3.3597235679626465,"15":-7.790149211883545,"16":10.9844331741333,"17":7.938247203826904,"18":-23.865812301635742,"19":-8.375181198120117,"20":8.695477485656738,"21":-9.449466705322266,"22":-1.0498199462890625,"23":4.150672435760498,"24":2.56223201751709,"25":17.089879989624023,"26":-0.5728069543838501,"27":11.332110404968262,"28":-4.962277412414551,"29":-14.231590270996094,"30":-2.1762540340423584,"31":-8.526993751525879,"32":-4.970664024353027,"33":-0.6999556422233582,"34":-8.583751678466797,"35":-3.043299913406372,"36":7.813910484313965,"37":-8.916810989379883,"38":10.852836608886719,"39":3.78952956199646}},"14":{"bias":-18.129487991333008,"weights":{"0":-11.062928199768066,"1":13.468340873718262,"2":-0.2325206845998764,"3":-2.66302227973938,"4":7.97482967376709,"5":-6.602127552032471,"6":-6.969084739685059,"7":-11.470632553100586,"8":8.62005615234375,"9":1.6085357666015625,"10":-1.5737982988357544,"11":-3.4988245964050293,"12":-7.989643096923828,"13":-1.5004125833511353,"14":-7.428142070770264,"15":-3.6070027351379395,"16":-5.465173244476318,"17":7.549956321716309,"18":-20.749631881713867,"19":1.8250336647033691,"20":-9.799481391906738,"21":-6.2433180809021,"22":5.441058158874512,"23":15.148773193359375,"24":2.0711748600006104,"25":-12.939652442932129,"26":-4.374314308166504,"27":-3.79478120803833,"28":13.157330513000488,"29":-0.9081132411956787,"30":12.369129180908203,"31":-1.216610074043274,"32":-10.943706512451172,"33":18.616806030273438,"34":1.613674521446228,"35":8.180377006530762,"36":-0.8070210814476013,"37":5.781698226928711,"38":-7.545475959777832,"39":-8.2766752243042}},"15":{"bias":-11.208444595336914,"weights":{"0":-5.7137627601623535,"1":-9.845255851745605,"2":9.070321083068848,"3":-3.8843698501586914,"4":5.913259506225586,"5":0.5808795690536499,"6":11.315439224243164,"7":-1.00993812084198,"8":4.280086994171143,"9":0.3462126851081848,"10":0.9991373419761658,"11":-8.846412658691406,"12":-13.193378448486328,"13":-3.7076358795166016,"14":-20.9056339263916,"15":6.56796407699585,"16":-1.22550368309021,"17":17.41903305053711,"18":4.647801399230957,"19":-5.491571426391602,"20":-10.770843505859375,"21":6.17107629776001,"22":-12.542378425598145,"23":-13.475215911865234,"24":-9.892762184143066,"25":-3.840864896774292,"26":-1.359554409980774,"27":-8.104155540466309,"28":-12.230148315429688,"29":-11.917908668518066,"30":2.3778481483459473,"31":-13.365865707397461,"32":-16.756261825561523,"33":-20.048147201538086,"34":4.589599609375,"35":-8.150714874267578,"36":-5.606086254119873,"37":11.584905624389648,"38":2.831540584564209,"39":0.9447208046913147}},"16":{"bias":-15.520174026489258,"weights":{"0":-4.468902587890625,"1":-12.84949016571045,"2":-13.105101585388184,"3":-7.823736667633057,"4":-7.644078731536865,"5":-2.798139810562134,"6":-16.95876693725586,"7":-6.222753524780273,"8":0.3732624053955078,"9":-6.173068523406982,"10":-0.7839303016662598,"11":-9.921058654785156,"12":7.104682922363281,"13":-3.0019986629486084,"14":-4.020112991333008,"15":-6.899282932281494,"16":5.354682445526123,"17":-2.068694591522217,"18":15.056532859802246,"19":11.08530044555664,"20":-3.8554234504699707,"21":4.43778133392334,"22":-6.835896015167236,"23":-13.317266464233398,"24":23.0297794342041,"25":8.342628479003906,"26":4.7693281173706055,"27":7.7517991065979,"28":0.7461807131767273,"29":-19.018028259277344,"30":14.478137969970703,"31":18.382596969604492,"32":7.6570725440979,"33":-15.7736177444458,"34":5.3356852531433105,"35":-2.177516460418701,"36":-9.313521385192871,"37":4.440465927124023,"38":4.6909308433532715,"39":0.5136832594871521}},"17":{"bias":-12.79119873046875,"weights":{"0":24.06529998779297,"1":-10.845671653747559,"2":-15.864999771118164,"3":3.483738899230957,"4":1.8994265794754028,"5":-3.0483946800231934,"6":-15.838269233703613,"7":-17.232885360717773,"8":-1.0891540050506592,"9":-18.779499053955078,"10":-1.258693814277649,"11":25.328298568725586,"12":14.977747917175293,"13":-0.585804283618927,"14":-3.317780017852783,"15":11.375813484191895,"16":1.5657790899276733,"17":-1.0397402048110962,"18":8.099410057067871,"19":-13.694915771484375,"20":-13.333948135375977,"21":0.12830233573913574,"22":-6.678451061248779,"23":8.703225135803223,"24":-3.2834367752075195,"25":-1.6481460332870483,"26":3.061812400817871,"27":11.03476333618164,"28":-12.807001113891602,"29":-1.9385966062545776,"30":5.180538654327393,"31":1.8394443988800049,"32":6.842108726501465,"33":-11.338422775268555,"34":-3.0264194011688232,"35":-5.053865432739258,"36":3.510406732559204,"37":10.067803382873535,"38":-2.083798408508301,"39":3.181735038757324}},"18":{"bias":5.010676383972168,"weights":{"0":-8.052638053894043,"1":2.254530668258667,"2":-2.1847524642944336,"3":-4.050325870513916,"4":-2.9442620277404785,"5":2.6236000061035156,"6":-11.783583641052246,"7":-15.78835678100586,"8":-4.919653415679932,"9":7.556588649749756,"10":-3.5796098709106445,"11":-0.22269059717655182,"12":-6.301273822784424,"13":0.04090394079685211,"14":-10.009264945983887,"15":-5.93085241317749,"16":0.6713945865631104,"17":-13.7601957321167,"18":-10.372201919555664,"19":-2.9847381114959717,"20":-3.392204523086548,"21":-1.6267679929733276,"22":-2.1260719299316406,"23":-4.212820529937744,"24":-2.2602734565734863,"25":2.884540319442749,"26":3.6886446475982666,"27":-3.2523868083953857,"28":-6.447385787963867,"29":-6.551069736480713,"30":-2.1461048126220703,"31":-4.49066686630249,"32":14.12503719329834,"33":-5.592465400695801,"34":-0.603928804397583,"35":-0.8308951258659363,"36":-6.903791427612305,"37":8.040894508361816,"38":-2.301530599594116,"39":-4.788818359375}},"19":{"bias":-7.0889434814453125,"weights":{"0":-3.6984007358551025,"1":-16.68695831298828,"2":0.5095067024230957,"3":-14.063878059387207,"4":4.775549411773682,"5":1.1608633995056152,"6":-21.03333854675293,"7":-11.208253860473633,"8":-7.818913459777832,"9":-8.348356246948242,"10":7.2974114418029785,"11":-3.4380195140838623,"12":-0.1592736840248108,"13":-19.000059127807617,"14":-9.281280517578125,"15":-4.631353378295898,"16":-1.0097988843917847,"17":-16.282869338989258,"18":-6.717101573944092,"19":-11.868959426879883,"20":6.83758020401001,"21":4.497661590576172,"22":15.328835487365723,"23":6.082898139953613,"24":-6.453664302825928,"25":18.627727508544922,"26":2.1801459789276123,"27":-4.222036361694336,"28":2.4555938243865967,"29":8.991071701049805,"30":3.701430082321167,"31":-13.027506828308105,"32":3.312553882598877,"33":2.6684868335723877,"34":4.910190582275391,"35":8.140762329101562,"36":-0.13401803374290466,"37":-3.9883463382720947,"38":4.785449028015137,"39":-1.1984492540359497}}},{"0":{"bias":-16.496206283569336,"weights":{"0":12.541129112243652,"1":16.101266860961914,"2":13.930742263793945,"3":11.935259819030762,"4":19.256057739257812,"5":13.885488510131836,"6":13.737081527709961,"7":8.40114974975586,"8":20.023426055908203,"9":13.06013011932373,"10":12.030017852783203,"11":8.92117977142334,"12":13.753216743469238,"13":6.358677387237549,"14":9.242009162902832,"15":11.930495262145996,"16":12.135247230529785,"17":9.550726890563965,"18":10.653966903686523,"19":18.835512161254883}}}],"outputLookup":true,"inputLookup":true,"activation":"sigmoid","trainOpts":{"iterations":3000,"errorThresh":0.005,"log":true,"logPeriod":10,"learningRate":0.3,"momentum":0.1,"callbackPeriod":10,"beta1":0.9,"beta2":0.999,"epsilon":1e-8}}