{"sizes":[14,40,20,1],"layers":[{"0":{},"1":{},"2":{},"3":{},"4":{},"5":{},"6":{},"7":{},"8":{},"9":{},"10":{},"11":{},"12":{},"13":{}},{"0":{"bias":15.46928596496582,"weights":{"0":-14.843600273132324,"1":-11.747747421264648,"2":16.035791397094727,"3":-27.831979751586914,"4":6.664504051208496,"5":-5.173011779785156,"6":-17.083847045898438,"7":0.9055943489074707,"8":5.6429057121276855,"9":-3.1202049255371094,"10":-12.356362342834473,"11":-6.234495162963867,"12":2.044452428817749,"13":-2.212613582611084}},"1":{"bias":2.0285091400146484,"weights":{"0":-22.462139129638672,"1":-3.16372013092041,"2":15.917917251586914,"3":-36.208045959472656,"4":8.912707328796387,"5":-4.840188503265381,"6":10.994362831115723,"7":-6.2048845291137695,"8":-7.289647102355957,"9":27.506807327270508,"10":16.624469757080078,"11":-10.376571655273438,"12":6.793656349182129,"13":-1.9400640726089478}},"2":{"bias":-23.697582244873047,"weights":{"0":-2.4092941284179688,"1":-18.33949089050293,"2":13.439115524291992,"3":6.269648551940918,"4":-7.321220397949219,"5":20.956371307373047,"6":-4.270907878875732,"7":-14.209505081176758,"8":16.0269775390625,"9":25.877283096313477,"10":8.362273216247559,"11":12.845051765441895,"12":16.98877716064453,"13":-13.293872833251953}},"3":{"bias":6.916957378387451,"weights":{"0":-14.050263404846191,"1":-15.588828086853027,"2":-7.674734115600586,"3":-13.727267265319824,"4":-0.20899510383605957,"5":-5.303470611572266,"6":-26.886180877685547,"7":-15.853754997253418,"8":26.302209854125977,"9":11.104385375976562,"10":9.551948547363281,"11":1.1590217351913452,"12":15.35721206665039,"13":-17.973962783813477}},"4":{"bias":-5.708889961242676,"weights":{"0":2.0622708797454834,"1":1.0450448989868164,"2":30.521066665649414,"3":-1.8389630317687988,"4":-29.961158752441406,"5":-3.368795871734619,"6":2.95939564704895,"7":10.73098373413086,"8":6.26397180557251,"9":-11.933820724487305,"10":1.3350235223770142,"11":-1.1156607866287231,"12":16.36239242553711,"13":-15.37342357635498}},"5":{"bias":-12.05837345123291,"weights":{"0":-4.234924793243408,"1":3.1941606998443604,"2":-29.15678596496582,"3":0.07327477633953094,"4":-11.995628356933594,"5":10.468806266784668,"6":-17.839414596557617,"7":10.011228561401367,"8":-7.5542826652526855,"9":37.54163360595703,"10":-4.0225911140441895,"11":5.092681407928467,"12":-2.615837335586548,"13":0.6483376026153564}},"6":{"bias":20.04547882080078,"weights":{"0":-11.600404739379883,"1":-19.367197036743164,"2":-17.714345932006836,"3":17.941226959228516,"4":-11.283346176147461,"5":-5.987577438354492,"6":8.051337242126465,"7":2.6154613494873047,"8":-2.331780195236206,"9":-1.0848530530929565,"10":0.6289284229278564,"11":-3.455655097961426,"12":4.83876371383667,"13":-22.340850830078125}},"7":{"bias":-1.6249237060546875,"weights":{"0":-0.9738155007362366,"1":-3.626230478286743,"2":19.511198043823242,"3":10.653487205505371,"4":-34.632503509521484,"5":11.8634614944458,"6":-15.636589050292969,"7":5.466816425323486,"8":-5.21076774597168,"9":2.7580084800720215,"10":-4.389326095581055,"11":4.70778226852417,"12":3.3521220684051514,"13":-46.442115783691406}},"8":{"bias":-8.848312377929688,"weights":{"0":-3.1100103855133057,"1":-18.820798873901367,"2":-18.276105880737305,"3":29.454030990600586,"4":-4.54320764541626,"5":-22.984050750732422,"6":-0.6325924396514893,"7":-9.18691349029541,"8":-1.5581752061843872,"9":-0.03257473185658455,"10":22.135839462280273,"11":6.871884346008301,"12":11.843316078186035,"13":-13.132184028625488}},"9":{"bias":5.254580497741699,"weights":{"0":0.9217538833618164,"1":-22.90522003173828,"2":-8.717794418334961,"3":-9.767498016357422,"4":11.524797439575195,"5":17.704200744628906,"6":-0.27115318179130554,"7":-2.541598320007324,"8":-15.905946731567383,"9":-3.1561808586120605,"10":-5.2971038818359375,"11":4.917657852172852,"12":19.951845169067383,"13":-16.065223693847656}},"10":{"bias":-3.522554397583008,"weights":{"0":13.554347038269043,"1":-4.322228908538818,"2":-27.727760314941406,"3":-12.370546340942383,"4":-6.655144214630127,"5":26.123924255371094,"6":-41.337303161621094,"7":-9.86812973022461,"8":12.360819816589355,"9":-0.6747190356254578,"10":-9.521522521972656,"11":-14.680429458618164,"12":12.251304626464844,"13":-9.570209503173828}},"11":{"bias":1.167966604232788,"weights":{"0":-0.6916894316673279,"1":-12.21982192993164,"2":0.9375261068344116,"3":-14.45158576965332,"4":7.538850784301758,"5":-3.3699917793273926,"6":-1.9399127960205078,"7":-6.37836217880249,"8":-5.44839334487915,"9":5.388113498687744,"10":1.3205646276474,"11":-7.377239227294922,"12":2.437148332595825,"13":0.801804780960083}},"12":{"bias":-22.605823516845703,"weights":{"0":0.014341120608150959,"1":14.263030052185059,"2":-29.460161209106445,"3":4.170748710632324,"4":36.069183349609375,"5":-0.5349692106246948,"6":40.29981994628906,"7":-8.478374481201172,"8":8.768052101135254,"9":-13.196935653686523,"10":-0.6892386674880981,"11":20.241804122924805,"12":26.322526931762695,"13":-7.2351765632629395}},"13":{"bias":11.36982250213623,"weights":{"0":-18.469738006591797,"1":-0.7344630360603333,"2":9.552850723266602,"3":-8.998183250427246,"4":-25.749326705932617,"5":-5.368965148925781,"6":13.888191223144531,"7":-4.25969934463501,"8":-19.918476104736328,"9":16.651676177978516,"10":-12.000722885131836,"11":-29.03877830505371,"12":15.78637981414795,"13":-4.137147426605225}},"14":{"bias":11.195953369140625,"weights":{"0":-0.8073431253433228,"1":-11.105705261230469,"2":-12.838480949401855,"3":0.27873560786247253,"4":-9.68211555480957,"5":-1.4970757961273193,"6":12.883931159973145,"7":7.7928690910339355,"8":-24.474205017089844,"9":-17.886751174926758,"10":4.716643810272217,"11":0.40747129917144775,"12":2.1198856830596924,"13":-22.11083984375}},"15":{"bias":-2.3008222579956055,"weights":{"0":-16.184677124023438,"1":4.634398460388184,"2":-20.480491638183594,"3":13.2345552444458,"4":-19.125957489013672,"5":6.0408406257629395,"6":22.327899932861328,"7":-5.683207988739014,"8":-6.922427654266357,"9":-4.454654216766357,"10":-1.9483267068862915,"11":-1.1323555707931519,"12":1.1508122682571411,"13":-20.57880210876465}},"16":{"bias":3.4262659549713135,"weights":{"0":-13.874848365783691,"1":1.0233718156814575,"2":-0.34780433773994446,"3":-1.6248244047164917,"4":3.6355533599853516,"5":-1.5838613510131836,"6":2.6552486419677734,"7":-13.175585746765137,"8":2.185560464859009,"9":-3.6929516792297363,"10":-9.06173038482666,"11":9.169421195983887,"12":1.944611668586731,"13":2.633368730545044}},"17":{"bias":-3.5721654891967773,"weights":{"0":1.8162368535995483,"1":6.222778797149658,"2":-16.71201515197754,"3":-31.089235305786133,"4":16.977930068969727,"5":-0.5534645915031433,"6":8.607234001159668,"7":16.1937255859375,"8":3.2720935344696045,"9":-13.448047637939453,"10":3.9151642322540283,"11":-19.015243530273438,"12":5.938610553741455,"13":-15.782772064208984}},"18":{"bias":0.8749604821205139,"weights":{"0":-4.34266471862793,"1":-14.639612197875977,"2":19.114398956298828,"3":16.70256233215332,"4":18.92420768737793,"5":-39.24961853027344,"6":11.197937965393066,"7":-29.4232234954834,"8":-5.327282428741455,"9":3.8664374351501465,"10":11.001151084899902,"11":6.3011555671691895,"12":9.190619468688965,"13":-19.677431106567383}},"19":{"bias":-19.569257736206055,"weights":{"0":14.706440925598145,"1":1.5722824335098267,"2":9.975857734680176,"3":-11.163739204406738,"4":-7.912230014801025,"5":6.228679656982422,"6":-10.053686141967773,"7":10.6074800491333,"8":2.8556694984436035,"9":4.468260288238525,"10":15.396048545837402,"11":-19.66914939880371,"12":27.857728958129883,"13":-18.99277687072754}},"20":{"bias":0.8367156982421875,"weights":{"0":-1.0752888917922974,"1":-14.081430435180664,"2":-19.494476318359375,"3":-1.2210348844528198,"4":-2.658564805984497,"5":14.075077056884766,"6":-7.483682632446289,"7":10.492918014526367,"8":20.366317749023438,"9":-47.46065139770508,"10":8.548359870910645,"11":18.494150161743164,"12":17.156436920166016,"13":14.264616966247559}},"21":{"bias":-3.7914888858795166,"weights":{"0":4.138772964477539,"1":-5.412982940673828,"2":-20.670333862304688,"3":15.500311851501465,"4":9.282093048095703,"5":-11.567670822143555,"6":-36.22504806518555,"7":17.267040252685547,"8":-12.069246292114258,"9":4.458609580993652,"10":13.585899353027344,"11":5.802420616149902,"12":22.171693801879883,"13":13.062191009521484}},"22":{"bias":-13.375994682312012,"weights":{"0":8.457782745361328,"1":0.06420019268989563,"2":14.231684684753418,"3":4.458782196044922,"4":27.37851333618164,"5":-18.966848373413086,"6":7.679364204406738,"7":2.163900375366211,"8":30.216842651367188,"9":-3.069063663482666,"10":-14.5770845413208,"11":-12.965338706970215,"12":-4.058209419250488,"13":14.425788879394531}},"23":{"bias":-22.704830169677734,"weights":{"0":8.33019733428955,"1":25.902589797973633,"2":-2.2009501457214355,"3":-1.1472934484481812,"4":18.37627410888672,"5":-11.608987808227539,"6":-4.087799072265625,"7":1.956894040107727,"8":0.756660521030426,"9":19.951871871948242,"10":-11.3182373046875,"11":-23.33056640625,"12":35.61399459838867,"13":-3.7442526817321777}},"24":{"bias":-3.072948932647705,"weights":{"0":16.633859634399414,"1":-41.053558349609375,"2":18.37549591064453,"3":-19.069448471069336,"4":6.799755573272705,"5":-8.55607795715332,"6":2.6210081577301025,"7":21.153209686279297,"8":-3.482205629348755,"9":14.383346557617188,"10":19.06952476501465,"11":-27.826810836791992,"12":19.29536247253418,"13":14.743918418884277}},"25":{"bias":2.7848005294799805,"weights":{"0":-5.162790775299072,"1":18.199947357177734,"2":-51.59244155883789,"3":25.14920425415039,"4":-14.353191375732422,"5":-29.66111183166504,"6":25.66663360595703,"7":-32.80898666381836,"8":18.142778396606445,"9":10.916583061218262,"10":-11.619364738464355,"11":-20.862356185913086,"12":3.350966453552246,"13":-3.6986446380615234}},"26":{"bias":-20.02732276916504,"weights":{"0":11.565366744995117,"1":-6.493520736694336,"2":19.756187438964844,"3":13.580585479736328,"4":-13.33183765411377,"5":-14.459627151489258,"6":20.57958221435547,"7":-41.330413818359375,"8":10.770126342773438,"9":5.72525691986084,"10":7.691473960876465,"11":0.5238966941833496,"12":-5.969881057739258,"13":8.97122859954834}},"27":{"bias":-26.517955780029297,"weights":{"0":7.962275981903076,"1":21.349700927734375,"2":4.937857627868652,"3":23.435895919799805,"4":-14.2675199508667,"5":7.620538711547852,"6":12.480606079101562,"7":-6.205938339233398,"8":-32.884246826171875,"9":20.895252227783203,"10":-27.025312423706055,"11":-12.213746070861816,"12":-10.00277328491211,"13":-1.0621848106384277}},"28":{"bias":1.9709773063659668,"weights":{"0":-10.441845893859863,"1":-1.6598587036132812,"2":-15.40487003326416,"3":-2.708120584487915,"4":17.28902244567871,"5":-11.017653465270996,"6":10.637439727783203,"7":-1.2269465923309326,"8":11.399120330810547,"9":-18.22591781616211,"10":-6.413187503814697,"11":-7.947906017303467,"12":-1.4318561553955078,"13":6.219313144683838}},"29":{"bias":-8.212470054626465,"weights":{"0":3.8626222610473633,"1":-6.507283687591553,"2":-13.143706321716309,"3":5.537735939025879,"4":-10.531773567199707,"5":5.26768684387207,"6":-22.016359329223633,"7":9.605847358703613,"8":7.522830486297607,"9":-11.43212890625,"10":2.3163881301879883,"11":3.8798396587371826,"12":44.26335525512695,"13":-17.463586807250977}},"30":{"bias":-23.7890625,"weights":{"0":-21.731521606445312,"1":17.887277603149414,"2":19.815778732299805,"3":-20.07998275756836,"4":14.2997407913208,"5":-4.410948753356934,"6":9.35257625579834,"7":13.074219703674316,"8":-13.431266784667969,"9":0.6113361716270447,"10":11.300981521606445,"11":18.662927627563477,"12":25.985960006713867,"13":-7.426210403442383}},"31":{"bias":-0.03189384937286377,"weights":{"0":-15.627235412597656,"1":8.03697681427002,"2":12.521873474121094,"3":9.903037071228027,"4":-11.131658554077148,"5":-26.271244049072266,"6":27.366809844970703,"7":-0.012929549440741539,"8":-1.8599636554718018,"9":-2.426478624343872,"10":16.2094669342041,"11":-21.01036834716797,"12":28.490280151367188,"13":-10.919604301452637}},"32":{"bias":18.293811798095703,"weights":{"0":-10.85957145690918,"1":-25.153589248657227,"2":20.453405380249023,"3":-7.318911552429199,"4":-0.47820568084716797,"5":2.3578267097473145,"6":29.29662322998047,"7":-1.1905957460403442,"8":-20.72606658935547,"9":-28.7911319732666,"10":6.811803817749023,"11":-14.0753173828125,"12":22.017179489135742,"13":-2.9924838542938232}},"33":{"bias":-4.5265302658081055,"weights":{"0":-6.52632999420166,"1":-5.903166770935059,"2":-3.729306697845459,"3":0.09168758243322372,"4":-4.296205997467041,"5":-7.98372745513916,"6":4.926537990570068,"7":-5.944107532501221,"8":-2.4053142070770264,"9":8.807927131652832,"10":12.316349983215332,"11":2.8133907318115234,"12":15.325387001037598,"13":-4.459160327911377}},"34":{"bias":-19.40592384338379,"weights":{"0":-20.910799026489258,"1":17.556880950927734,"2":-15.747613906860352,"3":5.569006443023682,"4":6.722261905670166,"5":1.6154072284698486,"6":7.378265380859375,"7":7.369181156158447,"8":3.4960782527923584,"9":10.0099515914917,"10":4.342572212219238,"11":5.600063323974609,"12":56.52338409423828,"13":-28.52543067932129}},"35":{"bias":-17.85598373413086,"weights":{"0":-11.983712196350098,"1":16.72722053527832,"2":30.36309242248535,"3":2.1605803966522217,"4":-7.697862148284912,"5":-2.3460121154785156,"6":-6.0575127601623535,"7":7.2393879890441895,"8":2.662843942642212,"9":27.76246452331543,"10":-22.135263442993164,"11":-13.48731517791748,"12":14.335724830627441,"13":-11.980727195739746}},"36":{"bias":2.521409034729004,"weights":{"0":-14.590326309204102,"1":-1.1489500999450684,"2":-9.056133270263672,"3":-8.294987678527832,"4":2.756652593612671,"5":3.5402770042419434,"6":5.786507606506348,"7":29.670368194580078,"8":-10.146536827087402,"9":0.6796837449073792,"10":-15.946475982666016,"11":-9.178409576416016,"12":-18.796751022338867,"13":-14.096528053283691}},"37":{"bias":-2.4390647411346436,"weights":{"0":-17.798988342285156,"1":5.213233470916748,"2":-9.979004859924316,"3":-8.870158195495605,"4":19.29740333557129,"5":-10.460294723510742,"6":6.757093906402588,"7":4.009408473968506,"8":12.925405502319336,"9":-1.2163922786712646,"10":-10.747496604919434,"11":9.124685287475586,"12":-15.828978538513184,"13":-8.876433372497559}},"38":{"bias":14.272176742553711,"weights":{"0":8.388331413269043,"1":-30.122665405273438,"2":-11.36323070526123,"3":-4.26898193359375,"4":-5.105024814605713,"5":14.99644947052002,"6":-8.493589401245117,"7":18.51907730102539,"8":-1.3351906538009644,"9":-12.24122428894043,"10":-7.650396823883057,"11":-19.10401725769043,"12":20.54000473022461,"13":-29.449838638305664}},"39":{"bias":-1.17607843875885,"weights":{"0":-6.736534118652344,"1":14.429773330688477,"2":-35.35629653930664,"3":1.4780912399291992,"4":3.4186925888061523,"5":25.859130859375,"6":-14.133798599243164,"7":3.2077925205230713,"8":8.25879955291748,"9":8.81889533996582,"10":-5.548245429992676,"11":17.4771785736084,"12":33.13652038574219,"13":-0.6197625994682312}}},{"0":{"bias":-24.345605850219727,"weights":{"0":-11.515084266662598,"1":4.148937702178955,"2":1.0583133697509766,"3":0.2625668942928314,"4":1.4411734342575073,"5":-5.802214622497559,"6":-5.981714725494385,"7":2.7832295894622803,"8":-3.284158229827881,"9":1.9664192199707031,"10":-0.29951146245002747,"11":-5.370006561279297,"12":10.09750747680664,"13":-5.735043048858643,"14":2.364438533782959,"15":-4.550744533538818,"16":2.919382333755493,"17":-2.6429214477539062,"18":-10.86613941192627,"19":0.3530960977077484,"20":-5.680552959442139,"21":-3.7914466857910156,"22":15.97899055480957,"23":14.218119621276855,"24":4.0370097160339355,"25":1.522550344467163,"26":-2.917900562286377,"27":-11.62489128112793,"28":-13.534914016723633,"29":-4.090628623962402,"30":-14.741747856140137,"31":-8.406879425048828,"32":0.511875569820404,"33":-7.208271026611328,"34":-4.872485160827637,"35":-8.753239631652832,"36":1.6433285474777222,"37":17.558469772338867,"38":6.73637056350708,"39":-2.53222918510437}},"1":{"bias":-2.1461079120635986,"weights":{"0":-6.311944484710693,"1":0.4426867663860321,"2":-3.787330389022827,"3":0.4448945224285126,"4":1.6562771797180176,"5":-1.0779551267623901,"6":8.216484069824219,"7":9.97271728515625,"8":1.7870317697525024,"9":13.665243148803711,"10":10.046631813049316,"11":-2.252000570297241,"12":1.3353967666625977,"13":0.43708187341690063,"14":-17.440507888793945,"15":0.17272049188613892,"16":-4.52218770980835,"17":-4.616583824157715,"18":-1.0187772512435913,"19":4.551222324371338,"20":-7.080532073974609,"21":1.5581092834472656,"22":-5.732516288757324,"23":-6.4506754875183105,"24":-6.741548538208008,"25":-12.125059127807617,"26":4.776132583618164,"27":-22.39328384399414,"28":2.573258399963379,"29":-7.870001792907715,"30":-24.57039451599121,"31":-10.07958984375,"32":7.440533638000488,"33":12.138434410095215,"34":-7.22496223449707,"35":-7.183849811553955,"36":-10.040643692016602,"37":11.433636665344238,"38":-25.71525764465332,"39":3.407650947570801}},"2":{"bias":-3.4495859146118164,"weights":{"0":6.7116827964782715,"1":7.45062255859375,"2":-4.755735874176025,"3":3.070479154586792,"4":4.546576023101807,"5":-4.28935432434082,"6":-7.131767749786377,"7":0.10774042457342148,"8":-15.238401412963867,"9":2.330064058303833,"10":-4.118808746337891,"11":1.2249696254730225,"12":-14.595778465270996,"13":-18.484729766845703,"14":3.4431536197662354,"15":3.327277898788452,"16":-2.286774158477783,"17":2.751802682876587,"18":7.609553813934326,"19":7.256579875946045,"20":3.454784870147705,"21":-9.049878120422363,"22":-13.104722023010254,"23":2.013289213180542,"24":-31.22243309020996,"25":4.789402961730957,"26":11.362082481384277,"27":6.1902384757995605,"28":-7.869564533233643,"29":13.356534004211426,"30":10.489546775817871,"31":15.936079025268555,"32":-3.113609552383423,"33":0.7560703754425049,"34":3.5521318912506104,"35":-7.4965949058532715,"36":4.362376689910889,"37":-6.569757461547852,"38":9.116914749145508,"39":-6.549074172973633}},"3":{"bias":14.193767547607422,"weights":{"0":-12.118597984313965,"1":6.972662925720215,"2":-5.3883490562438965,"3":-4.827042579650879,"4":5.032526016235352,"5":2.2036893367767334,"6":-6.850314617156982,"7":7.60966157913208,"8":-7.3318071365356445,"9":4.6848530769348145,"10":5.648717403411865,"11":0.9858547449111938,"12":-3.869489908218384,"13":-3.199683904647827,"14":7.9914140701293945,"15":4.997778415679932,"16":-4.197291374206543,"17":8.745722770690918,"18":5.96828031539917,"19":6.05005407333374,"20":-0.21898947656154633,"21":-0.5864953398704529,"22":-14.14130687713623,"23":7.105057716369629,"24":-17.962812423706055,"25":23.698638916015625,"26":-17.049837112426758,"27":-12.819470405578613,"28":16.596328735351562,"29":7.66220760345459,"30":10.6143798828125,"31":2.1324679851531982,"32":-17.183439254760742,"33":-2.649519920349121,"34":8.401548385620117,"35":-9.7230863571167,"36":-16.58054542541504,"37":-9.820555686950684,"38":-4.2720561027526855,"39":-39.44499969482422}},"4":{"bias":-6.925895690917969,"weights":{"0":-3.948946714401245,"1":-8.001811981201172,"2":-8.418951988220215,"3":5.766481399536133,"4":-5.538074970245361,"5":-10.673230171203613,"6":6.231033802032471,"7":-5.617397785186768,"8":8.454413414001465,"9":-10.274284362792969,"10":2.9794623851776123,"11":7.857404708862305,"12":1.6212058067321777,"13":12.880847930908203,"14":-1.756912112236023,"15":12.613319396972656,"16":-2.2485427856445312,"17":-6.803226947784424,"18":12.192987442016602,"19":9.98573112487793,"20":-1.4324383735656738,"21":13.800727844238281,"22":0.0002593763347249478,"23":3.998253345489502,"24":-20.281660079956055,"25":-1.4573293924331665,"26":-13.366256713867188,"27":4.654379844665527,"28":0.4182196855545044,"29":11.110597610473633,"30":-4.513943195343018,"31":-6.6857829093933105,"32":-3.548588275909424,"33":3.265714406967163,"34":12.781550407409668,"35":-5.622407913208008,"36":9.160341262817383,"37":9.498369216918945,"38":-5.398164749145508,"39":-17.350421905517578}},"5":{"bias":-10.702075004577637,"weights":{"0":-9.075488090515137,"1":11.864994049072266,"2":-8.071846961975098,"3":4.921549320220947,"4":0.8639726042747498,"5":-7.923766613006592,"6":-3.0655674934387207,"7":-3.69256329536438,"8":-4.960685729980469,"9":-10.667963027954102,"10":9.853482246398926,"11":3.024336338043213,"12":-12.023524284362793,"13":-3.808720111846924,"14":-2.7159383296966553,"15":1.586524486541748,"16":-2.9875452518463135,"17":2.173581123352051,"18":3.1024889945983887,"19":-8.467918395996094,"20":10.331722259521484,"21":-6.530788898468018,"22":-6.159928321838379,"23":8.331480979919434,"24":11.711461067199707,"25":0.808109700679779,"26":-14.716526985168457,"27":4.218934535980225,"28":-17.574140548706055,"29":-8.28879165649414,"30":4.819210529327393,"31":-17.327442169189453,"32":-10.676968574523926,"33":-14.601075172424316,"34":-12.182953834533691,"35":7.745497226715088,"36":12.811957359313965,"37":-1.22317373752594,"38":-2.9331915378570557,"39":0.34110426902770996}},"6":{"bias":-7.806851863861084,"weights":{"0":-2.479180097579956,"1":-0.45931851863861084,"2":-12.78828239440918,"3":-10.968299865722656,"4":-20.27481460571289,"5":3.4943270683288574,"6":-8.96502685546875,"7":-2.5243852138519287,"8":4.977138519287109,"9":4.722679615020752,"10":-2.942469596862793,"11":-2.6579782962799072,"12":1.352240800857544,"13":0.4632469117641449,"14":2.8219475746154785,"15":6.794561862945557,"16":-8.175594329833984,"17":-1.249295949935913,"18":-13.268290519714355,"19":-2.9579391479492188,"20":4.1926984786987305,"21":10.499943733215332,"22":-12.953274726867676,"23":6.476510524749756,"24":-7.442948818206787,"25":8.176033020019531,"26":-9.285171508789062,"27":14.078625679016113,"28":-2.758134603500366,"29":-1.656810998916626,"30":-3.4442408084869385,"31":-8.134881973266602,"32":-5.907627105712891,"33":-4.917878150939941,"34":-2.8515803813934326,"35":-9.61252498626709,"36":-11.710199356079102,"37":-29.472368240356445,"38":14.398078918457031,"39":-8.505213737487793}},"7":{"bias":-2.2526776790618896,"weights":{"0":5.800195693969727,"1":4.1635422706604,"2":-8.46017837524414,"3":-1.107253909111023,"4":-5.270071506500244,"5":-2.1484899520874023,"6":-2.3912415504455566,"7":3.2098007202148438,"8":-11.619318008422852,"9":1.2427796125411987,"10":-1.1658275127410889,"11":12.016326904296875,"12":-16.185894012451172,"13":-3.082289457321167,"14":-15.211748123168945,"15":-11.40616512298584,"16":1.089152455329895,"17":-4.219428062438965,"18":-5.68538236618042,"19":-3.984044313430786,"20":0.3499489426612854,"21":2.465064525604248,"22":-12.518536567687988,"23":3.948744297027588,"24":1.852407693862915,"25":16.093753814697266,"26":-7.818680763244629,"27":-7.956071376800537,"28":-6.148929119110107,"29":-2.9475204944610596,"30":-15.835402488708496,"31":8.17098331451416,"32":-5.275884628295898,"33":-4.169124126434326,"34":-3.5227627754211426,"35":-8.93795108795166,"36":-4.239171981811523,"37":4.205394744873047,"38":-7.930119037628174,"39":0.3993625044822693}},"8":{"bias":-23.991487503051758,"weights":{"0":5.6585235595703125,"1":1.171396255493164,"2":-7.392360687255859,"3":-5.426182270050049,"4":1.0067154169082642,"5":7.807378768920898,"6":0.6179984211921692,"7":-7.437043190002441,"8":-16.674224853515625,"9":-1.82339608669281,"10":6.928012371063232,"11":3.4270823001861572,"12":-4.993028163909912,"13":-9.599231719970703,"14":-2.1705477237701416,"15":-0.8560979962348938,"16":0.6252979040145874,"17":2.2905049324035645,"18":27.77313804626465,"19":-2.1864235401153564,"20":0.21676485240459442,"21":-8.047747611999512,"22":-1.4806220531463623,"23":-8.49282169342041,"24":-12.29941177368164,"25":18.49496841430664,"26":0.2137499898672104,"27":-25.1492919921875,"28":6.248718738555908,"29":-13.581345558166504,"30":-3.2441296577453613,"31":9.906709671020508,"32":12.301830291748047,"33":-11.62675666809082,"34":0.06527651101350784,"35":-0.7258929014205933,"36":-12.423266410827637,"37":1.7841646671295166,"38":4.636000633239746,"39":0.23663924634456635}},"9":{"bias":-7.804197788238525,"weights":{"0":8.516690254211426,"1":-8.795507431030273,"2":2.989435911178589,"3":-9.878963470458984,"4":5.920836925506592,"5":3.469797134399414,"6":2.1209475994110107,"7":-0.1313764601945877,"8":-6.020121097564697,"9":4.955798149108887,"10":2.5075223445892334,"11":-1.337344765663147,"12":-14.502562522888184,"13":2.4919073581695557,"14":-3.0418026447296143,"15":-2.8762803077697754,"16":-2.208799123764038,"17":-2.1845643520355225,"18":-4.138167381286621,"19":-5.461828708648682,"20":4.810427188873291,"21":-6.845631122589111,"22":4.645654201507568,"23":-0.22936318814754486,"24":8.98196792602539,"25":13.71649169921875,"26":-23.672119140625,"27":12.895207405090332,"28":-8.534031867980957,"29":-8.063182830810547,"30":3.2698512077331543,"31":7.62270975112915,"32":-9.423397064208984,"33":-0.8923376202583313,"34":-7.0779523849487305,"35":-8.048995018005371,"36":2.583853244781494,"37":-7.6274943351745605,"38":-6.172582149505615,"39":-9.396397590637207}},"10":{"bias":5.132399559020996,"weights":{"0":-16.16160011291504,"1":5.225571632385254,"2":0.32858362793922424,"3":11.352916717529297,"4":6.381669998168945,"5":-10.394378662109375,"6":-8.476566314697266,"7":-1.1444494724273682,"8":7.720790863037109,"9":-2.534038543701172,"10":-10.888447761535645,"11":-1.8005906343460083,"12":-0.5214622020721436,"13":4.44212532043457,"14":-0.32301828265190125,"15":-9.749090194702148,"16":-0.7249226570129395,"17":-3.3022496700286865,"18":-17.8678035736084,"19":-14.275321960449219,"20":-6.742396831512451,"21":-4.1253204345703125,"22":2.5252456665039062,"23":-7.480281829833984,"24":-15.236377716064453,"25":-8.21863079071045,"26":-13.024158477783203,"27":-7.564591407775879,"28":3.8147337436676025,"29":2.0054309368133545,"30":-13.339603424072266,"31":-7.302535533905029,"32":8.993215560913086,"33":6.857512950897217,"34":-1.2789347171783447,"35":-11.32515811920166,"36":-7.560760021209717,"37":-8.84582805633545,"38":3.76961612701416,"39":13.182476997375488}},"11":{"bias":-5.358906269073486,"weights":{"0":1.3871617317199707,"1":-2.675712823867798,"2":-10.782800674438477,"3":-5.957178115844727,"4":-1.4880653619766235,"5":-17.65860366821289,"6":3.3485260009765625,"7":4.20876932144165,"8":-8.4636869430542,"9":3.6070332527160645,"10":-2.151756763458252,"11":3.057655096054077,"12":2.795109748840332,"13":2.5634143352508545,"14":5.579431056976318,"15":10.375886917114258,"16":-1.4413892030715942,"17":-3.3897125720977783,"18":-26.76025390625,"19":6.68143367767334,"20":-15.650131225585938,"21":-3.1930766105651855,"22":-3.8465023040771484,"23":-5.823173522949219,"24":3.651984214782715,"25":7.971290111541748,"26":-3.908494710922241,"27":-14.444756507873535,"28":5.029493808746338,"29":-7.946155548095703,"30":-4.4306721687316895,"31":-10.830583572387695,"32":-2.6149821281433105,"33":-0.6891273856163025,"34":-2.9951462745666504,"35":-2.3282740116119385,"36":-8.679200172424316,"37":21.043054580688477,"38":9.210495948791504,"39":-5.897201061248779}},"12":{"bias":0.7674809694290161,"weights":{"0":-2.2621469497680664,"1":-2.5251104831695557,"2":-2.8627076148986816,"3":-6.8722381591796875,"4":16.26110076904297,"5":-1.808638572692871,"6":-15.009796142578125,"7":-11.595128059387207,"8":-2.442441701889038,"9":-8.92808723449707,"10":-1.4493107795715332,"11":1.5884654521942139,"12":-2.636113166809082,"13":0.5780305862426758,"14":-5.527942657470703,"15":-6.294124126434326,"16":1.3232916593551636,"17":1.2772520780563354,"18":-0.6092633008956909,"19":-7.548300266265869,"20":-9.857030868530273,"21":-0.28057438135147095,"22":-5.6681437492370605,"23":-1.3891732692718506,"24":1.720816731452942,"25":-3.928719997406006,"26":-1.931870698928833,"27":-0.5415999889373779,"28":4.762562274932861,"29":-1.8854178190231323,"30":3.6408770084381104,"31":-3.0380101203918457,"32":-1.2408695220947266,"33":-0.9928762912750244,"34":-0.0024698805063962936,"35":-14.026607513427734,"36":-4.835342884063721,"37":5.689018249511719,"38":-10.548591613769531,"39":3.496223211288452}},"13":{"bias":-1.6100555658340454,"weights":{"0":1.9147353172302246,"1":-2.133526563644409,"2":-1.3184208869934082,"3":1.3779077529907227,"4":-3.0317869186401367,"5":19.94053077697754,"6":-2.141183376312256,"7":-8.964951515197754,"8":-13.413347244262695,"9":-9.685735702514648,"10":-6.107252597808838,"11":-1.3498774766921997,"12":17.764699935913086,"13":13.682124137878418,"14":6.380638599395752,"15":1.0898188352584839,"16":6.907812118530273,"17":3.1485490798950195,"18":-12.593350410461426,"19":-11.345983505249023,"20":4.932710647583008,"21":-3.145838499069214,"22":-3.6453258991241455,"23":-5.426929950714111,"24":-9.769367218017578,"25":-16.628812789916992,"26":2.8351032733917236,"27":0.35981976985931396,"28":12.526832580566406,"29":5.271061897277832,"30":-9.172889709472656,"31":-5.024015426635742,"32":-6.555727481842041,"33":-4.82375955581665,"34":-1.5815187692642212,"35":-1.6589959859848022,"36":7.48617696762085,"37":-7.9174628257751465,"38":-7.885013580322266,"39":-13.26175308227539}},"14":{"bias":-4.941837787628174,"weights":{"0":-0.5671467185020447,"1":-5.421138286590576,"2":-8.781946182250977,"3":0.6725233793258667,"4":-10.534698486328125,"5":3.549680471420288,"6":-9.20642375946045,"7":3.42193603515625,"8":15.998712539672852,"9":-6.009156227111816,"10":2.26411771774292,"11":3.1544532775878906,"12":-11.001055717468262,"13":-1.1697360277175903,"14":0.21622785925865173,"15":-0.4978031814098358,"16":3.3117852210998535,"17":3.8683271408081055,"18":3.178410768508911,"19":-2.556290626525879,"20":5.8032355308532715,"21":-1.3152507543563843,"22":21.411357879638672,"23":2.1062443256378174,"24":-9.045811653137207,"25":-6.748326301574707,"26":-3.466496229171753,"27":-10.340011596679688,"28":-6.473890781402588,"29":3.502042293548584,"30":-8.091814041137695,"31":-7.484503269195557,"32":-9.529731750488281,"33":2.7489755153656006,"34":-9.173977851867676,"35":-5.716961860656738,"36":-0.0640917494893074,"37":-4.168491363525391,"38":2.9032154083251953,"39":-9.537912368774414}},"15":{"bias":1.174500823020935,"weights":{"0":-13.700319290161133,"1":-3.1699631214141846,"2":-11.259546279907227,"3":0.23468472063541412,"4":5.636168956756592,"5":-1.1699601411819458,"6":5.630032062530518,"7":-3.579775810241699,"8":-2.0061471462249756,"9":-0.715613603591919,"10":2.2014412879943848,"11":0.5993166565895081,"12":-5.890995025634766,"13":-8.023530960083008,"14":1.0849987268447876,"15":1.1933352947235107,"16":0.45621299743652344,"17":-2.305602550506592,"18":-18.815439224243164,"19":-3.4350318908691406,"20":-0.6177873611450195,"21":-2.7672293186187744,"22":15.680896759033203,"23":8.46008586883545,"24":-7.030473232269287,"25":10.183553695678711,"26":-2.0306026935577393,"27":-6.502364158630371,"28":-5.403204441070557,"29":-2.628883123397827,"30":-1.3624141216278076,"31":-8.5621919631958,"32":-3.3856399059295654,"33":0.33158865571022034,"34":14.222151756286621,"35":1.7829642295837402,"36":1.6116169691085815,"37":-5.566788673400879,"38":-11.622830390930176,"39":-26.12213706970215}},"16":{"bias":-21.5489444732666,"weights":{"0":-1.6093260049819946,"1":-4.428721904754639,"2":19.172496795654297,"3":-8.536934852600098,"4":6.859396457672119,"5":2.6583242416381836,"6":5.652077674865723,"7":-1.4497859477996826,"8":-2.9205925464630127,"9":-10.684830665588379,"10":15.967376708984375,"11":-5.375850200653076,"12":-4.144792079925537,"13":-16.161699295043945,"14":-1.9663258790969849,"15":0.8693529963493347,"16":-5.41996431350708,"17":-11.175057411193848,"18":12.9442720413208,"19":-2.928413152694702,"20":9.42437744140625,"21":14.314175605773926,"22":-12.69670295715332,"23":1.6722975969314575,"24":-3.925556182861328,"25":-4.2748332023620605,"26":-2.9506425857543945,"27":1.470672607421875,"28":-0.08566131442785263,"29":-16.094890594482422,"30":15.549123764038086,"31":7.778146743774414,"32":-6.783549785614014,"33":1.2279917001724243,"34":-7.23495626449585,"35":0.58006352186203,"36":7.388084411621094,"37":-5.826343536376953,"38":-2.7170863151550293,"39":-13.630589485168457}},"17":{"bias":-17.174829483032227,"weights":{"0":0.43725982308387756,"1":-9.238829612731934,"2":-17.610183715820312,"3":0.025455230847001076,"4":-5.3094258308410645,"5":2.610368013381958,"6":3.2366323471069336,"7":5.690180778503418,"8":-11.449299812316895,"9":5.305845737457275,"10":-0.7216477990150452,"11":-4.7374091148376465,"12":-0.5433303713798523,"13":0.568419337272644,"14":5.450272083282471,"15":-2.486753463745117,"16":2.2481236457824707,"17":-10.656888008117676,"18":28.95165252685547,"19":15.660858154296875,"20":8.580620765686035,"21":-8.178786277770996,"22":-12.581896781921387,"23":-23.02785301208496,"24":-6.047666072845459,"25":-3.7510056495666504,"26":-1.1770457029342651,"27":1.4633482694625854,"28":5.290624618530273,"29":-1.0572282075881958,"30":12.481526374816895,"31":10.905264854431152,"32":-17.829544067382812,"33":4.176437854766846,"34":0.8564714193344116,"35":2.73799467086792,"36":-3.744926929473877,"37":8.054299354553223,"38":-2.7346506118774414,"39":5.685193061828613}},"18":{"bias":-14.704853057861328,"weights":{"0":-13.395268440246582,"1":6.320907115936279,"2":-3.7232871055603027,"3":10.814364433288574,"4":-14.042597770690918,"5":2.8212552070617676,"6":-6.776031494140625,"7":11.574800491333008,"8":-2.2346019744873047,"9":3.634413003921509,"10":-10.794986724853516,"11":4.6495256423950195,"12":-18.807191848754883,"13":-7.602041244506836,"14":-1.7032049894332886,"15":8.049477577209473,"16":-3.6029231548309326,"17":-12.144989013671875,"18":2.7102160453796387,"19":0.8287751078605652,"20":-28.35540771484375,"21":1.9242974519729614,"22":3.314913749694824,"23":6.120652198791504,"24":9.914347648620605,"25":-15.688667297363281,"26":-5.673185348510742,"27":-12.289170265197754,"28":2.9022319316864014,"29":-0.48797228932380676,"30":4.670167446136475,"31":-1.331238031387329,"32":-14.258328437805176,"33":1.7320810556411743,"34":-18.332666397094727,"35":-2.8158133029937744,"36":13.418595314025879,"37":-4.525763034820557,"38":11.589998245239258,"39":23.561288833618164}},"19":{"bias":-3.821523427963257,"weights":{"0":-0.906817615032196,"1":-6.072208881378174,"2":3.536283254623413,"3":-0.6860561966896057,"4":-7.7892231941223145,"5":-8.480685234069824,"6":10.562729835510254,"7":0.5053448677062988,"8":-5.558350086212158,"9":-3.616931676864624,"10":7.365187644958496,"11":-1.8833943605422974,"12":8.1428861618042,"13":-0.112158864736557,"14":-3.953064441680908,"15":3.3813745975494385,"16":-2.9445877075195312,"17":-1.4258657693862915,"18":-4.944857597351074,"19":1.7767372131347656,"20":-2.1564159393310547,"21":-4.0860514640808105,"22":-9.531094551086426,"23":-5.118162631988525,"24":-10.79845905303955,"25":7.917230606079102,"26":-11.32109546661377,"27":-17.130281448364258,"28":-12.46506118774414,"29":-10.386238098144531,"30":0.5908157229423523,"31":-1.285963773727417,"32":-2.8964366912841797,"33":-2.7924985885620117,"34":-6.572656631469727,"35":-6.65793514251709,"36":-12.696439743041992,"37":-3.5820484161376953,"38":2.0074446201324463,"39":-5.083178997039795}}},{"0":{"bias":-18.981836318969727,"weights":{"0":10.468439102172852,"1":7.08366060256958,"2":22.231752395629883,"3":16.580047607421875,"4":9.483528137207031,"5":19.9780330657959,"6":13.268611907958984,"7":10.350204467773438,"8":22.85573959350586,"9":23.980209350585938,"10":8.126651763916016,"11":10.091049194335938,"12":9.709979057312012,"13":11.366548538208008,"14":16.645414352416992,"15":21.657873153686523,"16":9.978710174560547,"17":7.688166618347168,"18":11.87265396118164,"19":16.091218948364258}}}],"outputLookup":true,"inputLookup":true,"activation":"sigmoid","trainOpts":{"iterations":3000,"errorThresh":0.005,"log":true,"logPeriod":10,"learningRate":0.3,"momentum":0.1,"callbackPeriod":10,"beta1":0.9,"beta2":0.999,"epsilon":1e-8}}