{"sizes":[14,40,20,1],"layers":[{"0":{},"1":{},"2":{},"3":{},"4":{},"5":{},"6":{},"7":{},"8":{},"9":{},"10":{},"11":{},"12":{},"13":{}},{"0":{"bias":-1.5029131174087524,"weights":{"0":-5.934295177459717,"1":-16.64548683166504,"2":-5.722868919372559,"3":29.191482543945312,"4":7.449317932128906,"5":-22.1229248046875,"6":-31.5526123046875,"7":10.84572696685791,"8":1.3243147134780884,"9":-7.5464935302734375,"10":1.2143172025680542,"11":51.42659378051758,"12":30.021541595458984,"13":-24.247821807861328}},"1":{"bias":3.6284964084625244,"weights":{"0":4.570699214935303,"1":-2.954547882080078,"2":-7.18088960647583,"3":-1.0327049493789673,"4":1.1882230043411255,"5":8.77203369140625,"6":-11.939335823059082,"7":-12.062047004699707,"8":2.355510950088501,"9":7.862577438354492,"10":-19.0242977142334,"11":-14.270855903625488,"12":3.4222254753112793,"13":-12.0413179397583}},"2":{"bias":-11.956412315368652,"weights":{"0":4.049514293670654,"1":-7.00454044342041,"2":-3.8692564964294434,"3":-10.92150592803955,"4":-12.748637199401855,"5":-5.838052749633789,"6":0.5404905080795288,"7":-22.75046157836914,"8":30.175594329833984,"9":3.6777384281158447,"10":25.319669723510742,"11":20.21589469909668,"12":26.46910858154297,"13":2.106966257095337}},"3":{"bias":-35.55854034423828,"weights":{"0":-9.065431594848633,"1":29.926549911499023,"2":0.8741817474365234,"3":14.464292526245117,"4":-27.589767456054688,"5":19.06309700012207,"6":-4.66510009765625,"7":17.14323616027832,"8":-3.752774715423584,"9":14.115618705749512,"10":-14.604187965393066,"11":-18.03729248046875,"12":35.92152404785156,"13":8.40453815460205}},"4":{"bias":5.001829624176025,"weights":{"0":-4.32503604888916,"1":-16.70591163635254,"2":-4.241579532623291,"3":0.9585835933685303,"4":-0.915904700756073,"5":-8.345355033874512,"6":-8.000655174255371,"7":2.982947587966919,"8":26.368642807006836,"9":-0.8024831414222717,"10":9.73665714263916,"11":-2.126591920852661,"12":4.908897876739502,"13":-2.876279354095459}},"5":{"bias":0.20501655340194702,"weights":{"0":-17.93882179260254,"1":11.857425689697266,"2":1.4547673463821411,"3":-22.041173934936523,"4":-6.411576271057129,"5":0.4823817014694214,"6":28.15251350402832,"7":-0.25740981101989746,"8":-29.89676856994629,"9":-5.290844917297363,"10":-2.561213970184326,"11":-10.33284854888916,"12":-23.520809173583984,"13":21.250070571899414}},"6":{"bias":12.998750686645508,"weights":{"0":-17.889436721801758,"1":-8.269965171813965,"2":-0.7971017360687256,"3":-3.175757646560669,"4":27.117433547973633,"5":11.605616569519043,"6":16.81951332092285,"7":19.847564697265625,"8":-5.8335185050964355,"9":-25.293495178222656,"10":-26.845029830932617,"11":-4.61976957321167,"12":25.562618255615234,"13":-8.755510330200195}},"7":{"bias":11.301397323608398,"weights":{"0":-13.181198120117188,"1":2.7672669887542725,"2":8.584863662719727,"3":-17.19896125793457,"4":3.995842933654785,"5":-4.697629928588867,"6":-17.447139739990234,"7":-4.553737640380859,"8":17.618532180786133,"9":-5.482162952423096,"10":-7.52144193649292,"11":-5.44789457321167,"12":-19.049291610717773,"13":5.395384788513184}},"8":{"bias":-25.5926513671875,"weights":{"0":-6.5767130851745605,"1":16.58184242248535,"2":-29.43450355529785,"3":-1.319525957107544,"4":27.35508918762207,"5":-11.651915550231934,"6":7.489790916442871,"7":2.626054525375366,"8":2.4641189575195312,"9":-2.4109957218170166,"10":25.676700592041016,"11":10.612861633300781,"12":25.674928665161133,"13":27.043855667114258}},"9":{"bias":-3.317067861557007,"weights":{"0":-4.883728981018066,"1":-16.398109436035156,"2":-13.708161354064941,"3":-5.770112037658691,"4":-12.452564239501953,"5":19.704387664794922,"6":-4.882447242736816,"7":-0.2874045968055725,"8":15.334333419799805,"9":-14.95178508758545,"10":11.291364669799805,"11":12.73534870147705,"12":10.878561973571777,"13":0.4367061257362366}},"10":{"bias":-1.5002065896987915,"weights":{"0":-6.368317604064941,"1":-0.1068582609295845,"2":-14.928727149963379,"3":2.892219305038452,"4":-16.081905364990234,"5":27.505168914794922,"6":-16.248138427734375,"7":3.6660542488098145,"8":-9.253926277160645,"9":15.491986274719238,"10":-22.069673538208008,"11":-14.393660545349121,"12":-20.436594009399414,"13":22.19488525390625}},"11":{"bias":-8.88610553741455,"weights":{"0":-8.545605659484863,"1":1.15239417552948,"2":-17.007761001586914,"3":-15.11363697052002,"4":6.108043193817139,"5":32.02989959716797,"6":22.902864456176758,"7":9.845918655395508,"8":3.6118555068969727,"9":2.332084894180298,"10":-16.397525787353516,"11":-21.32085418701172,"12":11.094575881958008,"13":2.3321211338043213}},"12":{"bias":6.373417377471924,"weights":{"0":-4.742040157318115,"1":-14.011613845825195,"2":23.94816780090332,"3":-21.385940551757812,"4":-7.269558429718018,"5":7.155841827392578,"6":25.807893753051758,"7":-10.726805686950684,"8":-9.637892723083496,"9":-13.858766555786133,"10":1.3075306415557861,"11":7.7790679931640625,"12":29.008546829223633,"13":-24.938756942749023}},"13":{"bias":14.77615737915039,"weights":{"0":-8.948208808898926,"1":-0.343037486076355,"2":-15.280494689941406,"3":-27.683917999267578,"4":5.003531455993652,"5":1.4528864622116089,"6":0.400247186422348,"7":-13.057721138000488,"8":-2.739628791809082,"9":0.22678029537200928,"10":-11.78787899017334,"11":-11.442543029785156,"12":-6.3552069664001465,"13":-2.417370080947876}},"14":{"bias":-12.978615760803223,"weights":{"0":-2.9897313117980957,"1":5.7691264152526855,"2":-23.640287399291992,"3":7.400972366333008,"4":0.5465887188911438,"5":-8.06814956665039,"6":-7.8589582443237305,"7":10.861065864562988,"8":33.33810043334961,"9":-9.268111228942871,"10":-1.2903168201446533,"11":-3.905515193939209,"12":-9.571231842041016,"13":10.741242408752441}},"15":{"bias":-14.826776504516602,"weights":{"0":-12.336860656738281,"1":12.900529861450195,"2":-9.018122673034668,"3":13.90165901184082,"4":3.376894950866699,"5":-23.209177017211914,"6":-5.877401351928711,"7":24.570783615112305,"8":-17.380094528198242,"9":-0.9747675657272339,"10":24.936443328857422,"11":6.491949081420898,"12":-6.565953254699707,"13":0.14024193584918976}},"16":{"bias":15.974165916442871,"weights":{"0":-23.545503616333008,"1":0.7838274240493774,"2":-12.487271308898926,"3":11.853842735290527,"4":-23.587425231933594,"5":-3.1946818828582764,"6":18.082355499267578,"7":-13.76352310180664,"8":16.153331756591797,"9":-5.619739055633545,"10":5.914544105529785,"11":-3.857722282409668,"12":12.803854942321777,"13":-20.367877960205078}},"17":{"bias":1.815080165863037,"weights":{"0":9.46788215637207,"1":-31.89920997619629,"2":-11.384459495544434,"3":-2.2211084365844727,"4":14.679759979248047,"5":3.6169347763061523,"6":16.33521270751953,"7":-5.3504414558410645,"8":-28.644948959350586,"9":-15.18996524810791,"10":9.08127212524414,"11":3.9632229804992676,"12":5.666810035705566,"13":9.773087501525879}},"18":{"bias":1.046703815460205,"weights":{"0":-1.7914481163024902,"1":1.2771412134170532,"2":12.011581420898438,"3":-4.01364278793335,"4":-20.655715942382812,"5":-4.0218281745910645,"6":-27.229736328125,"7":-5.95150899887085,"8":16.91272735595703,"9":9.44982624053955,"10":-21.93486976623535,"11":-16.023815155029297,"12":21.267349243164062,"13":7.242862224578857}},"19":{"bias":4.29926872253418,"weights":{"0":-4.5011820793151855,"1":-5.491338729858398,"2":-5.107560634613037,"3":-37.19517135620117,"4":36.258338928222656,"5":1.4466279745101929,"6":-18.265552520751953,"7":-16.885560989379883,"8":-9.793401718139648,"9":-18.792030334472656,"10":20.769699096679688,"11":33.51594924926758,"12":54.3148307800293,"13":-16.73073959350586}},"20":{"bias":-24.997053146362305,"weights":{"0":14.57858657836914,"1":7.061948776245117,"2":-17.0944766998291,"3":25.441791534423828,"4":0.24314989149570465,"5":-7.18402099609375,"6":4.3549723625183105,"7":1.8369909524917603,"8":-7.9575347900390625,"9":11.55413818359375,"10":-4.490902900695801,"11":-6.479172706604004,"12":14.502041816711426,"13":-14.019623756408691}},"21":{"bias":8.928753852844238,"weights":{"0":4.014633655548096,"1":-7.219176292419434,"2":-16.258155822753906,"3":-0.03387092426419258,"4":19.311166763305664,"5":-10.692752838134766,"6":9.125693321228027,"7":-8.651981353759766,"8":0.6740027070045471,"9":-4.92244291305542,"10":-17.809980392456055,"11":-15.962776184082031,"12":-1.1839501857757568,"13":-7.643727779388428}},"22":{"bias":-2.8948116302490234,"weights":{"0":-19.332529067993164,"1":12.916930198669434,"2":-22.07832908630371,"3":8.280017852783203,"4":-19.240015029907227,"5":-7.3541646003723145,"6":16.097610473632812,"7":0.7923240661621094,"8":8.575136184692383,"9":8.745464324951172,"10":27.144319534301758,"11":-22.080827713012695,"12":18.06801986694336,"13":-7.464264392852783}},"23":{"bias":-5.6352434158325195,"weights":{"0":8.336678504943848,"1":-5.873907566070557,"2":4.301639080047607,"3":-4.088555812835693,"4":7.9123616218566895,"5":-13.698898315429688,"6":-12.073699951171875,"7":6.903326034545898,"8":9.709827423095703,"9":0.9015193581581116,"10":5.153664588928223,"11":-5.298439025878906,"12":23.459762573242188,"13":-15.853480339050293}},"24":{"bias":-23.53929901123047,"weights":{"0":15.586400032043457,"1":2.846067428588867,"2":17.347475051879883,"3":-18.776779174804688,"4":-26.117408752441406,"5":-2.74192476272583,"6":-20.066577911376953,"7":-19.6539363861084,"8":13.803391456604004,"9":26.049678802490234,"10":-0.8243060111999512,"11":7.776064872741699,"12":28.302446365356445,"13":14.863287925720215}},"25":{"bias":16.306289672851562,"weights":{"0":-8.755040168762207,"1":-29.98670768737793,"2":-3.474186658859253,"3":-12.054197311401367,"4":-8.17653751373291,"5":38.2856559753418,"6":-7.5921525955200195,"7":-11.322981834411621,"8":-12.178661346435547,"9":4.348928928375244,"10":-4.428571701049805,"11":-1.7081544399261475,"12":-29.304780960083008,"13":0.47565463185310364}},"26":{"bias":-5.692944526672363,"weights":{"0":-20.059329986572266,"1":9.183941841125488,"2":-23.95951271057129,"3":11.202559471130371,"4":20.7003173828125,"5":6.224761962890625,"6":-6.719533443450928,"7":-5.390568256378174,"8":9.726591110229492,"9":-5.180515766143799,"10":-17.613006591796875,"11":5.2793684005737305,"12":8.99622917175293,"13":-22.669906616210938}},"27":{"bias":-5.123693943023682,"weights":{"0":-7.294247627258301,"1":18.313426971435547,"2":15.032854080200195,"3":-3.882244825363159,"4":7.042723178863525,"5":-14.970998764038086,"6":7.2025465965271,"7":-8.24682903289795,"8":-3.8108766078948975,"9":10.17955493927002,"10":-22.156259536743164,"11":-20.124807357788086,"12":14.415345191955566,"13":6.162490367889404}},"28":{"bias":17.464696884155273,"weights":{"0":-20.30412483215332,"1":-8.258767127990723,"2":-10.570428848266602,"3":-10.996196746826172,"4":10.020374298095703,"5":-5.843504428863525,"6":-22.095142364501953,"7":-35.12534713745117,"8":33.39375305175781,"9":0.1589212268590927,"10":9.247736930847168,"11":4.784400939941406,"12":-0.686786949634552,"13":2.5385076999664307}},"29":{"bias":-1.5780150890350342,"weights":{"0":-7.213098049163818,"1":6.473421573638916,"2":-0.17081201076507568,"3":-15.486443519592285,"4":14.47128677368164,"5":1.8301912546157837,"6":-1.8845049142837524,"7":-9.121225357055664,"8":20.566667556762695,"9":2.4444572925567627,"10":-7.823884010314941,"11":-25.78441619873047,"12":1.9540274143218994,"13":-7.365602016448975}},"30":{"bias":-10.104829788208008,"weights":{"0":-9.500304222106934,"1":13.801491737365723,"2":-2.9363303184509277,"3":-4.469296932220459,"4":-3.708693742752075,"5":16.757633209228516,"6":-6.282065391540527,"7":51.1745719909668,"8":11.47520923614502,"9":-10.055633544921875,"10":23.13269805908203,"11":19.7974796295166,"12":-13.58437442779541,"13":21.450958251953125}},"31":{"bias":-11.974645614624023,"weights":{"0":-9.178426742553711,"1":11.855696678161621,"2":27.413379669189453,"3":-9.33813762664795,"4":14.736001014709473,"5":-15.834229469299316,"6":10.32236099243164,"7":-1.1024283170700073,"8":-6.015288352966309,"9":-11.417302131652832,"10":-0.1353374868631363,"11":28.19133186340332,"12":25.337539672851562,"13":-25.75018882751465}},"32":{"bias":-1.1268584728240967,"weights":{"0":-7.776668548583984,"1":-11.8008451461792,"2":-27.412500381469727,"3":5.562645435333252,"4":14.366716384887695,"5":16.732158660888672,"6":31.760414123535156,"7":-17.952388763427734,"8":-11.80473518371582,"9":-19.016948699951172,"10":10.494434356689453,"11":4.34220552444458,"12":35.00163650512695,"13":-12.251701354980469}},"33":{"bias":-5.64396858215332,"weights":{"0":2.1784114837646484,"1":-8.199769020080566,"2":2.531989812850952,"3":22.61937713623047,"4":0.9781098961830139,"5":-2.1670446395874023,"6":12.557190895080566,"7":0.9212112426757812,"8":21.900686264038086,"9":-13.669668197631836,"10":-16.756258010864258,"11":-5.152666091918945,"12":11.776944160461426,"13":6.5758795738220215}},"34":{"bias":-37.588623046875,"weights":{"0":38.692962646484375,"1":-16.209239959716797,"2":30.801084518432617,"3":4.1477789878845215,"4":-10.639561653137207,"5":-19.59471321105957,"6":-9.496902465820312,"7":0.6829373240470886,"8":16.6297550201416,"9":7.157491683959961,"10":18.733478546142578,"11":-9.02405071258545,"12":22.19069480895996,"13":27.337810516357422}},"35":{"bias":7.09429931640625,"weights":{"0":-16.864879608154297,"1":2.8538362979888916,"2":0.5360614657402039,"3":-23.568492889404297,"4":-2.6608941555023193,"5":-12.39271354675293,"6":-8.638202667236328,"7":-22.14556121826172,"8":3.300553321838379,"9":8.820560455322266,"10":9.03667163848877,"11":9.636157035827637,"12":-7.635063171386719,"13":-13.847951889038086}},"36":{"bias":0.7183912396430969,"weights":{"0":-21.72300148010254,"1":0.7213981747627258,"2":-5.167194366455078,"3":0.3928473889827728,"4":-9.107582092285156,"5":10.347549438476562,"6":20.735809326171875,"7":-20.263919830322266,"8":-2.5908894538879395,"9":6.548526287078857,"10":-2.492586135864258,"11":2.1312804222106934,"12":-12.873199462890625,"13":6.6987409591674805}},"37":{"bias":-4.519715785980225,"weights":{"0":-15.177823066711426,"1":5.292879104614258,"2":7.066673755645752,"3":-29.968122482299805,"4":5.278863906860352,"5":-10.40738582611084,"6":11.01423168182373,"7":14.954569816589355,"8":-1.7078781127929688,"9":-12.220891952514648,"10":12.241039276123047,"11":13.498533248901367,"12":-5.679263114929199,"13":-5.769209384918213}},"38":{"bias":-5.840866565704346,"weights":{"0":-1.677857518196106,"1":0.73011314868927,"2":-31.811609268188477,"3":-1.6456904411315918,"4":37.33442687988281,"5":6.961597442626953,"6":17.330638885498047,"7":-31.4566707611084,"8":3.735107660293579,"9":-13.68625545501709,"10":0.07526414841413498,"11":2.5221588611602783,"12":2.39644193649292,"13":0.8805027604103088}},"39":{"bias":-10.404925346374512,"weights":{"0":-0.3718198835849762,"1":9.049337387084961,"2":-18.21925926208496,"3":-23.840553283691406,"4":19.162076950073242,"5":-10.923035621643066,"6":-35.71506881713867,"7":14.118780136108398,"8":-7.239735126495361,"9":3.941927671432495,"10":18.23793601989746,"11":0.3131570816040039,"12":28.128318786621094,"13":-6.073015213012695}}},{"0":{"bias":2.1887598037719727,"weights":{"0":-14.400257110595703,"1":6.562984466552734,"2":2.8482625484466553,"3":-1.8145179748535156,"4":-8.081186294555664,"5":20.622602462768555,"6":0.8354873061180115,"7":0.6574298739433289,"8":1.1670666933059692,"9":4.577764511108398,"10":4.400471210479736,"11":10.647660255432129,"12":-3.8778433799743652,"13":-1.5603102445602417,"14":-13.393112182617188,"15":-11.528687477111816,"16":3.867377996444702,"17":3.8047680854797363,"18":-7.934676647186279,"19":-23.421833038330078,"20":-1.1042819023132324,"21":9.503692626953125,"22":2.893827199935913,"23":4.5957231521606445,"24":12.749329566955566,"25":-17.715410232543945,"26":0.6328679919242859,"27":-2.464270830154419,"28":-5.413243770599365,"29":-4.09005880355835,"30":-22.06111717224121,"31":-7.53406286239624,"32":-2.2719528675079346,"33":2.1146161556243896,"34":5.108887195587158,"35":8.407744407653809,"36":9.998104095458984,"37":13.40778636932373,"38":16.306941986083984,"39":-16.2746524810791}},"1":{"bias":-13.830547332763672,"weights":{"0":7.203286647796631,"1":4.080442905426025,"2":10.939626693725586,"3":-13.619029998779297,"4":-4.0768046379089355,"5":-5.244080543518066,"6":-6.0565361976623535,"7":2.223599910736084,"8":-7.469779968261719,"9":-18.548803329467773,"10":11.844552040100098,"11":-8.934489250183105,"12":-2.15468168258667,"13":-9.131891250610352,"14":-5.135608196258545,"15":-4.424062728881836,"16":-0.1826472133398056,"17":7.742526531219482,"18":-0.8163650035858154,"19":4.13227653503418,"20":-12.213949203491211,"21":5.590073585510254,"22":1.0265494585037231,"23":4.3492021560668945,"24":-14.707557678222656,"25":-1.163785457611084,"26":-12.559536933898926,"27":-0.08598804473876953,"28":0.40527331829071045,"29":7.594433784484863,"30":-5.271473407745361,"31":-3.308086633682251,"32":-12.512480735778809,"33":3.1449289321899414,"34":-8.945489883422852,"35":8.100981712341309,"36":0.02763528749346733,"37":3.047996759414673,"38":-19.549747467041016,"39":12.283881187438965}},"2":{"bias":-0.7857269644737244,"weights":{"0":-6.239007949829102,"1":-2.2717816829681396,"2":-4.694046974182129,"3":-2.6431527137756348,"4":-1.016235589981079,"5":4.097418308258057,"6":-2.6010279655456543,"7":-1.5327807664871216,"8":-12.214428901672363,"9":3.4063851833343506,"10":-3.625685930252075,"11":-6.275357246398926,"12":-0.5968687534332275,"13":-6.492652893066406,"14":-2.456965923309326,"15":4.562681674957275,"16":-0.23877505958080292,"17":-1.0655299425125122,"18":-4.111611366271973,"19":-15.343567848205566,"20":0.19337444007396698,"21":-2.2043046951293945,"22":4.650482177734375,"23":-16.891551971435547,"24":0.24381548166275024,"25":5.04822301864624,"26":-6.344308376312256,"27":-5.383365154266357,"28":-4.614249229431152,"29":-1.7427420616149902,"30":1.717307448387146,"31":8.342058181762695,"32":-10.966222763061523,"33":-1.036694884300232,"34":-4.375755310058594,"35":7.555148124694824,"36":-7.795693874359131,"37":-1.7290791273117065,"38":-1.5713101625442505,"39":7.720946311950684}},"3":{"bias":-0.4989054799079895,"weights":{"0":-0.01984570547938347,"1":3.092369794845581,"2":-4.347534656524658,"3":-6.606424331665039,"4":-4.538329124450684,"5":2.984989881515503,"6":1.8606626987457275,"7":-2.115424871444702,"8":-5.781188488006592,"9":6.363777160644531,"10":1.7883834838867188,"11":-0.39715176820755005,"12":2.08890700340271,"13":3.165372133255005,"14":0.08125397562980652,"15":9.485015869140625,"16":-3.882786273956299,"17":-5.846096038818359,"18":-9.064702987670898,"19":-4.642373561859131,"20":8.49975872039795,"21":-4.612550258636475,"22":-7.60316801071167,"23":-13.769908905029297,"24":-9.337556838989258,"25":9.306178092956543,"26":-3.4806435108184814,"27":-1.6309959888458252,"28":10.368749618530273,"29":-6.269057273864746,"30":-4.597443103790283,"31":-13.011960983276367,"32":-5.133557319641113,"33":-4.345736980438232,"34":12.10166072845459,"35":-6.953411102294922,"36":-3.253497362136841,"37":5.663901329040527,"38":-0.053788844496011734,"39":-1.4211825132369995}},"4":{"bias":-22.243440628051758,"weights":{"0":12.452679634094238,"1":0.3166735768318176,"2":2.642601728439331,"3":-9.594538688659668,"4":3.2066855430603027,"5":-1.3965429067611694,"6":-20.039669036865234,"7":-2.9934451580047607,"8":-0.8771752715110779,"9":-4.473708629608154,"10":-13.135557174682617,"11":-6.714186668395996,"12":15.012105941772461,"13":0.2694964110851288,"14":-7.803985595703125,"15":-5.82946252822876,"16":3.174175977706909,"17":-0.742116391658783,"18":8.623167037963867,"19":4.862819671630859,"20":-6.111423492431641,"21":-1.4692445993423462,"22":8.97596263885498,"23":-1.0599716901779175,"24":-6.453734397888184,"25":2.629887819290161,"26":-11.057576179504395,"27":12.288725852966309,"28":2.931197166442871,"29":2.6168246269226074,"30":-3.226374626159668,"31":10.460674285888672,"32":-17.777244567871094,"33":-6.4095988273620605,"34":-1.7771035432815552,"35":-0.5575886368751526,"36":-11.219151496887207,"37":-6.897891998291016,"38":-7.7226104736328125,"39":-12.348138809204102}},"5":{"bias":-20.05103302001953,"weights":{"0":2.4030332565307617,"1":1.6270699501037598,"2":16.333301544189453,"3":-15.014999389648438,"4":0.28558671474456787,"5":-13.50259780883789,"6":-3.0735890865325928,"7":13.00376033782959,"8":-0.9362353682518005,"9":-9.04205322265625,"10":-11.475801467895508,"11":-13.524782180786133,"12":4.955745220184326,"13":6.322254180908203,"14":-6.488804340362549,"15":-14.280926704406738,"16":-0.8321805596351624,"17":-20.890758514404297,"18":-21.01642608642578,"19":-4.793760776519775,"20":-5.8630266189575195,"21":-0.14028064906597137,"22":-4.393991470336914,"23":3.7188358306884766,"24":10.204641342163086,"25":15.339286804199219,"26":-13.94951343536377,"27":-12.663131713867188,"28":14.765006065368652,"29":-5.725532054901123,"30":9.760696411132812,"31":15.797527313232422,"32":-4.185441017150879,"33":2.7627718448638916,"34":-30.342050552368164,"35":14.162818908691406,"36":-9.798118591308594,"37":7.408137798309326,"38":3.6717469692230225,"39":0.49921587109565735}},"6":{"bias":-12.311149597167969,"weights":{"0":-12.457122802734375,"1":-4.758172988891602,"2":-3.895932912826538,"3":-8.041482925415039,"4":10.077878952026367,"5":-3.5116846561431885,"6":-14.681866645812988,"7":1.6169296503067017,"8":2.436532497406006,"9":-18.857877731323242,"10":-9.150156021118164,"11":-5.363413333892822,"12":11.875353813171387,"13":6.6464972496032715,"14":0.1622999906539917,"15":14.542949676513672,"16":3.7206664085388184,"17":-11.154021263122559,"18":8.230916976928711,"19":-3.97833251953125,"20":2.9022345542907715,"21":-7.604463577270508,"22":-3.0818052291870117,"23":-4.199051380157471,"24":-21.316905975341797,"25":-16.75862693786621,"26":-12.13098430633545,"27":10.826151847839355,"28":7.986123085021973,"29":-4.957016944885254,"30":15.341663360595703,"31":-15.208858489990234,"32":-4.111232757568359,"33":-6.8877739906311035,"34":5.701961517333984,"35":3.1581778526306152,"36":-13.033824920654297,"37":-11.231621742248535,"38":-0.3017330467700958,"39":-6.897599220275879}},"7":{"bias":-21.084753036499023,"weights":{"0":-8.437031745910645,"1":-2.2779934406280518,"2":-8.08838939666748,"3":6.44637393951416,"4":2.2439358234405518,"5":-13.046436309814453,"6":3.877408266067505,"7":-2.006376266479492,"8":20.432104110717773,"9":-3.813974142074585,"10":-3.007178783416748,"11":-0.21344269812107086,"12":-11.006553649902344,"13":2.485358953475952,"14":1.5976961851119995,"15":0.5438858866691589,"16":-9.356208801269531,"17":4.6851325035095215,"18":5.97378396987915,"19":7.195241451263428,"20":-10.230541229248047,"21":9.586678504943848,"22":6.570499897003174,"23":-7.684915065765381,"24":3.2966058254241943,"25":-1.8755652904510498,"26":-4.466980457305908,"27":11.900945663452148,"28":7.943237781524658,"29":-5.583372116088867,"30":-0.3518475592136383,"31":-1.1670126914978027,"32":-19.614328384399414,"33":-0.3451955318450928,"34":-6.177845001220703,"35":-5.0766825675964355,"36":0.17212329804897308,"37":-0.642501711845398,"38":-9.73098087310791,"39":1.303184151649475}},"8":{"bias":-15.7955904006958,"weights":{"0":6.662402629852295,"1":1.2395581007003784,"2":-17.440147399902344,"3":0.8365430235862732,"4":-1.0973399877548218,"5":-21.199737548828125,"6":19.34963035583496,"7":0.3477575182914734,"8":-5.067837715148926,"9":0.3632879853248596,"10":6.47132682800293,"11":6.909773826599121,"12":-18.49143409729004,"13":0.6561478972434998,"14":12.217713356018066,"15":-6.485543727874756,"16":0.7513303756713867,"17":-11.524775505065918,"18":-4.7124857902526855,"19":17.92711639404297,"20":-6.646285057067871,"21":11.706671714782715,"22":3.5281405448913574,"23":-3.291025400161743,"24":-7.123465538024902,"25":24.4129638671875,"26":6.125162601470947,"27":-7.739645004272461,"28":2.736039161682129,"29":4.7850518226623535,"30":-6.488855838775635,"31":0.35217952728271484,"32":-24.624130249023438,"33":8.727340698242188,"34":5.55001974105835,"35":-5.572911262512207,"36":-0.6715344190597534,"37":3.5745749473571777,"38":-14.833481788635254,"39":-8.114496231079102}},"9":{"bias":-15.532710075378418,"weights":{"0":-18.131189346313477,"1":-0.719303548336029,"2":21.918169021606445,"3":-5.011587619781494,"4":4.562576770782471,"5":-10.56635856628418,"6":-4.559556484222412,"7":-8.308626174926758,"8":0.17329354584217072,"9":-5.7057600021362305,"10":-16.215225219726562,"11":-8.714851379394531,"12":-24.90668487548828,"13":4.643363952636719,"14":5.319167137145996,"15":-0.6621592044830322,"16":-4.444976806640625,"17":-15.1312837600708,"18":3.0152101516723633,"19":-18.2611083984375,"20":-3.2788658142089844,"21":-13.198840141296387,"22":2.032832145690918,"23":-1.973132610321045,"24":2.4475183486938477,"25":1.8542922735214233,"26":-15.501533508300781,"27":-16.54083251953125,"28":-1.6545346975326538,"29":-12.862069129943848,"30":8.490854263305664,"31":6.533987045288086,"32":-12.291287422180176,"33":-1.3384793996810913,"34":7.468060493469238,"35":13.289085388183594,"36":0.422015905380249,"37":7.924063205718994,"38":8.5271577835083,"39":-9.59811019897461}},"10":{"bias":-2.7712793350219727,"weights":{"0":3.7742743492126465,"1":-1.2486977577209473,"2":2.3725948333740234,"3":3.520991802215576,"4":5.026057243347168,"5":4.628269195556641,"6":2.832725763320923,"7":2.232994318008423,"8":-13.57003402709961,"9":2.357668161392212,"10":-1.9342821836471558,"11":-5.112151622772217,"12":4.77208137512207,"13":1.4812040328979492,"14":-17.993974685668945,"15":-10.74965763092041,"16":-5.608870029449463,"17":-3.121957540512085,"18":-10.590453147888184,"19":-18.197654724121094,"20":3.7618308067321777,"21":-5.483217716217041,"22":4.633396148681641,"23":-1.278433918952942,"24":0.8927180171012878,"25":-0.3429054617881775,"26":0.5339143872261047,"27":-9.981376647949219,"28":-5.695871353149414,"29":-12.408306121826172,"30":2.045677661895752,"31":7.667683124542236,"32":-5.8587141036987305,"33":3.645404815673828,"34":-11.43336296081543,"35":11.828280448913574,"36":-4.389476299285889,"37":-2.6591813564300537,"38":10.130329132080078,"39":8.000214576721191}},"11":{"bias":-7.581369400024414,"weights":{"0":1.0462924242019653,"1":-3.837622880935669,"2":4.062440395355225,"3":-0.517428994178772,"4":5.427603244781494,"5":-2.5815813541412354,"6":-8.03236198425293,"7":-3.181544780731201,"8":-0.5474880337715149,"9":-11.02134895324707,"10":0.2896030843257904,"11":3.1315505504608154,"12":-2.9805736541748047,"13":13.280729293823242,"14":1.9367784261703491,"15":-23.383272171020508,"16":-1.7720659971237183,"17":2.4233295917510986,"18":-3.7786781787872314,"19":6.073709011077881,"20":0.09263789653778076,"21":5.1310715675354,"22":-4.652438640594482,"23":3.0133683681488037,"24":-7.077000141143799,"25":-17.582828521728516,"26":3.697190999984741,"27":4.283283233642578,"28":-16.109193801879883,"29":-8.701030731201172,"30":9.119231224060059,"31":-8.647907257080078,"32":-6.394428253173828,"33":2.6099236011505127,"34":-13.08630084991455,"35":-4.141594886779785,"36":-6.664438724517822,"37":-2.0165295600891113,"38":-3.2682693004608154,"39":-7.574531078338623}},"12":{"bias":-9.718073844909668,"weights":{"0":-11.506193161010742,"1":-0.9096539616584778,"2":-2.918200969696045,"3":-10.766576766967773,"4":-9.403940200805664,"5":-7.083345890045166,"6":-8.622492790222168,"7":2.2954580783843994,"8":2.3743414878845215,"9":3.3981752395629883,"10":1.8125189542770386,"11":-5.412500858306885,"12":14.181806564331055,"13":-11.856247901916504,"14":3.8987886905670166,"15":2.3822755813598633,"16":-4.11338472366333,"17":-4.668238162994385,"18":10.774270057678223,"19":-24.178211212158203,"20":4.85330057144165,"21":-6.920279026031494,"22":-2.2779083251953125,"23":-4.303210735321045,"24":-2.5751585960388184,"25":-3.897080659866333,"26":-6.808502197265625,"27":-13.552641868591309,"28":-9.1174898147583,"29":6.797299385070801,"30":13.907869338989258,"31":-3.277463912963867,"32":3.0033106803894043,"33":6.346255779266357,"34":-12.690357208251953,"35":3.7205448150634766,"36":-8.369108200073242,"37":7.675081729888916,"38":-0.8857919573783875,"39":10.3538236618042}},"13":{"bias":3.0374906063079834,"weights":{"0":4.583352088928223,"1":-3.5801901817321777,"2":-6.855956554412842,"3":16.246477127075195,"4":1.370545506477356,"5":-9.558534622192383,"6":13.111658096313477,"7":-6.938583850860596,"8":2.5863399505615234,"9":5.86676025390625,"10":4.6885085105896,"11":5.200084209442139,"12":-1.5644409656524658,"13":-8.043813705444336,"14":-6.940390110015869,"15":-11.685821533203125,"16":5.094314098358154,"17":-6.576526641845703,"18":0.016242465004324913,"19":-6.05165958404541,"20":2.3397023677825928,"21":2.4266226291656494,"22":-9.853545188903809,"23":-1.381033182144165,"24":2.5067765712738037,"25":-3.560342311859131,"26":-12.061479568481445,"27":-4.672730445861816,"28":-13.043703079223633,"29":-5.595059871673584,"30":-20.841907501220703,"31":-6.344878196716309,"32":-6.6310553550720215,"33":-2.203237533569336,"34":-1.6401238441467285,"35":-7.129333972930908,"36":2.876901149749756,"37":19.66460609436035,"38":-9.31063461303711,"39":-2.636775016784668}},"14":{"bias":1.4904943704605103,"weights":{"0":9.23676586151123,"1":3.892486333847046,"2":-12.20106315612793,"3":-12.923269271850586,"4":-0.5186324119567871,"5":14.097182273864746,"6":9.695235252380371,"7":-2.812512159347534,"8":-6.57912540435791,"9":-10.55017375946045,"10":-4.393545150756836,"11":-11.722495079040527,"12":0.5281023383140564,"13":2.703479528427124,"14":-10.273158073425293,"15":8.40388011932373,"16":-2.0827245712280273,"17":-2.644756555557251,"18":-2.327678918838501,"19":-17.911109924316406,"20":-10.048742294311523,"21":2.706287384033203,"22":-6.874272346496582,"23":4.587638854980469,"24":1.4176106452941895,"25":-8.634500503540039,"26":2.8956170082092285,"27":-2.5393764972686768,"28":1.0075961351394653,"29":-3.649418354034424,"30":-9.587164878845215,"31":-0.7817516326904297,"32":4.140061378479004,"33":-3.0434720516204834,"34":-25.15504264831543,"35":-2.9201576709747314,"36":-0.8953016996383667,"37":-3.2676799297332764,"38":11.780768394470215,"39":2.347463846206665}},"15":{"bias":-19.56182098388672,"weights":{"0":2.4791829586029053,"1":-1.7031376361846924,"2":-6.408298492431641,"3":-3.385976552963257,"4":-3.713268280029297,"5":4.014095783233643,"6":14.066057205200195,"7":-1.805282473564148,"8":-3.029949426651001,"9":0.570830762386322,"10":3.9279468059539795,"11":-20.512521743774414,"12":-9.694596290588379,"13":-1.133676528930664,"14":-3.7064177989959717,"15":-13.371600151062012,"16":2.963473320007324,"17":-8.090899467468262,"18":-10.424298286437988,"19":8.869909286499023,"20":9.624677658081055,"21":-5.723668098449707,"22":5.245948314666748,"23":-0.4755895137786865,"24":-6.570781707763672,"25":-10.907011985778809,"26":-2.681225061416626,"27":2.222536563873291,"28":1.3035571575164795,"29":3.949183940887451,"30":0.921523928642273,"31":-1.7065753936767578,"32":-10.983562469482422,"33":8.154498100280762,"34":7.0468831062316895,"35":-10.153736114501953,"36":-1.5238759517669678,"37":-5.054518222808838,"38":2.745227813720703,"39":-7.035367012023926}},"16":{"bias":-18.64010238647461,"weights":{"0":3.0610039234161377,"1":-9.407228469848633,"2":-4.607398509979248,"3":3.1378419399261475,"4":-10.624147415161133,"5":5.05662202835083,"6":4.776280403137207,"7":12.7892484664917,"8":-11.424714088439941,"9":12.193385124206543,"10":-7.402180194854736,"11":3.5611612796783447,"12":-0.09542762488126755,"13":-3.9658849239349365,"14":-0.7901001572608948,"15":2.4784624576568604,"16":-3.7260003089904785,"17":2.0936191082000732,"18":-0.7085070610046387,"19":1.3836662769317627,"20":-5.146671772003174,"21":11.493733406066895,"22":-5.348237037658691,"23":1.8677669763565063,"24":1.6132532358169556,"25":8.690467834472656,"26":-12.944357872009277,"27":-0.46341127157211304,"28":-4.045145034790039,"29":-11.392616271972656,"30":9.153725624084473,"31":-3.8806324005126953,"32":-6.5660786628723145,"33":-9.241323471069336,"34":12.354373931884766,"35":-8.836190223693848,"36":9.487732887268066,"37":-3.4860246181488037,"38":-13.606853485107422,"39":-11.809535026550293}},"17":{"bias":-10.689396858215332,"weights":{"0":1.4610024690628052,"1":5.402369499206543,"2":-6.412808418273926,"3":-5.08172082901001,"4":9.852593421936035,"5":13.576333045959473,"6":6.184121608734131,"7":1.1920322179794312,"8":4.666165351867676,"9":10.47336483001709,"10":-3.144343614578247,"11":2.0877420902252197,"12":-2.5188138484954834,"13":3.7978992462158203,"14":13.834052085876465,"15":-3.2823784351348877,"16":12.24733829498291,"17":-0.45191049575805664,"18":-1.773655891418457,"19":-2.3940322399139404,"20":-8.860671043395996,"21":0.2552666664123535,"22":-0.21928060054779053,"23":-2.666036367416382,"24":-1.0111151933670044,"25":11.588376998901367,"26":1.8292275667190552,"27":13.718467712402344,"28":5.881092548370361,"29":0.8489965200424194,"30":-30.692630767822266,"31":-3.4044954776763916,"32":-12.3911771774292,"33":-8.053750991821289,"34":-7.756050109863281,"35":-6.905872344970703,"36":-12.647953033447266,"37":-2.4358155727386475,"38":-2.1161351203918457,"39":-12.818075180053711}},"18":{"bias":-16.19267463684082,"weights":{"0":8.631429672241211,"1":-1.0968027114868164,"2":-13.014432907104492,"3":19.125343322753906,"4":-0.7314068078994751,"5":11.230952262878418,"6":-15.827092170715332,"7":-3.619983434677124,"8":-9.751045227050781,"9":0.6622412800788879,"10":4.047572135925293,"11":9.440739631652832,"12":-4.21497106552124,"13":5.549702167510986,"14":9.143081665039062,"15":11.663769721984863,"16":-17.72467803955078,"17":-5.1769700050354,"18":-10.873412132263184,"19":28.39603042602539,"20":7.461495399475098,"21":-9.740203857421875,"22":3.323457717895508,"23":-0.8352541327476501,"24":-10.368034362792969,"25":2.2783310413360596,"26":-2.1949946880340576,"27":13.263792037963867,"28":-6.652904510498047,"29":3.709764003753662,"30":-14.54222297668457,"31":-15.618937492370605,"32":15.537856101989746,"33":-0.13774314522743225,"34":13.123963356018066,"35":-0.4002697169780731,"36":4.397436141967773,"37":10.755560874938965,"38":9.883317947387695,"39":5.1969404220581055}},"19":{"bias":-12.217558860778809,"weights":{"0":17.18863868713379,"1":0.40052443742752075,"2":-1.6938526630401611,"3":-13.261137962341309,"4":-2.9923744201660156,"5":-0.005542214028537273,"6":-13.516010284423828,"7":1.631992220878601,"8":9.263020515441895,"9":2.0286412239074707,"10":-5.103854656219482,"11":-10.552441596984863,"12":5.534186363220215,"13":-13.654172897338867,"14":-0.3611937165260315,"15":-7.0192389488220215,"16":-1.9681980609893799,"17":-3.007535934448242,"18":-18.410158157348633,"19":-16.679462432861328,"20":1.6212166547775269,"21":3.438772678375244,"22":-5.993443012237549,"23":-10.216684341430664,"24":-2.359506130218506,"25":0.989215075969696,"26":15.965808868408203,"27":-1.5444310903549194,"28":10.915438652038574,"29":2.9212169647216797,"30":-7.367318630218506,"31":-0.9427506923675537,"32":0.027834441512823105,"33":-13.698907852172852,"34":-5.0963969230651855,"35":2.1917836666107178,"36":-13.577113151550293,"37":-4.01530122756958,"38":-4.880229473114014,"39":0.5340660214424133}}},{"0":{"bias":-15.159041404724121,"weights":{"0":12.848014831542969,"1":4.76531457901001,"2":18.075998306274414,"3":-8.078971862792969,"4":11.366783142089844,"5":12.185447692871094,"6":13.464264869689941,"7":17.18235969543457,"8":4.642597198486328,"9":5.377200126647949,"10":-9.473557472229004,"11":12.337770462036133,"12":18.500560760498047,"13":19.905290603637695,"14":18.29642677307129,"15":19.049659729003906,"16":11.000947952270508,"17":16.630205154418945,"18":10.896727561950684,"19":24.32134437561035}}}],"outputLookup":true,"inputLookup":true,"activation":"sigmoid","trainOpts":{"iterations":3000,"errorThresh":0.005,"log":true,"logPeriod":10,"learningRate":0.3,"momentum":0.1,"callbackPeriod":10,"beta1":0.9,"beta2":0.999,"epsilon":1e-8}}