{"sizes":[14,40,20,1],"layers":[{"0":{},"1":{},"2":{},"3":{},"4":{},"5":{},"6":{},"7":{},"8":{},"9":{},"10":{},"11":{},"12":{},"13":{}},{"0":{"bias":24.708633422851562,"weights":{"0":-17.99648094177246,"1":-29.422819137573242,"2":-21.492633819580078,"3":-15.480059623718262,"4":6.6037187576293945,"5":13.700908660888672,"6":-7.2879815101623535,"7":-2.1100220680236816,"8":-8.54733657836914,"9":7.823070526123047,"10":-5.3864288330078125,"11":-10.766637802124023,"12":19.720130920410156,"13":6.39208984375}},"1":{"bias":0.08549298346042633,"weights":{"0":-6.732698440551758,"1":-11.779926300048828,"2":-15.05948543548584,"3":19.403825759887695,"4":-1.3752244710922241,"5":-10.038993835449219,"6":17.453861236572266,"7":16.407140731811523,"8":-40.58604049682617,"9":-12.074061393737793,"10":22.864013671875,"11":6.368255615234375,"12":-28.817384719848633,"13":20.96866226196289}},"2":{"bias":-9.198282241821289,"weights":{"0":-7.213873386383057,"1":18.274965286254883,"2":6.441230297088623,"3":14.34679126739502,"4":7.305341720581055,"5":-12.485507011413574,"6":-12.199666023254395,"7":-0.18033084273338318,"8":8.280631065368652,"9":10.207964897155762,"10":-19.248302459716797,"11":-2.1269922256469727,"12":0.6694619059562683,"13":38.00600814819336}},"3":{"bias":-14.725747108459473,"weights":{"0":10.94481372833252,"1":1.293407678604126,"2":0.8578301668167114,"3":-10.041715621948242,"4":12.912863731384277,"5":24.290674209594727,"6":5.985572814941406,"7":-22.980602264404297,"8":6.562835693359375,"9":-24.88376235961914,"10":-14.358231544494629,"11":6.570428371429443,"12":-10.1069917678833,"13":19.06071662902832}},"4":{"bias":6.811861515045166,"weights":{"0":-19.973709106445312,"1":1.1302409172058105,"2":-10.441817283630371,"3":-5.206083297729492,"4":-5.2979960441589355,"5":-6.4065022468566895,"6":11.32812786102295,"7":-18.96298599243164,"8":16.455347061157227,"9":2.31768536567688,"10":-11.712088584899902,"11":-2.6272337436676025,"12":1.144263505935669,"13":-4.912748336791992}},"5":{"bias":8.435336112976074,"weights":{"0":-15.642241477966309,"1":-3.773061752319336,"2":-20.361865997314453,"3":5.278499603271484,"4":11.14905071258545,"5":-16.568639755249023,"6":17.5870418548584,"7":-13.007805824279785,"8":13.575483322143555,"9":-9.265076637268066,"10":4.268381595611572,"11":-5.337055206298828,"12":-6.334736347198486,"13":-11.30490779876709}},"6":{"bias":-8.769745826721191,"weights":{"0":-10.295294761657715,"1":-0.5156970024108887,"2":2.112466335296631,"3":-27.282886505126953,"4":12.580918312072754,"5":-2.204333782196045,"6":-37.507240295410156,"7":25.09380531311035,"8":21.520849227905273,"9":-6.519291877746582,"10":22.549083709716797,"11":-4.3734049797058105,"12":-12.91100025177002,"13":-1.0059220790863037}},"7":{"bias":-15.929350852966309,"weights":{"0":1.2891082763671875,"1":2.756007194519043,"2":-13.924715995788574,"3":-18.17604637145996,"4":27.16995620727539,"5":-1.9780256748199463,"6":11.686098098754883,"7":3.810356378555298,"8":-24.38787269592285,"9":5.282298564910889,"10":8.49609088897705,"11":8.15424919128418,"12":-2.171086311340332,"13":15.909153938293457}},"8":{"bias":18.375823974609375,"weights":{"0":-11.295714378356934,"1":-12.15087604522705,"2":5.677876949310303,"3":-21.80463981628418,"4":-14.560835838317871,"5":-2.2860190868377686,"6":27.742977142333984,"7":-5.256175994873047,"8":-11.177355766296387,"9":-7.070465564727783,"10":-2.9028666019439697,"11":-5.20646858215332,"12":17.10045051574707,"13":-1.1650389432907104}},"9":{"bias":1.71168851852417,"weights":{"0":-3.5155766010284424,"1":14.976635932922363,"2":15.329902648925781,"3":-20.94394302368164,"4":-1.6046723127365112,"5":-7.9186835289001465,"6":-15.540470123291016,"7":10.983083724975586,"8":-24.105262756347656,"9":15.882366180419922,"10":-17.526840209960938,"11":-10.109301567077637,"12":-4.852568626403809,"13":-6.1788411140441895}},"10":{"bias":-17.788175582885742,"weights":{"0":-9.733110427856445,"1":-11.07112979888916,"2":-19.439258575439453,"3":-9.586413383483887,"4":12.276854515075684,"5":3.6103432178497314,"6":21.484819412231445,"7":-8.653189659118652,"8":14.024031639099121,"9":19.297576904296875,"10":20.238525390625,"11":22.286849975585938,"12":-35.949729919433594,"13":30.870990753173828}},"11":{"bias":12.117977142333984,"weights":{"0":0.11242541670799255,"1":-26.258922576904297,"2":-1.9514241218566895,"3":-8.137253761291504,"4":10.122727394104004,"5":-21.213077545166016,"6":10.475937843322754,"7":26.173507690429688,"8":-33.783851623535156,"9":-13.317739486694336,"10":24.983837127685547,"11":4.635763645172119,"12":-24.0645751953125,"13":20.747087478637695}},"12":{"bias":-33.82765579223633,"weights":{"0":12.61125373840332,"1":29.626245498657227,"2":7.1040120124816895,"3":7.526632785797119,"4":-48.9955940246582,"5":-8.666167259216309,"6":-1.4459214210510254,"7":3.8156578540802,"8":-4.455609321594238,"9":10.020240783691406,"10":-10.244902610778809,"11":12.557679176330566,"12":-26.187660217285156,"13":31.860450744628906}},"13":{"bias":-14.411495208740234,"weights":{"0":4.007361888885498,"1":-0.1886492371559143,"2":21.37932777404785,"3":6.132749080657959,"4":-17.0079288482666,"5":-0.7870287895202637,"6":-19.636375427246094,"7":35.683414459228516,"8":1.0699979066848755,"9":1.4106619358062744,"10":-9.551525115966797,"11":-18.4259090423584,"12":21.56816291809082,"13":-3.786100387573242}},"14":{"bias":-20.005338668823242,"weights":{"0":-4.789888858795166,"1":30.906354904174805,"2":-24.664466857910156,"3":5.603268146514893,"4":-0.5453185439109802,"5":-14.10591983795166,"6":-11.221823692321777,"7":22.622745513916016,"8":-4.853648662567139,"9":2.827096700668335,"10":10.808302879333496,"11":-14.195550918579102,"12":-31.080093383789062,"13":9.110715866088867}},"15":{"bias":-23.05509376525879,"weights":{"0":13.768325805664062,"1":2.945769786834717,"2":-20.7574405670166,"3":22.65740966796875,"4":11.165310859680176,"5":13.43265438079834,"6":-7.50396728515625,"7":-16.31322479248047,"8":6.773534774780273,"9":23.70138931274414,"10":-40.43388748168945,"11":-18.85215187072754,"12":24.73297691345215,"13":6.6032915115356445}},"16":{"bias":3.817127227783203,"weights":{"0":-4.305569648742676,"1":9.909615516662598,"2":6.882144451141357,"3":-20.60820770263672,"4":3.1792328357696533,"5":-17.134510040283203,"6":15.945805549621582,"7":-16.721878051757812,"8":3.0411930084228516,"9":4.612496852874756,"10":-21.865280151367188,"11":-27.15439224243164,"12":-5.20825719833374,"13":0.6194952130317688}},"17":{"bias":2.428994655609131,"weights":{"0":-9.317925453186035,"1":7.258505821228027,"2":-7.772433280944824,"3":44.629486083984375,"4":-30.420623779296875,"5":-15.223548889160156,"6":-5.017938137054443,"7":-4.216274261474609,"8":11.96524429321289,"9":-1.003315806388855,"10":-10.66776180267334,"11":-19.88994789123535,"12":20.627206802368164,"13":-33.458839416503906}},"18":{"bias":-2.4914557933807373,"weights":{"0":-24.59967041015625,"1":15.343297958374023,"2":-7.910787105560303,"3":24.607831954956055,"4":-14.243499755859375,"5":-7.90322208404541,"6":1.0012707710266113,"7":17.591218948364258,"8":4.495749473571777,"9":29.527374267578125,"10":-33.83193588256836,"11":-23.042091369628906,"12":-10.558072090148926,"13":-4.359426498413086}},"19":{"bias":-12.649025917053223,"weights":{"0":-8.611330032348633,"1":-1.6457982063293457,"2":-14.761289596557617,"3":26.775325775146484,"4":-8.455545425415039,"5":5.087879657745361,"6":-19.37763214111328,"7":-2.975090742111206,"8":-2.0424556732177734,"9":-1.913107991218567,"10":-10.394438743591309,"11":18.21799087524414,"12":-25.054895401000977,"13":27.422325134277344}},"20":{"bias":2.5272624492645264,"weights":{"0":-0.5320870876312256,"1":-10.850103378295898,"2":2.989558696746826,"3":-12.103083610534668,"4":6.703380584716797,"5":-10.075104713439941,"6":-9.014036178588867,"7":13.750862121582031,"8":18.2371826171875,"9":-20.697818756103516,"10":-7.352663993835449,"11":-1.8870224952697754,"12":25.18813705444336,"13":13.692381858825684}},"21":{"bias":13.090202331542969,"weights":{"0":-14.856710433959961,"1":-7.164257049560547,"2":18.821577072143555,"3":26.43292808532715,"4":-18.01008415222168,"5":-12.676119804382324,"6":34.68934631347656,"7":-20.388858795166016,"8":-28.286497116088867,"9":3.5375070571899414,"10":-25.981719970703125,"11":-2.581185817718506,"12":23.207073211669922,"13":-21.46194839477539}},"22":{"bias":12.072816848754883,"weights":{"0":-3.689087152481079,"1":-23.7406005859375,"2":-44.482852935791016,"3":2.9530043601989746,"4":-11.89382553100586,"5":15.80315113067627,"6":-29.967002868652344,"7":6.510772705078125,"8":12.72720718383789,"9":-8.52120590209961,"10":5.7976484298706055,"11":-6.933106899261475,"12":-10.018230438232422,"13":14.489819526672363}},"23":{"bias":3.7238776683807373,"weights":{"0":-6.1197733879089355,"1":-15.174901962280273,"2":16.423595428466797,"3":-10.92822265625,"4":1.443210482597351,"5":-2.603015661239624,"6":-16.46249771118164,"7":-13.829848289489746,"8":-11.132590293884277,"9":17.79473114013672,"10":-3.40585994720459,"11":2.186541795730591,"12":-8.820473670959473,"13":-15.676438331604004}},"24":{"bias":-13.557518005371094,"weights":{"0":2.4011871814727783,"1":25.421703338623047,"2":11.364325523376465,"3":-20.258947372436523,"4":17.158334732055664,"5":-26.626859664916992,"6":8.294157028198242,"7":-16.960330963134766,"8":-28.696046829223633,"9":21.20317268371582,"10":21.197240829467773,"11":7.251821994781494,"12":11.266120910644531,"13":18.918291091918945}},"25":{"bias":-3.339254140853882,"weights":{"0":-1.4872686862945557,"1":-8.29819107055664,"2":3.948821544647217,"3":-12.477131843566895,"4":11.717375755310059,"5":-15.80136775970459,"6":-13.754240036010742,"7":6.908481597900391,"8":10.735528945922852,"9":1.6729247570037842,"10":8.669612884521484,"11":2.044419050216675,"12":5.9795122146606445,"13":-0.9111190438270569}},"26":{"bias":-10.70355224609375,"weights":{"0":1.6501601934432983,"1":-6.656181335449219,"2":-3.1199734210968018,"3":6.849974155426025,"4":2.2236156463623047,"5":-8.990498542785645,"6":-25.650339126586914,"7":16.844005584716797,"8":-1.3800926208496094,"9":23.791316986083984,"10":-0.7965039014816284,"11":-0.09963076561689377,"12":-11.961514472961426,"13":33.07204055786133}},"27":{"bias":-1.9200636148452759,"weights":{"0":-25.005657196044922,"1":10.792586326599121,"2":-2.7071080207824707,"3":-23.213157653808594,"4":9.958398818969727,"5":0.8503754138946533,"6":-2.0409586429595947,"7":-13.370091438293457,"8":21.81940269470215,"9":4.2624287605285645,"10":5.026081085205078,"11":0.700543999671936,"12":-13.469985008239746,"13":37.330596923828125}},"28":{"bias":6.704411506652832,"weights":{"0":1.8540563583374023,"1":-14.128927230834961,"2":-5.255560398101807,"3":14.157537460327148,"4":-20.976642608642578,"5":2.869144916534424,"6":-14.753259658813477,"7":17.078006744384766,"8":-7.575294494628906,"9":-0.029593374580144882,"10":3.5498311519622803,"11":-8.917281150817871,"12":-22.058095932006836,"13":6.138885974884033}},"29":{"bias":5.411060333251953,"weights":{"0":7.135895252227783,"1":-31.12263298034668,"2":-14.115707397460938,"3":-6.540399074554443,"4":8.215409278869629,"5":-9.226335525512695,"6":-23.309810638427734,"7":12.555381774902344,"8":-11.850876808166504,"9":1.0261884927749634,"10":5.730246543884277,"11":-23.433286666870117,"12":-19.091533660888672,"13":-4.0112528800964355}},"30":{"bias":11.34122371673584,"weights":{"0":-8.61323356628418,"1":-5.26719331741333,"2":-1.2631518840789795,"3":-11.799863815307617,"4":-9.650263786315918,"5":51.3459587097168,"6":34.78403091430664,"7":18.7050838470459,"8":-28.715927124023438,"9":-28.44442367553711,"10":-2.5800576210021973,"11":-7.766467571258545,"12":-24.30614471435547,"13":19.60433578491211}},"31":{"bias":22.358814239501953,"weights":{"0":2.4857683181762695,"1":-16.4160099029541,"2":-13.496721267700195,"3":-0.4155242145061493,"4":-13.080517768859863,"5":-5.333149433135986,"6":2.2360332012176514,"7":-7.669556617736816,"8":-16.74906349182129,"9":4.684200286865234,"10":-7.7364277839660645,"11":-27.814252853393555,"12":-0.14022807776927948,"13":0.35670262575149536}},"32":{"bias":5.782453536987305,"weights":{"0":1.7224197387695312,"1":-9.385364532470703,"2":13.740633964538574,"3":10.147806167602539,"4":-2.880093812942505,"5":2.1723902225494385,"6":6.72970724105835,"7":-13.555561065673828,"8":-5.987361431121826,"9":-11.992643356323242,"10":-12.24913501739502,"11":6.173181056976318,"12":2.0831499099731445,"13":-8.0050687789917}},"33":{"bias":-10.180889129638672,"weights":{"0":-4.7689971923828125,"1":-7.311061382293701,"2":-1.3542706966400146,"3":15.646578788757324,"4":-9.735812187194824,"5":-6.575594425201416,"6":-8.358613014221191,"7":6.529178142547607,"8":14.94932746887207,"9":-10.660913467407227,"10":8.751768112182617,"11":18.075653076171875,"12":-8.300847053527832,"13":10.603826522827148}},"34":{"bias":2.1008009910583496,"weights":{"0":9.287590026855469,"1":-11.170708656311035,"2":11.610075950622559,"3":-21.50435447692871,"4":21.15579605102539,"5":-30.21638298034668,"6":-12.561795234680176,"7":-9.169933319091797,"8":30.921689987182617,"9":6.946003437042236,"10":-7.375880241394043,"11":-28.776100158691406,"12":7.348360538482666,"13":22.704269409179688}},"35":{"bias":-11.904214859008789,"weights":{"0":1.8850880861282349,"1":-1.6914132833480835,"2":-4.599689483642578,"3":3.8499345779418945,"4":1.0181341171264648,"5":-20.51654052734375,"6":-8.531699180603027,"7":-0.6849188208580017,"8":-5.524216175079346,"9":28.559995651245117,"10":9.33687973022461,"11":-17.084224700927734,"12":-0.7719103693962097,"13":-0.7150475382804871}},"36":{"bias":0.9171136617660522,"weights":{"0":-4.109769821166992,"1":4.889437198638916,"2":-0.2694442570209503,"3":-10.76305103302002,"4":3.963021993637085,"5":4.097774982452393,"6":-16.362289428710938,"7":5.774342060089111,"8":-3.806222915649414,"9":19.736055374145508,"10":-22.88361358642578,"11":-25.67698097229004,"12":-22.99884605407715,"13":12.90931510925293}},"37":{"bias":-3.030264139175415,"weights":{"0":10.984284400939941,"1":-10.000179290771484,"2":-20.80933380126953,"3":-1.454984188079834,"4":-29.01027488708496,"5":-2.7134392261505127,"6":25.843568801879883,"7":-0.08577613532543182,"8":19.374025344848633,"9":-9.363777160644531,"10":16.927160263061523,"11":-11.572396278381348,"12":-22.607006072998047,"13":26.189706802368164}},"38":{"bias":-16.162492752075195,"weights":{"0":3.275831699371338,"1":-15.286420822143555,"2":-7.857833385467529,"3":-10.128913879394531,"4":-41.70291519165039,"5":26.495357513427734,"6":27.875999450683594,"7":-9.409811973571777,"8":-2.0901951789855957,"9":18.050092697143555,"10":3.337317705154419,"11":14.908286094665527,"12":-22.508390426635742,"13":36.462039947509766}},"39":{"bias":1.2303576469421387,"weights":{"0":-4.73887825012207,"1":1.8542529344558716,"2":13.483275413513184,"3":-6.633645534515381,"4":-3.0917694568634033,"5":1.1007517576217651,"6":6.151989459991455,"7":-8.847762107849121,"8":6.052299976348877,"9":-22.69635009765625,"10":6.416162967681885,"11":-3.905109405517578,"12":24.48613739013672,"13":18.845577239990234}}},{"0":{"bias":-36.34247970581055,"weights":{"0":5.400386810302734,"1":-0.042304329574108124,"2":1.8533706665039062,"3":-5.822110652923584,"4":-9.10256290435791,"5":-6.034297943115234,"6":-4.490569114685059,"7":-4.062270164489746,"8":3.154999017715454,"9":-8.873936653137207,"10":4.0180864334106445,"11":-5.046383380889893,"12":18.448400497436523,"13":-10.725323677062988,"14":15.825230598449707,"15":4.759769439697266,"16":-11.939628601074219,"17":-22.121313095092773,"18":6.279697895050049,"19":-10.657203674316406,"20":0.15310657024383545,"21":16.645687103271484,"22":2.5306990146636963,"23":4.875246524810791,"24":9.514979362487793,"25":-3.199117660522461,"26":-3.4366798400878906,"27":-2.5808305740356445,"28":-1.9959521293640137,"29":-10.820650100708008,"30":7.864062309265137,"31":-0.8862410187721252,"32":-0.709719181060791,"33":-3.8368523120880127,"34":-4.234436988830566,"35":3.500058889389038,"36":-6.787491798400879,"37":3.053591012954712,"38":7.896628379821777,"39":-8.158432960510254}},"1":{"bias":-20.659645080566406,"weights":{"0":5.489967346191406,"1":2.917983055114746,"2":-16.790468215942383,"3":2.6230571269989014,"4":8.83134651184082,"5":18.39249038696289,"6":-0.5465490818023682,"7":-4.509331703186035,"8":-4.283912658691406,"9":6.841780662536621,"10":7.934135437011719,"11":-1.008407473564148,"12":-1.8589743375778198,"13":-0.7574455738067627,"14":-8.969686508178711,"15":-9.345013618469238,"16":-4.307124614715576,"17":-0.953352153301239,"18":1.5211701393127441,"19":-7.317770481109619,"20":-7.943823337554932,"21":-23.50905990600586,"22":0.26155346632003784,"23":-10.829421043395996,"24":-2.4740428924560547,"25":2.0482289791107178,"26":4.325168132781982,"27":7.725694179534912,"28":2.343233585357666,"29":-0.4470311105251312,"30":0.9211446642875671,"31":-5.2856035232543945,"32":-6.243775367736816,"33":4.175740718841553,"34":6.860520362854004,"35":-0.8049449920654297,"36":-4.8010172843933105,"37":-8.485907554626465,"38":11.201167106628418,"39":8.362284660339355}},"2":{"bias":-18.090688705444336,"weights":{"0":-14.166034698486328,"1":4.21649169921875,"2":-6.408039569854736,"3":-8.418140411376953,"4":0.39052656292915344,"5":-8.006608009338379,"6":-0.08015767484903336,"7":0.6738249659538269,"8":0.8408676385879517,"9":-1.4200106859207153,"10":16.618473052978516,"11":-7.940227508544922,"12":-6.9864726066589355,"13":-1.2168383598327637,"14":-2.343149423599243,"15":2.901625156402588,"16":6.894880294799805,"17":-0.39236053824424744,"18":3.4671671390533447,"19":-14.357681274414062,"20":-9.26835823059082,"21":9.41757869720459,"22":-5.525933742523193,"23":-10.65949821472168,"24":-1.7973960638046265,"25":4.315297603607178,"26":9.23787784576416,"27":1.4962176084518433,"28":-0.37618115544319153,"29":-1.580139398574829,"30":16.218425750732422,"31":-10.073415756225586,"32":-4.361331939697266,"33":0.8363129496574402,"34":2.4338433742523193,"35":-0.9975455403327942,"36":-6.065857887268066,"37":-20.87339973449707,"38":-10.299046516418457,"39":0.11184055358171463}},"3":{"bias":-8.693106651306152,"weights":{"0":-4.522552967071533,"1":7.141479969024658,"2":-4.070008754730225,"3":-0.3887330889701843,"4":4.369736194610596,"5":-7.250997543334961,"6":-7.119838237762451,"7":-6.804676055908203,"8":2.51139235496521,"9":-5.135004043579102,"10":0.9416271448135376,"11":-9.89341926574707,"12":-28.340797424316406,"13":-2.7545039653778076,"14":-1.724975824356079,"15":-5.281366348266602,"16":-3.5261566638946533,"17":-4.821556568145752,"18":4.166744709014893,"19":-2.792966604232788,"20":-1.414158821105957,"21":-17.012556076049805,"22":-9.79266357421875,"23":5.293075084686279,"24":1.8108233213424683,"25":0.15055306255817413,"26":1.5700490474700928,"27":-11.184568405151367,"28":-2.042055130004883,"29":17.67658042907715,"30":8.279045104980469,"31":-3.2700083255767822,"32":-0.039277881383895874,"33":-1.791928768157959,"34":2.5014026165008545,"35":-4.405920505523682,"36":-1.596803903579712,"37":-2.279008388519287,"38":6.30086612701416,"39":1.6860952377319336}},"4":{"bias":0.5296304821968079,"weights":{"0":3.2347517013549805,"1":-12.475981712341309,"2":1.163175106048584,"3":-25.28286361694336,"4":-0.15127027034759521,"5":-1.6160643100738525,"6":3.2366950511932373,"7":4.827952861785889,"8":3.6409053802490234,"9":-9.081727027893066,"10":-2.1321258544921875,"11":-2.9923319816589355,"12":-4.555739879608154,"13":-5.280374526977539,"14":-1.7347030639648438,"15":-13.370827674865723,"16":-1.7427223920822144,"17":0.9785559773445129,"18":14.988361358642578,"19":-9.686529159545898,"20":4.2717180252075195,"21":-10.913558006286621,"22":-13.437406539916992,"23":-4.831451892852783,"24":0.7725344300270081,"25":-7.412181377410889,"26":-9.224761009216309,"27":-10.169812202453613,"28":-0.7286984324455261,"29":5.290413856506348,"30":-2.1501832008361816,"31":-6.966665267944336,"32":6.901217937469482,"33":-3.314952850341797,"34":0.31970536708831787,"35":13.11121940612793,"36":2.888831615447998,"37":-10.155570030212402,"38":-26.169597625732422,"39":-4.746275901794434}},"5":{"bias":-13.038926124572754,"weights":{"0":0.03646009787917137,"1":-3.1142797470092773,"2":1.8882941007614136,"3":1.4009144306182861,"4":3.7141571044921875,"5":0.6595308184623718,"6":1.6066114902496338,"7":-11.09092903137207,"8":-3.6429331302642822,"9":-4.714956283569336,"10":-3.6642038822174072,"11":-0.21216309070587158,"12":-23.75164222717285,"13":-1.2542561292648315,"14":10.256919860839844,"15":-6.81461238861084,"16":19.724958419799805,"17":1.3501346111297607,"18":-15.696638107299805,"19":-18.35068702697754,"20":-3.967285633087158,"21":-13.420183181762695,"22":2.2427117824554443,"23":11.614416122436523,"24":-28.94988441467285,"25":-4.665424346923828,"26":-1.5140819549560547,"27":3.4435434341430664,"28":-7.673798561096191,"29":0.26079872250556946,"30":6.645503044128418,"31":5.206707000732422,"32":-4.15230655670166,"33":-4.310709476470947,"34":8.657075881958008,"35":-8.148283958435059,"36":1.893829107284546,"37":1.8892409801483154,"38":4.9568562507629395,"39":-7.26866340637207}},"6":{"bias":-19.916475296020508,"weights":{"0":7.438802719116211,"1":-8.7203369140625,"2":-6.972728729248047,"3":-2.0189990997314453,"4":-1.6379081010818481,"5":-3.4165828227996826,"6":-4.237774848937988,"7":-2.8660671710968018,"8":0.4003920257091522,"9":-1.8958148956298828,"10":2.623645544052124,"11":-18.685373306274414,"12":13.185046195983887,"13":10.369782447814941,"14":-2.4582080841064453,"15":-12.127739906311035,"16":1.7714428901672363,"17":15.476189613342285,"18":-2.327519655227661,"19":-8.575078964233398,"20":15.725752830505371,"21":-7.1417036056518555,"22":5.242353916168213,"23":-0.5028667449951172,"24":-10.51130199432373,"25":-2.9890499114990234,"26":-5.06096076965332,"27":3.6194546222686768,"28":7.149932384490967,"29":1.1481261253356934,"30":6.747578144073486,"31":2.6371824741363525,"32":3.8515641689300537,"33":-1.0451927185058594,"34":-15.999994277954102,"35":-7.071922779083252,"36":6.187558650970459,"37":-5.729506015777588,"38":-6.984883785247803,"39":1.2605656385421753}},"7":{"bias":-0.7835986018180847,"weights":{"0":0.19911114871501923,"1":-15.168707847595215,"2":8.057939529418945,"3":2.74471116065979,"4":-3.93705677986145,"5":-12.658363342285156,"6":-9.376335144042969,"7":-11.240469932556152,"8":6.4366068840026855,"9":-9.540434837341309,"10":-6.442436695098877,"11":-7.889825820922852,"12":9.773517608642578,"13":1.5715904235839844,"14":-21.856740951538086,"15":6.243503570556641,"16":0.8805851340293884,"17":-6.5728960037231445,"18":-10.227032661437988,"19":-4.616179943084717,"20":-9.157824516296387,"21":18.439207077026367,"22":-16.982030868530273,"23":-1.6371468305587769,"24":-5.18062686920166,"25":8.664015769958496,"26":-7.431305408477783,"27":16.056215286254883,"28":-12.040597915649414,"29":-0.5125020146369934,"30":-4.523360252380371,"31":-7.06146240234375,"32":4.512460231781006,"33":-9.123244285583496,"34":-11.530760765075684,"35":5.278524875640869,"36":1.542650818824768,"37":4.758866310119629,"38":-14.960329055786133,"39":3.537958860397339}},"8":{"bias":-12.349169731140137,"weights":{"0":-1.6292279958724976,"1":-21.500041961669922,"2":-2.4303948879241943,"3":-1.0255026817321777,"4":-1.9349982738494873,"5":6.019614219665527,"6":-6.726719856262207,"7":2.0969560146331787,"8":-15.525965690612793,"9":-11.055195808410645,"10":-13.597955703735352,"11":-5.095778942108154,"12":1.0782932043075562,"13":15.2700834274292,"14":2.3406641483306885,"15":6.50216817855835,"16":12.88602352142334,"17":-0.9105938076972961,"18":-0.44236791133880615,"19":14.618939399719238,"20":-7.854934215545654,"21":-16.687131881713867,"22":5.027834892272949,"23":-4.100308895111084,"24":11.516130447387695,"25":1.3288735151290894,"26":9.446903228759766,"27":1.564577579498291,"28":6.005630970001221,"29":-2.150304079055786,"30":-19.942922592163086,"31":-6.517940044403076,"32":-3.8649332523345947,"33":-3.6545324325561523,"34":-0.8959880471229553,"35":1.738498568534851,"36":-3.316450595855713,"37":3.2247798442840576,"38":-12.678047180175781,"39":4.083465576171875}},"9":{"bias":-6.440241813659668,"weights":{"0":-7.093338489532471,"1":0.8736144304275513,"2":4.009463310241699,"3":2.6162166595458984,"4":7.174062252044678,"5":0.21870769560337067,"6":-17.5693359375,"7":7.482519626617432,"8":-0.28955528140068054,"9":0.21957312524318695,"10":19.225086212158203,"11":-2.1810131072998047,"12":-15.938409805297852,"13":7.417421340942383,"14":-3.9833383560180664,"15":-3.7734408378601074,"16":-14.6748628616333,"17":0.2720942199230194,"18":0.9506908655166626,"19":-2.3407156467437744,"20":-6.684725761413574,"21":11.399101257324219,"22":-4.962652206420898,"23":-1.7743136882781982,"24":2.1584763526916504,"25":-3.100921392440796,"26":-5.188398838043213,"27":-0.589286208152771,"28":2.70790696144104,"29":-7.396650314331055,"30":-23.271608352661133,"31":8.839771270751953,"32":3.305604934692383,"33":3.518725872039795,"34":-20.1884765625,"35":-0.8460854291915894,"36":8.394078254699707,"37":-4.848530292510986,"38":-4.113741874694824,"39":-2.9562697410583496}},"10":{"bias":-28.6378116607666,"weights":{"0":-13.459213256835938,"1":-9.604981422424316,"2":-3.469007968902588,"3":-6.248447895050049,"4":-5.3748040199279785,"5":13.12297248840332,"6":14.410261154174805,"7":-0.04773174598813057,"8":-0.507194459438324,"9":-4.206876754760742,"10":-10.21005630493164,"11":-1.9398800134658813,"12":3.8459599018096924,"13":4.486202716827393,"14":5.706002235412598,"15":-4.012851715087891,"16":15.181836128234863,"17":16.643781661987305,"18":13.381511688232422,"19":-2.661632537841797,"20":-22.951526641845703,"21":-10.127911567687988,"22":7.439059734344482,"23":3.795203924179077,"24":17.848106384277344,"25":7.04325008392334,"26":-2.5129947662353516,"27":7.796949863433838,"28":7.947083950042725,"29":30.927534103393555,"30":-17.90891456604004,"31":2.928410768508911,"32":-7.402428150177002,"33":-7.652769088745117,"34":9.072775840759277,"35":5.204563140869141,"36":1.2162681818008423,"37":-0.4383399188518524,"38":-23.66008758544922,"39":-1.3746397495269775}},"11":{"bias":-18.534177780151367,"weights":{"0":-4.994386672973633,"1":2.8243937492370605,"2":-3.5736377239227295,"3":-7.408145904541016,"4":-1.4407875537872314,"5":2.567016363143921,"6":-2.6897456645965576,"7":-5.0306830406188965,"8":3.5602991580963135,"9":3.5332653522491455,"10":-22.337692260742188,"11":5.240089416503906,"12":3.0227274894714355,"13":4.563937187194824,"14":10.734292030334473,"15":-2.742385149002075,"16":-7.672208786010742,"17":-6.6873779296875,"18":-16.82913589477539,"19":-2.1594772338867188,"20":-4.1294121742248535,"21":15.148144721984863,"22":7.903623104095459,"23":-5.781571865081787,"24":9.327305793762207,"25":1.3908849954605103,"26":0.6343514919281006,"27":-12.582825660705566,"28":-3.429213285446167,"29":-6.946230411529541,"30":0.04831746965646744,"31":-0.35429614782333374,"32":-1.1229814291000366,"33":1.912157654762268,"34":-15.369878768920898,"35":2.111142873764038,"36":5.176507949829102,"37":-1.9519236087799072,"38":-26.23150062561035,"39":5.6166815757751465}},"12":{"bias":-10.882025718688965,"weights":{"0":-11.798839569091797,"1":-1.306339144706726,"2":7.5854926109313965,"3":8.866297721862793,"4":-0.0451333187520504,"5":-6.752183437347412,"6":1.654344916343689,"7":4.475577354431152,"8":-6.335352897644043,"9":-0.49664878845214844,"10":-2.2274208068847656,"11":12.9909086227417,"12":-3.051037073135376,"13":-0.6185616254806519,"14":-18.867570877075195,"15":-7.645300388336182,"16":4.489529132843018,"17":-2.550412893295288,"18":10.504953384399414,"19":7.0002241134643555,"20":-12.1664457321167,"21":-7.765984058380127,"22":-7.9471611976623535,"23":-15.970451354980469,"24":-0.07177552580833435,"25":-4.485728740692139,"26":10.944025039672852,"27":-18.27068519592285,"28":-4.948408126831055,"29":-0.07445882260799408,"30":-3.536281108856201,"31":0.5385068655014038,"32":10.881082534790039,"33":-1.6198558807373047,"34":-2.2083487510681152,"35":-9.568007469177246,"36":6.398223400115967,"37":-10.631523132324219,"38":18.215938568115234,"39":-1.1575961112976074}},"13":{"bias":-16.8576602935791,"weights":{"0":-2.614025115966797,"1":3.582437515258789,"2":-0.6981814503669739,"3":-1.944211721420288,"4":7.230461120605469,"5":-3.7414486408233643,"6":-10.724790573120117,"7":-5.601429462432861,"8":-15.405362129211426,"9":10.78847599029541,"10":13.141397476196289,"11":5.167741775512695,"12":-7.829238414764404,"13":-19.027626037597656,"14":5.4715986251831055,"15":-10.879314422607422,"16":-4.005859375,"17":4.298588752746582,"18":-0.6554884910583496,"19":-5.042109966278076,"20":5.180152416229248,"21":1.4389665126800537,"22":1.9279338121414185,"23":-0.15564829111099243,"24":-12.592473983764648,"25":3.845458984375,"26":-7.542757511138916,"27":-2.5788745880126953,"28":0.6289299726486206,"29":2.2144079208374023,"30":-19.999282836914062,"31":1.7102454900741577,"32":0.1302850991487503,"33":-2.590843915939331,"34":18.84009552001953,"35":-0.8454224467277527,"36":5.438350677490234,"37":-6.820933818817139,"38":-2.7961246967315674,"39":4.141730308532715}},"14":{"bias":6.711753845214844,"weights":{"0":-5.035820007324219,"1":1.5578587055206299,"2":2.1525936126708984,"3":4.502376556396484,"4":-6.404130458831787,"5":2.228227376937866,"6":-9.446703910827637,"7":-12.392274856567383,"8":-2.7553281784057617,"9":2.7025632858276367,"10":1.3009415864944458,"11":-4.696715831756592,"12":5.642533779144287,"13":-0.1626405417919159,"14":-2.489982843399048,"15":-13.995767593383789,"16":-9.559436798095703,"17":-7.6229424476623535,"18":10.455214500427246,"19":-12.808430671691895,"20":3.6629133224487305,"21":2.9230222702026367,"22":5.900572299957275,"23":-6.193810939788818,"24":-13.633365631103516,"25":-3.1376466751098633,"26":1.2586385011672974,"27":-2.3540091514587402,"28":-6.386600971221924,"29":-2.9373958110809326,"30":-16.08514976501465,"31":-3.4416871070861816,"32":-4.191290855407715,"33":-6.573607444763184,"34":-22.40647315979004,"35":-6.292278289794922,"36":2.2480926513671875,"37":4.919464588165283,"38":-5.206009864807129,"39":-1.7080994844436646}},"15":{"bias":-8.662944793701172,"weights":{"0":-8.004199028015137,"1":-3.1389946937561035,"2":-14.910564422607422,"3":14.536723136901855,"4":-7.375263214111328,"5":-1.901620626449585,"6":-3.9259192943573,"7":-11.755415916442871,"8":0.9624068140983582,"9":0.18980826437473297,"10":0.2817620038986206,"11":8.237692832946777,"12":-10.361376762390137,"13":-1.0722452402114868,"14":-2.846935749053955,"15":-1.5431064367294312,"16":-5.19578218460083,"17":-10.547771453857422,"18":-0.2308521717786789,"19":0.27532532811164856,"20":-3.9055564403533936,"21":-15.656038284301758,"22":-9.477897644042969,"23":7.506195068359375,"24":8.25002384185791,"25":5.7529616355896,"26":-8.115234375,"27":0.10332819074392319,"28":1.652360200881958,"29":-4.977412700653076,"30":-7.463513374328613,"31":-4.291381359100342,"32":8.634928703308105,"33":-1.1156120300292969,"34":-9.1799898147583,"35":-1.8650435209274292,"36":10.191657066345215,"37":7.763246059417725,"38":-5.880901336669922,"39":-19.86301612854004}},"16":{"bias":-6.63430118560791,"weights":{"0":2.8063995838165283,"1":-13.487475395202637,"2":-7.206038951873779,"3":0.24193719029426575,"4":-7.495419025421143,"5":-4.591691970825195,"6":-1.134381890296936,"7":10.390206336975098,"8":3.664085865020752,"9":9.940422058105469,"10":-21.966819763183594,"11":-15.263909339904785,"12":-9.019293785095215,"13":5.225619316101074,"14":-6.7210822105407715,"15":9.143538475036621,"16":-1.4250082969665527,"17":-16.344560623168945,"18":-6.147829055786133,"19":-1.1777734756469727,"20":3.026153564453125,"21":15.611538887023926,"22":-4.29546594619751,"23":0.17334966361522675,"24":-9.439190864562988,"25":-7.9188551902771,"26":1.4268561601638794,"27":-8.765466690063477,"28":-0.39100000262260437,"29":-6.84470796585083,"30":3.1823723316192627,"31":1.425182819366455,"32":-5.356203079223633,"33":-1.9719481468200684,"34":0.7188670635223389,"35":5.671180248260498,"36":-13.536697387695312,"37":7.305828094482422,"38":-0.3660995066165924,"39":-1.19204580783844}},"17":{"bias":-0.4216030538082123,"weights":{"0":8.835803985595703,"1":5.191736221313477,"2":1.4132230281829834,"3":-27.514253616333008,"4":-7.476637840270996,"5":-13.339863777160645,"6":16.408798217773438,"7":-3.6867172718048096,"8":11.102117538452148,"9":4.321489334106445,"10":-15.661589622497559,"11":-5.736974716186523,"12":-1.6374483108520508,"13":-15.97386360168457,"14":2.2541677951812744,"15":-7.0371503829956055,"16":-4.799732208251953,"17":-9.893500328063965,"18":-27.557767868041992,"19":15.745186805725098,"20":8.736104011535645,"21":-18.810646057128906,"22":12.409119606018066,"23":4.546597957611084,"24":1.8869434595108032,"25":-1.078908920288086,"26":-0.8221258521080017,"27":-3.258012056350708,"28":-6.0488104820251465,"29":-8.291364669799805,"30":-2.009941816329956,"31":-4.8917622566223145,"32":-18.13873291015625,"33":3.401355266571045,"34":-13.806473731994629,"35":9.802193641662598,"36":-7.914461135864258,"37":2.1609790325164795,"38":13.492746353149414,"39":-0.15107561647891998}},"18":{"bias":-21.459348678588867,"weights":{"0":5.7466888427734375,"1":-0.6462818384170532,"2":7.660424709320068,"3":4.786468982696533,"4":-3.8591954708099365,"5":-6.085535049438477,"6":-14.10419750213623,"7":17.99095344543457,"8":-11.812399864196777,"9":-1.224199891090393,"10":-19.127893447875977,"11":-5.252896785736084,"12":-16.274171829223633,"13":-21.126432418823242,"14":2.5066680908203125,"15":2.2862801551818848,"16":-10.502224922180176,"17":-2.8575572967529297,"18":1.569230079650879,"19":9.303105354309082,"20":-11.429173469543457,"21":-2.098381519317627,"22":3.473360300064087,"23":-0.3963082432746887,"24":7.390146255493164,"25":-1.0603299140930176,"26":-11.858057975769043,"27":-0.3930726945400238,"28":2.831076145172119,"29":1.3089473247528076,"30":21.970842361450195,"31":3.4356191158294678,"32":2.679403781890869,"33":-9.394055366516113,"34":-4.839401721954346,"35":-8.112004280090332,"36":4.154452800750732,"37":-9.032431602478027,"38":-5.060461521148682,"39":9.146679878234863}},"19":{"bias":-28.2531681060791,"weights":{"0":-7.307667255401611,"1":-3.5689234733581543,"2":-1.2235465049743652,"3":-0.7946589589118958,"4":11.863903999328613,"5":4.774625778198242,"6":-1.564163327217102,"7":-0.6529603004455566,"8":4.081337928771973,"9":-6.871957778930664,"10":-4.071793079376221,"11":17.536991119384766,"12":4.944374084472656,"13":1.8656823635101318,"14":-0.648449182510376,"15":-16.12496566772461,"16":8.981969833374023,"17":17.227371215820312,"18":-1.9761180877685547,"19":-10.279939651489258,"20":-6.37816858291626,"21":14.560904502868652,"22":4.650108814239502,"23":4.211532115936279,"24":-1.7293723821640015,"25":-2.0127153396606445,"26":1.959336280822754,"27":-8.320059776306152,"28":-1.6441539525985718,"29":0.09557025134563446,"30":-5.050309181213379,"31":-2.409910202026367,"32":-4.797590732574463,"33":-3.1226611137390137,"34":-6.086347579956055,"35":-7.064589023590088,"36":-1.6823798418045044,"37":1.052474021911621,"38":10.754809379577637,"39":2.457160472869873}}},{"0":{"bias":-12.780143737792969,"weights":{"0":9.86451244354248,"1":9.377567291259766,"2":9.500456809997559,"3":14.825691223144531,"4":13.005370140075684,"5":20.783876419067383,"6":15.56758975982666,"7":6.701184272766113,"8":19.00040054321289,"9":7.965309143066406,"10":11.707951545715332,"11":17.593263626098633,"12":8.093231201171875,"13":17.63413429260254,"14":15.652928352355957,"15":14.008536338806152,"16":18.277080535888672,"17":10.086520195007324,"18":8.048663139343262,"19":17.599811553955078}}}],"outputLookup":true,"inputLookup":true,"activation":"sigmoid","trainOpts":{"iterations":3000,"errorThresh":0.005,"log":true,"logPeriod":10,"learningRate":0.3,"momentum":0.1,"callbackPeriod":10,"beta1":0.9,"beta2":0.999,"epsilon":1e-8}}