{"sizes":[14,40,20,1],"layers":[{"0":{},"1":{},"2":{},"3":{},"4":{},"5":{},"6":{},"7":{},"8":{},"9":{},"10":{},"11":{},"12":{},"13":{}},{"0":{"bias":-23.038616180419922,"weights":{"0":-1.2861357927322388,"1":-7.719285488128662,"2":4.920231342315674,"3":23.904939651489258,"4":-8.611812591552734,"5":-17.98973846435547,"6":29.14745330810547,"7":-14.371641159057617,"8":5.783037185668945,"9":14.66147518157959,"10":27.729984283447266,"11":23.238149642944336,"12":6.521435737609863,"13":-10.885844230651855}},"1":{"bias":0.6739085912704468,"weights":{"0":-6.382259845733643,"1":13.930877685546875,"2":-12.943668365478516,"3":12.22205924987793,"4":1.9784119129180908,"5":-5.230682373046875,"6":10.064407348632812,"7":-6.018808364868164,"8":-21.657018661499023,"9":15.194132804870605,"10":-14.337167739868164,"11":-22.185794830322266,"12":-25.994701385498047,"13":15.39925479888916}},"2":{"bias":6.887162208557129,"weights":{"0":-24.718801498413086,"1":1.43231999874115,"2":-10.004103660583496,"3":-20.00141143798828,"4":-24.155298233032227,"5":9.86767864227295,"6":16.547813415527344,"7":19.453357696533203,"8":-2.603281259536743,"9":-14.823219299316406,"10":13.80305004119873,"11":4.0647783279418945,"12":2.098729372024536,"13":2.9999027252197266}},"3":{"bias":22.460742950439453,"weights":{"0":-11.524270057678223,"1":-12.072320938110352,"2":12.485443115234375,"3":-32.6916389465332,"4":6.839565753936768,"5":-7.640412330627441,"6":5.110230922698975,"7":8.811938285827637,"8":-6.084589004516602,"9":-2.8912413120269775,"10":5.328451156616211,"11":-21.256982803344727,"12":-7.449351787567139,"13":-2.258329153060913}},"4":{"bias":3.1747663021087646,"weights":{"0":-7.7950119972229,"1":-1.1835801601409912,"2":10.98169994354248,"3":-11.1691312789917,"4":-17.601728439331055,"5":8.701488494873047,"6":-16.18817138671875,"7":24.38751983642578,"8":-21.78651237487793,"9":-16.85526466369629,"10":-4.0526018142700195,"11":0.5160549879074097,"12":8.672686576843262,"13":2.2708027362823486}},"5":{"bias":0.6545280814170837,"weights":{"0":-23.592700958251953,"1":-10.296914100646973,"2":-22.39961814880371,"3":22.994735717773438,"4":11.140116691589355,"5":-3.0833444595336914,"6":3.7029314041137695,"7":-5.904662132263184,"8":-6.125881195068359,"9":-32.21523666381836,"10":8.117481231689453,"11":39.9188346862793,"12":24.916078567504883,"13":11.815176010131836}},"6":{"bias":0.2449587881565094,"weights":{"0":-16.475341796875,"1":-2.427072525024414,"2":-3.3273561000823975,"3":-21.38167953491211,"4":7.479755401611328,"5":12.257216453552246,"6":14.744807243347168,"7":-1.8695251941680908,"8":-5.8274993896484375,"9":-3.563382387161255,"10":4.0671186447143555,"11":11.596685409545898,"12":-7.316477298736572,"13":3.4406943321228027}},"7":{"bias":13.519817352294922,"weights":{"0":-19.372568130493164,"1":-18.382781982421875,"2":-27.149662017822266,"3":-19.60793113708496,"4":0.8954706192016602,"5":-10.0802640914917,"6":-28.081016540527344,"7":1.2686874866485596,"8":6.090998649597168,"9":40.645408630371094,"10":47.34187698364258,"11":15.307931900024414,"12":-1.8891340494155884,"13":-2.295396327972412}},"8":{"bias":2.443925380706787,"weights":{"0":20.624753952026367,"1":-3.5173087120056152,"2":-28.8945369720459,"3":-14.838804244995117,"4":-1.5080708265304565,"5":22.967926025390625,"6":-22.7100772857666,"7":15.049808502197266,"8":-8.972742080688477,"9":14.003002166748047,"10":-14.35783863067627,"11":4.412628650665283,"12":-7.635145664215088,"13":8.230904579162598}},"9":{"bias":-11.125243186950684,"weights":{"0":-7.709208965301514,"1":7.307311534881592,"2":12.418580055236816,"3":8.93358039855957,"4":5.157098293304443,"5":-3.6174657344818115,"6":14.305327415466309,"7":-20.022546768188477,"8":0.7369877099990845,"9":3.417001962661743,"10":4.355418682098389,"11":7.617067813873291,"12":-0.8521884679794312,"13":-24.58281135559082}},"10":{"bias":-13.53823471069336,"weights":{"0":15.366646766662598,"1":-17.100074768066406,"2":26.07448387145996,"3":-6.011261463165283,"4":12.351337432861328,"5":17.87746238708496,"6":5.63292932510376,"7":-25.500202178955078,"8":0.46524757146835327,"9":-24.965087890625,"10":7.444283485412598,"11":5.830067157745361,"12":-24.347551345825195,"13":-24.50712013244629}},"11":{"bias":-5.813165187835693,"weights":{"0":-16.93035888671875,"1":6.381405353546143,"2":3.6378982067108154,"3":25.414287567138672,"4":2.2096617221832275,"5":-6.469493865966797,"6":-0.48038700222969055,"7":9.817035675048828,"8":-12.821094512939453,"9":10.795309066772461,"10":-7.814978122711182,"11":13.18747615814209,"12":-22.064207077026367,"13":14.683764457702637}},"12":{"bias":-6.555748462677002,"weights":{"0":-0.23826630413532257,"1":5.032719135284424,"2":-53.8560791015625,"3":-16.256011962890625,"4":11.719545364379883,"5":12.367859840393066,"6":19.855506896972656,"7":1.9348574876785278,"8":-23.759096145629883,"9":11.886857032775879,"10":-0.4649565517902374,"11":-22.934911727905273,"12":6.7374348640441895,"13":-7.199769973754883}},"13":{"bias":-1.944480299949646,"weights":{"0":-4.201849460601807,"1":-14.337066650390625,"2":-17.583744049072266,"3":15.546428680419922,"4":-15.21417236328125,"5":22.26332664489746,"6":-2.9410643577575684,"7":1.9548627138137817,"8":0.1549958884716034,"9":-1.2204780578613281,"10":6.167299270629883,"11":-1.4376572370529175,"12":-14.226482391357422,"13":-8.463591575622559}},"14":{"bias":-21.617511749267578,"weights":{"0":-6.417016506195068,"1":0.3534160256385803,"2":-8.402953147888184,"3":-6.833165645599365,"4":15.198369026184082,"5":-0.12832094728946686,"6":-26.48335075378418,"7":8.255095481872559,"8":-7.938816070556641,"9":40.73699188232422,"10":1.0977345705032349,"11":-8.788483619689941,"12":28.707902908325195,"13":-0.789233386516571}},"15":{"bias":-12.564318656921387,"weights":{"0":-11.613513946533203,"1":8.231738090515137,"2":-12.601024627685547,"3":24.88013458251953,"4":11.529025077819824,"5":-22.068845748901367,"6":26.098501205444336,"7":-13.191864967346191,"8":8.670256614685059,"9":-7.304737091064453,"10":4.542708396911621,"11":9.804092407226562,"12":-13.766639709472656,"13":-27.717641830444336}},"16":{"bias":3.1215627193450928,"weights":{"0":11.942781448364258,"1":-24.2745304107666,"2":26.73703956604004,"3":6.965664863586426,"4":-8.151891708374023,"5":1.7498397827148438,"6":5.688121795654297,"7":-19.10918426513672,"8":-12.3632230758667,"9":8.28304386138916,"10":-12.161552429199219,"11":1.1084476709365845,"12":-11.74047565460205,"13":-20.028125762939453}},"17":{"bias":2.80499005317688,"weights":{"0":-6.437061309814453,"1":-14.329522132873535,"2":2.879932403564453,"3":11.806618690490723,"4":-4.39864444732666,"5":21.776676177978516,"6":32.57644271850586,"7":-23.902681350708008,"8":-7.972366809844971,"9":-18.543514251708984,"10":10.50660514831543,"11":8.830512046813965,"12":-27.223392486572266,"13":-5.153115749359131}},"18":{"bias":-30.604602813720703,"weights":{"0":1.7789909839630127,"1":13.165237426757812,"2":12.445266723632812,"3":22.51555633544922,"4":-13.96237564086914,"5":5.560387134552002,"6":17.81608009338379,"7":-25.64434051513672,"8":-0.7598707675933838,"9":16.992271423339844,"10":5.9648332595825195,"11":-14.834835052490234,"12":-4.399816036224365,"13":-8.009110450744629}},"19":{"bias":-11.82834243774414,"weights":{"0":-13.627291679382324,"1":7.79847526550293,"2":-13.683493614196777,"3":-4.3309526443481445,"4":-9.276095390319824,"5":8.885552406311035,"6":-8.22736930847168,"7":-6.024776458740234,"8":-12.811049461364746,"9":29.56383514404297,"10":-7.346372604370117,"11":1.5944924354553223,"12":-2.3289437294006348,"13":14.996261596679688}},"20":{"bias":3.6181302070617676,"weights":{"0":-7.881208896636963,"1":-13.459237098693848,"2":-9.75133991241455,"3":5.599826812744141,"4":1.0844693183898926,"5":2.256260871887207,"6":11.973737716674805,"7":-16.080163955688477,"8":4.801529407501221,"9":-13.506904602050781,"10":8.36120319366455,"11":15.87966537475586,"12":7.505011081695557,"13":-1.3849148750305176}},"21":{"bias":-2.406479597091675,"weights":{"0":-5.80675745010376,"1":-8.249017715454102,"2":-4.744675636291504,"3":-28.8216552734375,"4":0.7204846143722534,"5":24.994117736816406,"6":-13.7829008102417,"7":-15.405022621154785,"8":42.25686264038086,"9":0.6597023606300354,"10":5.0017828941345215,"11":-10.575518608093262,"12":7.665492057800293,"13":-5.9446916580200195}},"22":{"bias":-0.6667843461036682,"weights":{"0":9.344878196716309,"1":-7.721353530883789,"2":-4.9212493896484375,"3":-13.969377517700195,"4":3.9044346809387207,"5":5.970609664916992,"6":-19.20417594909668,"7":-2.7291247844696045,"8":-10.454887390136719,"9":23.584875106811523,"10":30.267181396484375,"11":-5.7485527992248535,"12":14.18652629852295,"13":-22.489194869995117}},"23":{"bias":-31.742387771606445,"weights":{"0":-4.885313034057617,"1":24.130918502807617,"2":-10.692567825317383,"3":6.347225666046143,"4":33.35078048706055,"5":-6.176793575286865,"6":-20.615659713745117,"7":32.67698287963867,"8":-14.387259483337402,"9":0.9293220639228821,"10":13.9881010055542,"11":-0.046762220561504364,"12":3.360271453857422,"13":-19.977313995361328}},"24":{"bias":-6.850969314575195,"weights":{"0":-13.6869478225708,"1":14.410445213317871,"2":-12.710639953613281,"3":4.717514514923096,"4":-0.2255651205778122,"5":-7.055927753448486,"6":5.3256144523620605,"7":4.2674689292907715,"8":-13.074681282043457,"9":8.71023178100586,"10":-5.922511100769043,"11":4.523628234863281,"12":-4.022520542144775,"13":-4.131125450134277}},"25":{"bias":-25.9582576751709,"weights":{"0":8.794255256652832,"1":21.487714767456055,"2":-18.441679000854492,"3":7.947122097015381,"4":-2.4593567848205566,"5":-20.484434127807617,"6":-15.745797157287598,"7":26.25049591064453,"8":12.114352226257324,"9":-15.530675888061523,"10":-5.6413092613220215,"11":16.099756240844727,"12":2.9127821922302246,"13":-5.175238609313965}},"26":{"bias":-12.327447891235352,"weights":{"0":0.1864980012178421,"1":-11.314695358276367,"2":-32.01100540161133,"3":13.056241989135742,"4":17.601688385009766,"5":-10.829168319702148,"6":-4.731947422027588,"7":-16.316862106323242,"8":23.291915893554688,"9":13.373798370361328,"10":-1.5925341844558716,"11":-21.16580581665039,"12":18.13642120361328,"13":-7.14775276184082}},"27":{"bias":2.4717087745666504,"weights":{"0":-34.88985061645508,"1":9.770344734191895,"2":-22.564218521118164,"3":13.749594688415527,"4":-20.101055145263672,"5":-2.5066118240356445,"6":-1.3065599203109741,"7":-25.814332962036133,"8":18.127660751342773,"9":19.804689407348633,"10":-14.862109184265137,"11":0.4787599444389343,"12":-11.35023307800293,"13":-7.59183931350708}},"28":{"bias":4.085529327392578,"weights":{"0":-1.3931819200515747,"1":5.634325981140137,"2":-20.64108657836914,"3":-3.3770687580108643,"4":6.931196689605713,"5":-12.863492965698242,"6":-17.45089340209961,"7":-12.772862434387207,"8":11.88683032989502,"9":9.092931747436523,"10":-3.261528253555298,"11":-14.719849586486816,"12":-1.433619499206543,"13":-13.014467239379883}},"29":{"bias":-17.602005004882812,"weights":{"0":14.598376274108887,"1":-5.511882305145264,"2":4.25528621673584,"3":13.68703842163086,"4":0.3219519555568695,"5":-8.404272079467773,"6":2.482837200164795,"7":4.1676506996154785,"8":17.6783447265625,"9":-28.10146713256836,"10":16.65574073791504,"11":-7.1325459480285645,"12":0.4189924895763397,"13":10.739718437194824}},"30":{"bias":-29.842191696166992,"weights":{"0":-11.947214126586914,"1":39.274539947509766,"2":-11.558149337768555,"3":-17.197477340698242,"4":-21.769794464111328,"5":1.4577981233596802,"6":45.57395553588867,"7":23.60934829711914,"8":3.531686305999756,"9":4.631984233856201,"10":2.9232358932495117,"11":-11.792110443115234,"12":17.369678497314453,"13":-49.32817459106445}},"31":{"bias":7.787410259246826,"weights":{"0":-18.825084686279297,"1":2.857724666595459,"2":-5.025602340698242,"3":-3.1143689155578613,"4":11.11368179321289,"5":-16.748355865478516,"6":17.425525665283203,"7":6.554905891418457,"8":-16.672138214111328,"9":6.573613166809082,"10":12.776592254638672,"11":3.113701105117798,"12":-23.842451095581055,"13":-1.0457830429077148}},"32":{"bias":-18.716768264770508,"weights":{"0":14.439033508300781,"1":4.9462199211120605,"2":33.557926177978516,"3":-14.323491096496582,"4":-0.3919371962547302,"5":-16.82652473449707,"6":-5.546597003936768,"7":7.808923721313477,"8":12.872204780578613,"9":7.093832969665527,"10":-24.414979934692383,"11":-0.3285463750362396,"12":14.073766708374023,"13":6.388673305511475}},"33":{"bias":7.4168267250061035,"weights":{"0":-17.94348907470703,"1":-22.758575439453125,"2":9.083836555480957,"3":35.13817596435547,"4":-8.962685585021973,"5":4.038066387176514,"6":-9.665440559387207,"7":-39.77933120727539,"8":-18.576740264892578,"9":26.039424896240234,"10":-8.17144775390625,"11":13.041796684265137,"12":-7.632667541503906,"13":2.3929836750030518}},"34":{"bias":-25.535430908203125,"weights":{"0":2.844545841217041,"1":19.678298950195312,"2":-9.72846794128418,"3":0.26719239354133606,"4":37.156959533691406,"5":-16.968679428100586,"6":12.605106353759766,"7":0.16887091100215912,"8":24.717283248901367,"9":-16.082061767578125,"10":2.3931124210357666,"11":10.168156623840332,"12":-3.7602694034576416,"13":2.6992530822753906}},"35":{"bias":-3.0535616874694824,"weights":{"0":0.7621375918388367,"1":-6.567482948303223,"2":-1.129630208015442,"3":12.55692195892334,"4":2.6841297149658203,"5":-16.17600440979004,"6":-8.24731731414795,"7":-13.538311958312988,"8":12.950833320617676,"9":14.027587890625,"10":-10.601576805114746,"11":-20.629241943359375,"12":-9.621268272399902,"13":-3.0889148712158203}},"36":{"bias":16.927330017089844,"weights":{"0":-37.16493225097656,"1":2.5852408409118652,"2":-16.4091854095459,"3":-39.74683380126953,"4":3.8482959270477295,"5":-4.403111457824707,"6":-15.373161315917969,"7":1.9074088335037231,"8":2.483896255493164,"9":22.81909942626953,"10":5.869091987609863,"11":-13.244171142578125,"12":11.041824340820312,"13":-31.906604766845703}},"37":{"bias":3.054088592529297,"weights":{"0":9.239460945129395,"1":-12.249129295349121,"2":1.048896074295044,"3":28.610057830810547,"4":14.531255722045898,"5":-7.794219970703125,"6":-0.12622998654842377,"7":-1.8407654762268066,"8":-19.772127151489258,"9":-16.651132583618164,"10":-6.717807292938232,"11":8.383028030395508,"12":-16.565690994262695,"13":-4.047889232635498}},"38":{"bias":-7.87327241897583,"weights":{"0":1.4022732973098755,"1":0.9847163558006287,"2":-24.35747718811035,"3":32.07564163208008,"4":-23.287939071655273,"5":6.457462787628174,"6":1.709179162979126,"7":19.048412322998047,"8":-18.260608673095703,"9":-7.652906894683838,"10":-5.288083076477051,"11":-20.06696891784668,"12":-15.518302917480469,"13":1.9536231756210327}},"39":{"bias":4.688188552856445,"weights":{"0":-14.898186683654785,"1":-3.5745198726654053,"2":-27.55791664123535,"3":16.38436508178711,"4":18.073162078857422,"5":-14.594058990478516,"6":11.906862258911133,"7":-18.165266036987305,"8":-44.157142639160156,"9":6.631734371185303,"10":14.825281143188477,"11":35.571556091308594,"12":12.469554901123047,"13":5.240161895751953}}},{"0":{"bias":-0.7707688808441162,"weights":{"0":0.4509541690349579,"1":0.6190481185913086,"2":-10.303224563598633,"3":-7.520272731781006,"4":-0.6721329689025879,"5":8.760811805725098,"6":5.96561336517334,"7":-8.230178833007812,"8":-9.243448257446289,"9":-8.987101554870605,"10":0.2975243330001831,"11":1.1017870903015137,"12":3.4810876846313477,"13":-1.455222487449646,"14":7.862547397613525,"15":5.826684474945068,"16":13.196208953857422,"17":-14.221631050109863,"18":0.2361692637205124,"19":11.632542610168457,"20":0.39753592014312744,"21":1.7378078699111938,"22":-25.71126365661621,"23":-8.443405151367188,"24":1.006208896636963,"25":-1.4545484781265259,"26":22.221967697143555,"27":2.7485909461975098,"28":-0.7826140522956848,"29":-7.532370567321777,"30":-9.705469131469727,"31":-3.726026773452759,"32":2.657515287399292,"33":27.207828521728516,"34":-4.4171881675720215,"35":5.516512870788574,"36":1.2872073650360107,"37":-3.9936795234680176,"38":-13.397454261779785,"39":6.4159393310546875}},"1":{"bias":-8.925163269042969,"weights":{"0":4.961773872375488,"1":2.770404577255249,"2":-15.007757186889648,"3":1.3875951766967773,"4":4.681090831756592,"5":15.396347045898438,"6":5.736875534057617,"7":-24.975433349609375,"8":-6.828386306762695,"9":1.7938320636749268,"10":-11.948894500732422,"11":5.7805962562561035,"12":8.782297134399414,"13":6.315861701965332,"14":2.326035499572754,"15":-2.4181649684906006,"16":-0.3331547677516937,"17":8.246541023254395,"18":8.942830085754395,"19":10.77515697479248,"20":-0.04736601933836937,"21":-0.8626899123191833,"22":-11.93032169342041,"23":-13.001733779907227,"24":1.544622540473938,"25":12.808889389038086,"26":-9.81743049621582,"27":-6.841510772705078,"28":0.11351288855075836,"29":9.9273042678833,"30":3.385995626449585,"31":-8.826191902160645,"32":-13.399133682250977,"33":2.8359827995300293,"34":3.881230115890503,"35":2.7988650798797607,"36":-2.8520874977111816,"37":-2.5564382076263428,"38":8.600349426269531,"39":0.35532161593437195}},"2":{"bias":-22.03923225402832,"weights":{"0":8.792057037353516,"1":8.129592895507812,"2":-9.196002960205078,"3":2.041707992553711,"4":-5.732944488525391,"5":11.245829582214355,"6":3.891263723373413,"7":-35.0419921875,"8":22.9661865234375,"9":-7.309826374053955,"10":12.211335182189941,"11":-4.07078218460083,"12":3.9515087604522705,"13":2.876161813735962,"14":-5.683578968048096,"15":-17.92589569091797,"16":11.054319381713867,"17":9.69318962097168,"18":-12.594535827636719,"19":-8.654027938842773,"20":-6.576515197753906,"21":5.402492046356201,"22":-6.190471649169922,"23":8.187097549438477,"24":-6.348177433013916,"25":-6.9168009757995605,"26":0.8075546622276306,"27":11.205219268798828,"28":-0.37137579917907715,"29":4.423007488250732,"30":-24.270254135131836,"31":0.7124667763710022,"32":-10.904918670654297,"33":0.5464705228805542,"34":6.8263936042785645,"35":-0.8473199605941772,"36":-9.026845932006836,"37":8.786850929260254,"38":14.038613319396973,"39":-6.716373920440674}},"3":{"bias":-12.551368713378906,"weights":{"0":-14.627784729003906,"1":13.076513290405273,"2":9.449467658996582,"3":5.0804443359375,"4":-10.733355522155762,"5":-11.504563331604004,"6":-2.087618112564087,"7":-10.597871780395508,"8":-4.422537326812744,"9":-13.845170021057129,"10":-2.671659231185913,"11":10.353327751159668,"12":-2.3966927528381348,"13":1.320098876953125,"14":4.743736743927002,"15":-8.560375213623047,"16":11.216572761535645,"17":-11.649910926818848,"18":-12.529366493225098,"19":7.836199760437012,"20":-5.371195316314697,"21":-1.6952691078186035,"22":1.936269998550415,"23":6.3338303565979,"24":1.1809699535369873,"25":-8.034929275512695,"26":-8.579490661621094,"27":-13.034860610961914,"28":2.180746078491211,"29":-9.704804420471191,"30":10.753227233886719,"31":-1.1578551530838013,"32":-12.705838203430176,"33":1.3154561519622803,"34":-1.6529927253723145,"35":-1.1665444374084473,"36":-9.467065811157227,"37":-1.9995390176773071,"38":-16.615550994873047,"39":-6.443032741546631}},"4":{"bias":-4.30906343460083,"weights":{"0":0.9924059510231018,"1":-6.319792747497559,"2":8.63671588897705,"3":2.8287858963012695,"4":-14.05672550201416,"5":4.057258129119873,"6":-6.193402290344238,"7":13.885435104370117,"8":-0.684639573097229,"9":-6.5245041847229,"10":-12.572101593017578,"11":-12.329246520996094,"12":-14.961895942687988,"13":-8.86212158203125,"14":-10.90485954284668,"15":0.44031697511672974,"16":1.4795403480529785,"17":-12.444212913513184,"18":8.536445617675781,"19":0.823462188243866,"20":-4.610163688659668,"21":4.320258140563965,"22":2.8377842903137207,"23":-3.2074272632598877,"24":-5.340173244476318,"25":8.168004035949707,"26":-11.440892219543457,"27":-17.985158920288086,"28":-0.2288234382867813,"29":-5.949977397918701,"30":1.0913625955581665,"31":-8.152167320251465,"32":-5.053473472595215,"33":0.6892186999320984,"34":0.1424383670091629,"35":-2.155543565750122,"36":-3.319833517074585,"37":-2.139662504196167,"38":-16.996604919433594,"39":-29.64314842224121}},"5":{"bias":-6.431091785430908,"weights":{"0":-10.193646430969238,"1":3.765895366668701,"2":-4.795454025268555,"3":3.530651092529297,"4":2.7418859004974365,"5":4.734180927276611,"6":-6.158755302429199,"7":-16.50311279296875,"8":-12.174322128295898,"9":-6.657890319824219,"10":12.365043640136719,"11":-8.11123275756836,"12":2.7037220001220703,"13":-0.7504920363426208,"14":26.11920928955078,"15":-3.9250075817108154,"16":-2.4382541179656982,"17":-12.285954475402832,"18":-5.324265480041504,"19":-2.8858044147491455,"20":-3.8751678466796875,"21":-2.781733274459839,"22":13.478452682495117,"23":-10.90943717956543,"24":-3.091752290725708,"25":-1.7464683055877686,"26":9.325881004333496,"27":-4.84711217880249,"28":-7.202706813812256,"29":-5.634609699249268,"30":-9.899170875549316,"31":3.0182301998138428,"32":4.2885355949401855,"33":5.7670674324035645,"34":7.605775356292725,"35":0.4644239842891693,"36":3.035050630569458,"37":-9.258543968200684,"38":7.633918762207031,"39":-8.973123550415039}},"6":{"bias":-18.259071350097656,"weights":{"0":25.263044357299805,"1":5.064734935760498,"2":1.9958001375198364,"3":0.2732588052749634,"4":7.235832214355469,"5":-6.761383533477783,"6":2.9209015369415283,"7":1.9854844808578491,"8":-15.992138862609863,"9":-7.655767440795898,"10":-11.869596481323242,"11":-2.5823144912719727,"12":1.9139070510864258,"13":-2.2061843872070312,"14":-4.137771129608154,"15":-12.858622550964355,"16":2.787691116333008,"17":-10.699508666992188,"18":-7.60659646987915,"19":3.291660785675049,"20":1.6622775793075562,"21":0.38941141963005066,"22":-3.5789499282836914,"23":-7.984930515289307,"24":8.187259674072266,"25":12.828843116760254,"26":-4.326789855957031,"27":-6.425300598144531,"28":2.630965232849121,"29":-3.7628843784332275,"30":-3.4145803451538086,"31":-2.0620362758636475,"32":3.2324986457824707,"33":1.8031221628189087,"34":2.515247344970703,"35":6.516717433929443,"36":-10.04496955871582,"37":5.257597923278809,"38":-7.4763946533203125,"39":20.60346221923828}},"7":{"bias":-6.723145484924316,"weights":{"0":4.407596588134766,"1":-9.560762405395508,"2":-6.494291305541992,"3":3.340212821960449,"4":11.439757347106934,"5":-11.323280334472656,"6":4.8362555503845215,"7":2.7263879776000977,"8":-6.630372047424316,"9":-3.4855525493621826,"10":13.289299011230469,"11":-8.616411209106445,"12":4.52893590927124,"13":6.847465991973877,"14":-10.829838752746582,"15":2.5203075408935547,"16":8.500134468078613,"17":1.7844936847686768,"18":-10.81875991821289,"19":-8.998197555541992,"20":-8.584656715393066,"21":-4.6647515296936035,"22":-2.8803021907806396,"23":7.8305792808532715,"24":-12.429510116577148,"25":21.51866340637207,"26":-25.491466522216797,"27":-0.958370566368103,"28":-12.770209312438965,"29":-20.94810676574707,"30":-7.217198371887207,"31":1.992138147354126,"32":1.7380247116088867,"33":10.42538833618164,"34":-12.90410327911377,"35":12.186580657958984,"36":2.5277676582336426,"37":9.686555862426758,"38":7.055563926696777,"39":-0.9207515716552734}},"8":{"bias":-2.401721239089966,"weights":{"0":-9.88856315612793,"1":-0.5251331329345703,"2":12.915164947509766,"3":-1.224592685699463,"4":-2.256474494934082,"5":3.9753546714782715,"6":-4.0483503341674805,"7":-9.8351411819458,"8":-3.311768054962158,"9":9.830926895141602,"10":-1.7379794120788574,"11":-2.2167062759399414,"12":-16.91452407836914,"13":-21.473617553710938,"14":11.80384635925293,"15":11.482301712036133,"16":11.701499938964844,"17":-12.562796592712402,"18":5.352643013000488,"19":-1.5821595191955566,"20":8.77666187286377,"21":1.807512640953064,"22":0.33601441979408264,"23":-7.020034313201904,"24":8.611090660095215,"25":-0.9444406032562256,"26":-21.499046325683594,"27":-14.42597770690918,"28":3.2492361068725586,"29":5.943994522094727,"30":-5.983421802520752,"31":-1.665082573890686,"32":-12.420578956604004,"33":-5.377350330352783,"34":-5.913564682006836,"35":-11.58161449432373,"36":-9.250535011291504,"37":4.712698936462402,"38":-3.4906933307647705,"39":5.193767070770264}},"9":{"bias":-8.992165565490723,"weights":{"0":-19.844547271728516,"1":-1.4664651155471802,"2":5.867900371551514,"3":11.141459465026855,"4":-7.293426036834717,"5":-10.139657974243164,"6":-2.0940072536468506,"7":4.534762859344482,"8":-23.8099308013916,"9":4.046043872833252,"10":-10.032574653625488,"11":5.901118278503418,"12":3.2412350177764893,"13":1.9635672569274902,"14":-12.166214942932129,"15":4.790530204772949,"16":-4.479586601257324,"17":12.389395713806152,"18":5.605467796325684,"19":2.058349609375,"20":-5.393182277679443,"21":11.742971420288086,"22":5.799463272094727,"23":-11.691509246826172,"24":-0.17443586885929108,"25":-3.7123301029205322,"26":-5.660105228424072,"27":-8.987857818603516,"28":0.36868491768836975,"29":-11.477096557617188,"30":-18.846467971801758,"31":-0.8312585949897766,"32":-2.8143069744110107,"33":20.427040100097656,"34":8.130471229553223,"35":-8.762626647949219,"36":-13.664716720581055,"37":-9.15870475769043,"38":-12.754121780395508,"39":14.868432998657227}},"10":{"bias":-11.670371055603027,"weights":{"0":-5.2095842361450195,"1":5.490053176879883,"2":-2.441977024078369,"3":3.630115509033203,"4":2.5680429935455322,"5":-8.633783340454102,"6":6.450604438781738,"7":9.21532154083252,"8":-10.288165092468262,"9":-6.357937812805176,"10":1.2962863445281982,"11":3.109445571899414,"12":-3.933476448059082,"13":-1.7783573865890503,"14":3.5847954750061035,"15":-5.239009380340576,"16":-2.5929367542266846,"17":3.5962464809417725,"18":-9.666322708129883,"19":12.205856323242188,"20":-4.086677551269531,"21":2.263018846511841,"22":-0.10273179411888123,"23":-13.95489501953125,"24":1.2879338264465332,"25":-7.0882439613342285,"26":26.06617546081543,"27":5.9197998046875,"28":-0.18203772604465485,"29":-7.7707929611206055,"30":-8.889497756958008,"31":-0.7721236944198608,"32":-0.2638739049434662,"33":-0.7289981245994568,"34":-9.087224960327148,"35":-4.787993431091309,"36":-4.592529296875,"37":5.625868320465088,"38":-0.06265675276517868,"39":-10.741596221923828}},"11":{"bias":-0.9156126379966736,"weights":{"0":7.803801536560059,"1":-14.004698753356934,"2":-4.659324645996094,"3":-17.18779182434082,"4":1.3278266191482544,"5":8.783059120178223,"6":-0.9552841186523438,"7":-0.6202570199966431,"8":-13.627596855163574,"9":-0.34191668033599854,"10":-19.166746139526367,"11":-0.47689932584762573,"12":-2.542158603668213,"13":-4.091293811798096,"14":-0.5860333442687988,"15":-18.57393455505371,"16":-8.379656791687012,"17":4.423079967498779,"18":-19.63056755065918,"19":-0.3644421696662903,"20":9.889957427978516,"21":11.528131484985352,"22":3.971930742263794,"23":-5.724484443664551,"24":6.21242094039917,"25":-8.575428009033203,"26":-6.145516872406006,"27":6.653367042541504,"28":7.969135761260986,"29":-17.755781173706055,"30":10.686442375183105,"31":-0.9674662351608276,"32":-1.7522739171981812,"33":-1.6626648902893066,"34":-10.902671813964844,"35":-0.943553626537323,"36":-17.69341278076172,"37":4.005972385406494,"38":-0.3543378412723541,"39":-9.36197566986084}},"12":{"bias":-11.722173690795898,"weights":{"0":2.1698617935180664,"1":-18.889751434326172,"2":0.5282497406005859,"3":4.118607044219971,"4":-5.5661516189575195,"5":-5.435314178466797,"6":1.6642735004425049,"7":-14.622832298278809,"8":-2.880164384841919,"9":-1.969670057296753,"10":1.8821873664855957,"11":-8.018693923950195,"12":-8.352778434753418,"13":-10.848880767822266,"14":4.303793907165527,"15":-2.7269206047058105,"16":6.128143787384033,"17":-5.934288501739502,"18":-1.0152171850204468,"19":5.6070332527160645,"20":1.842018723487854,"21":4.686971664428711,"22":5.231327056884766,"23":21.67081642150879,"24":3.1210806369781494,"25":-6.885015964508057,"26":1.538918137550354,"27":8.726902961730957,"28":4.857179641723633,"29":13.015414237976074,"30":7.984431266784668,"31":6.907107353210449,"32":1.4310539960861206,"33":-20.76197052001953,"34":-13.78155517578125,"35":2.630385637283325,"36":-5.0471062660217285,"37":-2.0323069095611572,"38":1.1712762117385864,"39":7.9012346267700195}},"13":{"bias":-12.429939270019531,"weights":{"0":-3.264697790145874,"1":0.5580816864967346,"2":-14.6671781539917,"3":-4.8068718910217285,"4":6.525913238525391,"5":-2.7309608459472656,"6":4.205124855041504,"7":30.543088912963867,"8":-0.567050576210022,"9":-0.7765563130378723,"10":-22.770645141601562,"11":-3.9544763565063477,"12":0.0803004801273346,"13":1.8609884977340698,"14":-18.41045379638672,"15":3.082552194595337,"16":3.137669086456299,"17":-15.627079010009766,"18":6.440927505493164,"19":-9.21236515045166,"20":-8.653928756713867,"21":2.931043863296509,"22":1.1655728816986084,"23":2.2217209339141846,"24":-6.1035685539245605,"25":6.786942005157471,"26":0.9294346570968628,"27":-9.253999710083008,"28":2.4219698905944824,"29":-12.578644752502441,"30":-3.0951449871063232,"31":-2.8503873348236084,"32":-4.431622505187988,"33":-25.027570724487305,"34":10.85962963104248,"35":-1.7941114902496338,"36":32.3287353515625,"37":-2.678758382797241,"38":-15.102677345275879,"39":-11.16028881072998}},"14":{"bias":-3.964134454727173,"weights":{"0":8.946050643920898,"1":3.542564868927002,"2":-1.0370177030563354,"3":0.4143180847167969,"4":-6.958762168884277,"5":-33.82384490966797,"6":5.613767147064209,"7":-15.394097328186035,"8":10.088716506958008,"9":9.746252059936523,"10":4.9934515953063965,"11":-2.756680727005005,"12":-16.893169403076172,"13":3.564368724822998,"14":3.256096124649048,"15":-5.769378185272217,"16":-16.3061466217041,"17":8.695672035217285,"18":-9.809802055358887,"19":-5.970449924468994,"20":-5.80323600769043,"21":-9.008225440979004,"22":-12.327718734741211,"23":-19.79139518737793,"24":1.3088500499725342,"25":-4.857278823852539,"26":-2.799842119216919,"27":-6.892599582672119,"28":-2.3203938007354736,"29":6.334973335266113,"30":15.640320777893066,"31":-2.809795618057251,"32":6.213023662567139,"33":-9.444411277770996,"34":-7.084479808807373,"35":-4.15738582611084,"36":9.198771476745605,"37":-5.084050178527832,"38":-8.618861198425293,"39":13.27976131439209}},"15":{"bias":-13.98883056640625,"weights":{"0":-5.865050315856934,"1":-4.074182033538818,"2":-9.072535514831543,"3":-7.2226481437683105,"4":12.31705093383789,"5":16.579986572265625,"6":4.208881855010986,"7":4.705334186553955,"8":-6.593742370605469,"9":-1.0256922245025635,"10":0.4884718954563141,"11":0.9601133465766907,"12":6.486791133880615,"13":-9.106614112854004,"14":-3.8142008781433105,"15":-11.413914680480957,"16":-10.813538551330566,"17":11.283336639404297,"18":-8.830734252929688,"19":8.602333068847656,"20":9.031628608703613,"21":-10.937383651733398,"22":10.337138175964355,"23":-18.3111629486084,"24":-13.523844718933105,"25":-18.800771713256836,"26":-3.2843527793884277,"27":-15.955223083496094,"28":7.210982322692871,"29":-5.7236223220825195,"30":-19.95405387878418,"31":3.6490836143493652,"32":-11.124486923217773,"33":-2.461714029312134,"34":2.9093706607818604,"35":5.617405414581299,"36":9.274484634399414,"37":0.8063499331474304,"38":-1.0291404724121094,"39":11.556398391723633}},"16":{"bias":-21.857816696166992,"weights":{"0":2.2279675006866455,"1":-8.357362747192383,"2":3.596221685409546,"3":-5.989187717437744,"4":3.17462158203125,"5":19.47061538696289,"6":-2.9780991077423096,"7":16.2698917388916,"8":-18.899412155151367,"9":-1.169102430343628,"10":23.512718200683594,"11":6.219377517700195,"12":3.993398427963257,"13":-8.28524112701416,"14":0.6821025013923645,"15":-12.498790740966797,"16":-1.479979395866394,"17":3.2853264808654785,"18":-11.615882873535156,"19":5.6175665855407715,"20":1.9684840440750122,"21":1.9568582773208618,"22":-13.844880104064941,"23":6.699993133544922,"24":6.927660942077637,"25":10.72067928314209,"26":13.365278244018555,"27":4.441216468811035,"28":8.241400718688965,"29":22.12866973876953,"30":9.60672378540039,"31":-2.5425124168395996,"32":3.2932400703430176,"33":1.9579440355300903,"34":3.7323825359344482,"35":-5.409575939178467,"36":-2.894373655319214,"37":-7.041094779968262,"38":0.19323498010635376,"39":10.5310697555542}},"17":{"bias":-9.275018692016602,"weights":{"0":-8.900327682495117,"1":5.637463569641113,"2":15.125903129577637,"3":-13.271512031555176,"4":0.32692909240722656,"5":-11.035324096679688,"6":2.739687442779541,"7":2.815673589706421,"8":-2.706174850463867,"9":-8.02436637878418,"10":-5.4849467277526855,"11":4.725474834442139,"12":2.907853364944458,"13":-3.537688732147217,"14":-0.30411139130592346,"15":4.6029181480407715,"16":-22.185813903808594,"17":-10.31679630279541,"18":13.935087203979492,"19":0.5418808460235596,"20":-9.307615280151367,"21":-2.9474263191223145,"22":8.875126838684082,"23":-11.489636421203613,"24":-4.141719341278076,"25":-3.988523006439209,"26":4.39888334274292,"27":11.385587692260742,"28":-0.9843092560768127,"29":-0.16274701058864594,"30":-10.745268821716309,"31":-0.4744476079940796,"32":12.869422912597656,"33":-4.466981887817383,"34":-6.598779201507568,"35":-2.620187997817993,"36":-13.183967590332031,"37":11.716268539428711,"38":-22.012786865234375,"39":2.795609951019287}},"18":{"bias":0.24095499515533447,"weights":{"0":-11.33866024017334,"1":-4.297003746032715,"2":-5.669295310974121,"3":-6.764065742492676,"4":-2.164877414703369,"5":2.091956615447998,"6":1.3306248188018799,"7":-7.517824649810791,"8":4.805668830871582,"9":1.78861403465271,"10":-12.696100234985352,"11":3.31009840965271,"12":14.768340110778809,"13":2.0602643489837646,"14":1.4567338228225708,"15":-10.057358741760254,"16":-0.7842447757720947,"17":-10.326980590820312,"18":3.752720832824707,"19":-20.624004364013672,"20":-10.23486042022705,"21":-3.0057497024536133,"22":1.080847144126892,"23":-2.4332332611083984,"24":7.006394863128662,"25":-10.373703956604004,"26":-11.956466674804688,"27":-10.033841133117676,"28":-5.3921427726745605,"29":-5.2060041427612305,"30":-12.674922943115234,"31":-9.990546226501465,"32":-4.888557434082031,"33":-5.185537815093994,"34":6.7717084884643555,"35":-1.931872010231018,"36":-13.301048278808594,"37":2.4724576473236084,"38":-20.726947784423828,"39":8.640823364257812}},"19":{"bias":-20.511428833007812,"weights":{"0":-1.36618971824646,"1":-16.114093780517578,"2":-8.658637046813965,"3":6.1651387214660645,"4":-6.741348743438721,"5":3.718961000442505,"6":7.040573596954346,"7":-3.398331642150879,"8":-13.843954086303711,"9":0.3194619119167328,"10":-5.433234214782715,"11":-4.371027946472168,"12":-6.279427528381348,"13":7.006450176239014,"14":8.11103630065918,"15":-1.7256578207015991,"16":-2.7745888233184814,"17":-1.1528465747833252,"18":-0.2585621774196625,"19":9.538041114807129,"20":2.5691819190979004,"21":-15.619650840759277,"22":10.463947296142578,"23":9.287525177001953,"24":0.4545300304889679,"25":3.813408851623535,"26":6.0733137130737305,"27":8.015449523925781,"28":5.109474182128906,"29":-3.439730405807495,"30":11.90607738494873,"31":5.303923606872559,"32":-4.497649192810059,"33":5.23637056350708,"34":-2.3329017162323,"35":-5.927948951721191,"36":-8.873690605163574,"37":-0.30645594000816345,"38":-7.963697910308838,"39":4.810067176818848}}},{"0":{"bias":22.133562088012695,"weights":{"0":-9.488931655883789,"1":-9.032546043395996,"2":-17.568965911865234,"3":-14.61165714263916,"4":-10.599649429321289,"5":-23.326814651489258,"6":-10.63150405883789,"7":-10.930168151855469,"8":-12.644139289855957,"9":-11.11862850189209,"10":-8.20347785949707,"11":-8.146920204162598,"12":-9.586356163024902,"13":-9.597541809082031,"14":-14.146978378295898,"15":-7.177459716796875,"16":-12.89371395111084,"17":-8.144898414611816,"18":-13.192231178283691,"19":-17.87305450439453}}}],"outputLookup":true,"inputLookup":true,"activation":"sigmoid","trainOpts":{"iterations":3000,"errorThresh":0.005,"log":true,"logPeriod":10,"learningRate":0.3,"momentum":0.1,"callbackPeriod":10,"beta1":0.9,"beta2":0.999,"epsilon":1e-8}}