{"sizes":[14,40,20,1],"layers":[{"0":{},"1":{},"2":{},"3":{},"4":{},"5":{},"6":{},"7":{},"8":{},"9":{},"10":{},"11":{},"12":{},"13":{}},{"0":{"bias":0.4854655861854553,"weights":{"0":1.0051988363265991,"1":-2.700401544570923,"2":-4.920245170593262,"3":-5.996094703674316,"4":30.999942779541016,"5":-3.014615297317505,"6":35.72421646118164,"7":13.018320083618164,"8":-21.933195114135742,"9":-52.583099365234375,"10":-2.5811965465545654,"11":14.484118461608887,"12":-38.33592224121094,"13":-13.151490211486816}},"1":{"bias":6.513381004333496,"weights":{"0":-16.231792449951172,"1":3.9991352558135986,"2":-8.805746078491211,"3":-1.2335264682769775,"4":-6.274238109588623,"5":-7.753482818603516,"6":1.4415123462677002,"7":5.16441535949707,"8":-7.173550605773926,"9":11.693575859069824,"10":-2.1293435096740723,"11":-12.190589904785156,"12":-8.879616737365723,"13":9.546957969665527}},"2":{"bias":-22.615745544433594,"weights":{"0":-14.945669174194336,"1":19.499494552612305,"2":-17.620092391967773,"3":-15.264676094055176,"4":23.49853515625,"5":29.88311004638672,"6":13.937508583068848,"7":14.695878028869629,"8":16.927305221557617,"9":-10.141702651977539,"10":-6.784257888793945,"11":-12.586755752563477,"12":-12.49860668182373,"13":8.854750633239746}},"3":{"bias":-2.3757190704345703,"weights":{"0":-9.454044342041016,"1":-13.254611015319824,"2":4.376273155212402,"3":-8.011481285095215,"4":-29.585655212402344,"5":22.634309768676758,"6":-2.3239476680755615,"7":-10.847712516784668,"8":3.549496650695801,"9":-8.605642318725586,"10":-2.1759557723999023,"11":16.822757720947266,"12":-1.6538565158843994,"13":-21.73492431640625}},"4":{"bias":1.7884056568145752,"weights":{"0":5.372642517089844,"1":-1.8006935119628906,"2":-18.02166748046875,"3":15.500642776489258,"4":-17.08429527282715,"5":4.799328804016113,"6":-15.793025016784668,"7":10.880969047546387,"8":-35.218544006347656,"9":4.780838966369629,"10":-9.419132232666016,"11":-20.56403923034668,"12":-0.2788351774215698,"13":16.058969497680664}},"5":{"bias":-6.503812789916992,"weights":{"0":-17.531829833984375,"1":17.29754066467285,"2":12.976408004760742,"3":29.305604934692383,"4":23.50731658935547,"5":-11.884238243103027,"6":7.690390586853027,"7":-6.508884906768799,"8":10.265218734741211,"9":-16.537368774414062,"10":-25.81491470336914,"11":-1.8826212882995605,"12":12.845145225524902,"13":-12.913918495178223}},"6":{"bias":12.574553489685059,"weights":{"0":-9.213335037231445,"1":-5.6169843673706055,"2":-7.0258073806762695,"3":-14.845184326171875,"4":6.2755961418151855,"5":2.2571215629577637,"6":18.801544189453125,"7":-9.116125106811523,"8":-8.653480529785156,"9":-2.675610065460205,"10":-0.8562545776367188,"11":-9.946188926696777,"12":-7.441193580627441,"13":0.40802544355392456}},"7":{"bias":-10.937226295471191,"weights":{"0":-8.489331245422363,"1":13.562976837158203,"2":-14.913719177246094,"3":-24.39202308654785,"4":11.288369178771973,"5":-23.113739013671875,"6":3.729088306427002,"7":-2.3378989696502686,"8":46.56404495239258,"9":-4.246576309204102,"10":25.56298065185547,"11":-1.084691047668457,"12":9.227581977844238,"13":-17.1610050201416}},"8":{"bias":-3.5660784244537354,"weights":{"0":4.942129135131836,"1":-16.438613891601562,"2":-12.077530860900879,"3":-17.809654235839844,"4":9.422011375427246,"5":4.5166168212890625,"6":-20.17934226989746,"7":5.290514945983887,"8":19.356491088867188,"9":-14.27042293548584,"10":5.417891025543213,"11":-7.123396396636963,"12":28.855995178222656,"13":-15.805789947509766}},"9":{"bias":-21.26715850830078,"weights":{"0":5.634005546569824,"1":3.836970329284668,"2":-21.295696258544922,"3":31.84003448486328,"4":-11.025350570678711,"5":30.117570877075195,"6":-22.799535751342773,"7":21.206056594848633,"8":10.676639556884766,"9":33.62594985961914,"10":5.365009307861328,"11":-12.295570373535156,"12":21.314241409301758,"13":-24.08133316040039}},"10":{"bias":-0.3495924770832062,"weights":{"0":-19.988420486450195,"1":-1.7950114011764526,"2":-26.955347061157227,"3":6.308560371398926,"4":2.610326051712036,"5":-4.908499717712402,"6":-6.187999725341797,"7":1.0248548984527588,"8":14.575386047363281,"9":2.185668706893921,"10":10.292838096618652,"11":9.619894027709961,"12":20.088424682617188,"13":-12.484938621520996}},"11":{"bias":1.0093046426773071,"weights":{"0":5.370162010192871,"1":-11.685735702514648,"2":0.5043618679046631,"3":-15.7827787399292,"4":9.381147384643555,"5":11.362272262573242,"6":-4.574148178100586,"7":-2.3669638633728027,"8":11.283113479614258,"9":-12.455720901489258,"10":-0.4674452841281891,"11":-2.0164711475372314,"12":4.709850311279297,"13":-20.14352798461914}},"12":{"bias":-6.673269748687744,"weights":{"0":-4.99661922454834,"1":4.662210941314697,"2":0.6308990716934204,"3":-2.884840488433838,"4":2.141719102859497,"5":0.8023663759231567,"6":11.220014572143555,"7":17.368925094604492,"8":-9.66993236541748,"9":-22.691875457763672,"10":-9.021653175354004,"11":8.093474388122559,"12":22.155332565307617,"13":-38.742027282714844}},"13":{"bias":2.751397132873535,"weights":{"0":-2.8691422939300537,"1":-11.704436302185059,"2":-2.952091693878174,"3":18.726749420166016,"4":10.576797485351562,"5":-14.449932098388672,"6":-3.227684259414673,"7":-14.26865291595459,"8":4.698931694030762,"9":2.1425609588623047,"10":-9.704517364501953,"11":1.9046766757965088,"12":2.7101783752441406,"13":-0.9168681502342224}},"14":{"bias":-3.6062099933624268,"weights":{"0":13.80151081085205,"1":10.117545127868652,"2":-50.99366760253906,"3":4.306085109710693,"4":-9.200307846069336,"5":-1.0709547996520996,"6":-0.9713370203971863,"7":-2.3762423992156982,"8":20.487077713012695,"9":-13.69002628326416,"10":-12.126311302185059,"11":-32.67871856689453,"12":-11.038483619689941,"13":4.704696178436279}},"15":{"bias":-12.441535949707031,"weights":{"0":9.418745994567871,"1":9.44873332977295,"2":-17.782169342041016,"3":-13.811023712158203,"4":17.82746696472168,"5":3.5633721351623535,"6":-13.405234336853027,"7":15.822147369384766,"8":7.4358720779418945,"9":6.033759117126465,"10":-26.779951095581055,"11":4.125205993652344,"12":-12.454249382019043,"13":-30.694412231445312}},"16":{"bias":-14.838929176330566,"weights":{"0":4.852609157562256,"1":36.65409851074219,"2":-13.059711456298828,"3":-11.339791297912598,"4":3.1098008155822754,"5":-45.8481330871582,"6":11.240133285522461,"7":-2.012247323989868,"8":-1.082505226135254,"9":13.765375137329102,"10":11.888473510742188,"11":-26.4993953704834,"12":-13.900334358215332,"13":-7.103740215301514}},"17":{"bias":2.564911127090454,"weights":{"0":-11.376935958862305,"1":-4.550098419189453,"2":-25.274904251098633,"3":15.58277416229248,"4":6.414884567260742,"5":-16.427337646484375,"6":18.88214111328125,"7":9.672040939331055,"8":8.047738075256348,"9":-13.555434226989746,"10":24.953506469726562,"11":-0.2665318250656128,"12":-16.85553741455078,"13":4.137506484985352}},"18":{"bias":-19.3312931060791,"weights":{"0":11.474359512329102,"1":17.715456008911133,"2":-28.27372932434082,"3":-6.052250385284424,"4":38.48367691040039,"5":3.3002915382385254,"6":28.833168029785156,"7":13.592347145080566,"8":-13.697890281677246,"9":16.969562530517578,"10":-8.189332962036133,"11":-15.935558319091797,"12":-20.67166519165039,"13":1.929262638092041}},"19":{"bias":-11.42074966430664,"weights":{"0":12.224818229675293,"1":17.560489654541016,"2":5.361733913421631,"3":-4.881458282470703,"4":2.2106101512908936,"5":15.014917373657227,"6":-0.6528788805007935,"7":3.6456918716430664,"8":-8.784428596496582,"9":-12.46851921081543,"10":-15.546465873718262,"11":-27.189889907836914,"12":17.281057357788086,"13":-3.9103384017944336}},"20":{"bias":9.974047660827637,"weights":{"0":-5.085597991943359,"1":-4.80725622177124,"2":-25.405969619750977,"3":23.7357120513916,"4":8.37208080291748,"5":0.6380849480628967,"6":-25.652875900268555,"7":-1.9446954727172852,"8":0.09406010061502457,"9":-5.239996910095215,"10":-31.617589950561523,"11":-9.57094669342041,"12":1.1417162418365479,"13":-4.819857120513916}},"21":{"bias":6.527289867401123,"weights":{"0":-20.01340103149414,"1":-18.44967269897461,"2":-11.303738594055176,"3":-13.18189811706543,"4":-3.847637414932251,"5":-16.92719841003418,"6":5.831906795501709,"7":-5.3971076011657715,"8":5.349099159240723,"9":17.101770401000977,"10":26.36467742919922,"11":5.95144510269165,"12":-3.91504168510437,"13":8.843107223510742}},"22":{"bias":5.949777603149414,"weights":{"0":-13.706795692443848,"1":7.444871425628662,"2":-17.187124252319336,"3":4.987998008728027,"4":-7.647525787353516,"5":6.285886287689209,"6":2.643807888031006,"7":-8.43466567993164,"8":4.129021167755127,"9":-1.9671279191970825,"10":-3.8010330200195312,"11":-4.925954341888428,"12":12.554293632507324,"13":-27.077342987060547}},"23":{"bias":10.538389205932617,"weights":{"0":-13.365683555603027,"1":-8.94851016998291,"2":-12.3192138671875,"3":-4.261012077331543,"4":18.302989959716797,"5":-9.588325500488281,"6":-0.976879358291626,"7":-16.414775848388672,"8":23.806682586669922,"9":-18.60320281982422,"10":3.392618179321289,"11":18.040916442871094,"12":-26.409637451171875,"13":32.74220275878906}},"24":{"bias":17.014158248901367,"weights":{"0":-32.42455291748047,"1":5.807910442352295,"2":5.149435043334961,"3":-18.822925567626953,"4":-22.108869552612305,"5":-9.036253929138184,"6":-3.743628978729248,"7":3.0839295387268066,"8":-6.353183269500732,"9":22.006460189819336,"10":6.750934600830078,"11":-11.577091217041016,"12":-15.506548881530762,"13":4.789734840393066}},"25":{"bias":1.4539263248443604,"weights":{"0":-9.264805793762207,"1":-2.9037926197052,"2":27.81888198852539,"3":1.4039736986160278,"4":2.760268211364746,"5":-14.24024772644043,"6":-19.97212791442871,"7":21.85832977294922,"8":7.024068832397461,"9":-1.5788239240646362,"10":-7.362370014190674,"11":-21.096330642700195,"12":13.369627952575684,"13":-8.126067161560059}},"26":{"bias":1.0464481115341187,"weights":{"0":6.25120210647583,"1":-20.094324111938477,"2":6.729331016540527,"3":22.045753479003906,"4":-3.7198050022125244,"5":9.176680564880371,"6":22.370302200317383,"7":-22.080068588256836,"8":-8.983438491821289,"9":-14.801573753356934,"10":-15.764015197753906,"11":17.02309226989746,"12":-11.514023780822754,"13":-0.7641921043395996}},"27":{"bias":-7.963035583496094,"weights":{"0":10.033440589904785,"1":-2.564209461212158,"2":17.407873153686523,"3":-16.556344985961914,"4":6.47269868850708,"5":-3.584458589553833,"6":10.21796703338623,"7":-13.351760864257812,"8":1.521115779876709,"9":3.085371255874634,"10":-7.623410224914551,"11":-20.275375366210938,"12":8.523091316223145,"13":-27.866029739379883}},"28":{"bias":7.468865394592285,"weights":{"0":-11.551617622375488,"1":-4.20627498626709,"2":8.314652442932129,"3":-24.933374404907227,"4":5.476125717163086,"5":-12.969758033752441,"6":8.644330024719238,"7":2.907721519470215,"8":1.3258930444717407,"9":-23.20131492614746,"10":13.541132926940918,"11":7.689026832580566,"12":16.84307289123535,"13":-24.095735549926758}},"29":{"bias":-17.073013305664062,"weights":{"0":21.97488021850586,"1":-16.942203521728516,"2":18.57999610900879,"3":-10.521919250488281,"4":13.646920204162598,"5":0.8471793532371521,"6":-12.066727638244629,"7":-13.632469177246094,"8":-11.688953399658203,"9":-7.8841753005981445,"10":10.050413131713867,"11":2.9123802185058594,"12":35.636619567871094,"13":-10.213319778442383}},"30":{"bias":12.24483871459961,"weights":{"0":-20.565580368041992,"1":-9.435285568237305,"2":4.975284099578857,"3":22.586395263671875,"4":-9.589457511901855,"5":1.1450117826461792,"6":-15.21525764465332,"7":28.885984420776367,"8":12.210528373718262,"9":-40.578487396240234,"10":-8.170226097106934,"11":-21.207368850708008,"12":33.3217658996582,"13":5.038424491882324}},"31":{"bias":9.152276039123535,"weights":{"0":-20.890024185180664,"1":2.5684597492218018,"2":0.19133643805980682,"3":9.014702796936035,"4":-11.82539176940918,"5":-28.190048217773438,"6":21.259069442749023,"7":18.004304885864258,"8":0.6864288449287415,"9":-15.696974754333496,"10":26.962148666381836,"11":1.7774962186813354,"12":-0.37729591131210327,"13":8.184860229492188}},"32":{"bias":-10.244982719421387,"weights":{"0":10.942137718200684,"1":-12.731983184814453,"2":2.3186237812042236,"3":1.458143711090088,"4":25.964807510375977,"5":-16.909109115600586,"6":-15.030130386352539,"7":-4.182304859161377,"8":16.553974151611328,"9":-16.573244094848633,"10":11.87830638885498,"11":8.258270263671875,"12":3.175262689590454,"13":-19.11545753479004}},"33":{"bias":-10.804058074951172,"weights":{"0":-4.496128082275391,"1":8.915404319763184,"2":-15.98923397064209,"3":-4.53474760055542,"4":10.32384967803955,"5":-14.738496780395508,"6":1.2944810390472412,"7":6.955358028411865,"8":-4.575942039489746,"9":24.073467254638672,"10":4.754209518432617,"11":-22.79276466369629,"12":17.477909088134766,"13":-4.512986183166504}},"34":{"bias":-12.5081205368042,"weights":{"0":-5.238968372344971,"1":-9.581396102905273,"2":-3.661492109298706,"3":28.541440963745117,"4":-7.3838887214660645,"5":-6.067251205444336,"6":-1.466691255569458,"7":-32.69186782836914,"8":0.5225338339805603,"9":0.5309175848960876,"10":8.210267066955566,"11":38.54924011230469,"12":-9.526934623718262,"13":-38.65321350097656}},"35":{"bias":0.8972735404968262,"weights":{"0":-7.5722832679748535,"1":-2.121349573135376,"2":23.970617294311523,"3":4.043961524963379,"4":-9.639145851135254,"5":-2.9264841079711914,"6":4.0296478271484375,"7":3.269089460372925,"8":22.12023162841797,"9":-4.819865703582764,"10":-16.225248336791992,"11":-5.299045562744141,"12":37.02922058105469,"13":0.1006188616156578}},"36":{"bias":3.6989893913269043,"weights":{"0":19.014875411987305,"1":-27.784656524658203,"2":19.324756622314453,"3":18.708885192871094,"4":-34.87132263183594,"5":-3.4372544288635254,"6":21.967247009277344,"7":-12.186630249023438,"8":25.731353759765625,"9":0.34632018208503723,"10":-3.521667003631592,"11":-19.916913986206055,"12":17.873090744018555,"13":8.622786521911621}},"37":{"bias":-1.8414942026138306,"weights":{"0":19.63778305053711,"1":-27.275592803955078,"2":6.289545059204102,"3":12.90282154083252,"4":11.248519897460938,"5":-13.891767501831055,"6":1.2365515232086182,"7":27.349262237548828,"8":-34.14961624145508,"9":15.554312705993652,"10":-10.911491394042969,"11":-3.4310967922210693,"12":-24.04753303527832,"13":14.206223487854004}},"38":{"bias":29.080766677856445,"weights":{"0":-23.135778427124023,"1":-10.417716979980469,"2":-20.40159797668457,"3":-5.25062894821167,"4":-8.550328254699707,"5":-6.1525139808654785,"6":21.097238540649414,"7":16.006534576416016,"8":5.581165790557861,"9":-20.704147338867188,"10":-4.958776950836182,"11":-9.735530853271484,"12":2.7977237701416016,"13":29.972370147705078}},"39":{"bias":6.580560207366943,"weights":{"0":-2.209455966949463,"1":19.428607940673828,"2":-16.865610122680664,"3":6.271796703338623,"4":14.253134727478027,"5":-19.992692947387695,"6":-12.116171836853027,"7":-10.921839714050293,"8":-6.283238887786865,"9":-1.2352725267410278,"10":-27.907556533813477,"11":-22.55242347717285,"12":-18.279909133911133,"13":-12.218039512634277}}},{"0":{"bias":-13.3331298828125,"weights":{"0":5.998858451843262,"1":-5.626413345336914,"2":11.767492294311523,"3":-7.412700176239014,"4":9.15372371673584,"5":-13.937749862670898,"6":-5.560884475708008,"7":2.1862730979919434,"8":-3.4236414432525635,"9":-11.466658592224121,"10":6.2398200035095215,"11":-7.603034973144531,"12":-12.356087684631348,"13":-4.196010112762451,"14":7.179137706756592,"15":3.00321102142334,"16":-6.188545227050781,"17":-1.490432858467102,"18":17.970321655273438,"19":5.377199172973633,"20":-4.6946892738342285,"21":-4.337754249572754,"22":-2.982665777206421,"23":-7.363603591918945,"24":6.66385555267334,"25":11.279541015625,"26":-1.4584890604019165,"27":-1.4504214525222778,"28":-0.4880332350730896,"29":1.4071518182754517,"30":12.274284362792969,"31":-25.24752426147461,"32":-9.174766540527344,"33":-8.892176628112793,"34":-7.827511310577393,"35":-5.111013889312744,"36":-3.4066576957702637,"37":-0.750295102596283,"38":-7.0796966552734375,"39":3.4136085510253906}},"1":{"bias":-6.54937219619751,"weights":{"0":-4.075882434844971,"1":8.471854209899902,"2":-3.732370138168335,"3":-4.466068744659424,"4":1.248679757118225,"5":-1.82875394821167,"6":2.6274380683898926,"7":-3.1710376739501953,"8":9.2017183303833,"9":-1.1501448154449463,"10":5.77467679977417,"11":1.5910978317260742,"12":-0.4906926453113556,"13":0.10289723426103592,"14":-5.835907459259033,"15":3.3169357776641846,"16":8.936173439025879,"17":-12.488679885864258,"18":-2.979426622390747,"19":-10.109930992126465,"20":0.7283320426940918,"21":-2.049377918243408,"22":-9.969911575317383,"23":-3.310802459716797,"24":3.8778626918792725,"25":-14.209556579589844,"26":7.960782527923584,"27":-0.9869354367256165,"28":-1.9525885581970215,"29":0.2142486721277237,"30":0.8460193872451782,"31":-15.558860778808594,"32":-0.17827624082565308,"33":-3.871161699295044,"34":2.616345167160034,"35":-6.655223369598389,"36":5.17228364944458,"37":-5.312117576599121,"38":-4.263677597045898,"39":1.8431074619293213}},"2":{"bias":-10.738849639892578,"weights":{"0":6.382314205169678,"1":-1.091671347618103,"2":-2.345836639404297,"3":14.090714454650879,"4":2.826061487197876,"5":-11.804601669311523,"6":-0.8914004564285278,"7":10.685578346252441,"8":-4.3095550537109375,"9":-8.901446342468262,"10":-8.231025695800781,"11":2.8813679218292236,"12":4.187527179718018,"13":1.9346263408660889,"14":7.09084415435791,"15":-2.4033772945404053,"16":1.9027882814407349,"17":9.917576789855957,"18":12.558629035949707,"19":-6.1797380447387695,"20":4.096019268035889,"21":-4.8792853355407715,"22":-14.77064037322998,"23":-1.7032562494277954,"24":-3.895911693572998,"25":4.124306678771973,"26":7.853902816772461,"27":-21.145994186401367,"28":4.171754837036133,"29":9.633520126342773,"30":8.132268905639648,"31":-12.970756530761719,"32":-17.423860549926758,"33":-0.8965056538581848,"34":11.989046096801758,"35":-4.59455680847168,"36":5.453925132751465,"37":-7.4375410079956055,"38":3.6516451835632324,"39":3.8356757164001465}},"3":{"bias":-6.056816101074219,"weights":{"0":2.365663766860962,"1":9.356637001037598,"2":-5.639257431030273,"3":-6.841073989868164,"4":4.294516563415527,"5":-15.99337100982666,"6":1.4980359077453613,"7":2.490598440170288,"8":2.321284532546997,"9":1.0711991786956787,"10":3.821295738220215,"11":4.353656768798828,"12":-23.30818748474121,"13":6.695687770843506,"14":3.788301467895508,"15":18.689510345458984,"16":-32.60831069946289,"17":5.450754642486572,"18":-2.927591323852539,"19":-5.672938823699951,"20":2.407912254333496,"21":-4.634945392608643,"22":4.701891899108887,"23":16.918563842773438,"24":9.147905349731445,"25":-5.458788871765137,"26":-8.442771911621094,"27":-1.7361372709274292,"28":-7.928037166595459,"29":7.7753753662109375,"30":-15.733765602111816,"31":-0.6919265389442444,"32":2.2566542625427246,"33":6.315979480743408,"34":-15.470340728759766,"35":-8.306488037109375,"36":-16.16751480102539,"37":-13.205913543701172,"38":-5.366929531097412,"39":-6.013296604156494}},"4":{"bias":-9.70667552947998,"weights":{"0":-26.84405517578125,"1":-2.243640422821045,"2":11.528240203857422,"3":12.706608772277832,"4":-11.990816116333008,"5":-12.411941528320312,"6":-7.365511894226074,"7":1.5268806219100952,"8":14.391695022583008,"9":-17.746538162231445,"10":-4.582454681396484,"11":4.184682846069336,"12":-13.944859504699707,"13":-3.145447015762329,"14":-0.8282919526100159,"15":2.7057385444641113,"16":5.462493419647217,"17":8.818354606628418,"18":-9.263952255249023,"19":2.6876399517059326,"20":7.773836612701416,"21":-10.047347068786621,"22":-6.226722717285156,"23":-4.574857234954834,"24":9.474210739135742,"25":-1.8136601448059082,"26":7.689885139465332,"27":-6.891222953796387,"28":-7.939929485321045,"29":-11.192381858825684,"30":-5.2129034996032715,"31":-1.6326870918273926,"32":-4.821178436279297,"33":-2.961143732070923,"34":0.24562609195709229,"35":-0.9944087862968445,"36":13.025864601135254,"37":9.70164680480957,"38":6.793742656707764,"39":7.43028450012207}},"5":{"bias":-24.19480323791504,"weights":{"0":-2.0678441524505615,"1":-2.687284469604492,"2":-10.398783683776855,"3":-0.8711451888084412,"4":-3.86501407623291,"5":3.16087007522583,"6":2.4423742294311523,"7":-14.100341796875,"8":-13.486689567565918,"9":-9.444540977478027,"10":1.2523971796035767,"11":-2.1296398639678955,"12":13.457698822021484,"13":-3.5531692504882812,"14":-2.8399977684020996,"15":0.19955097138881683,"16":7.929661273956299,"17":1.4976065158843994,"18":5.243757724761963,"19":-0.7398471832275391,"20":3.497443199157715,"21":-7.842053413391113,"22":-0.8576439619064331,"23":10.8599271774292,"24":-7.216907024383545,"25":12.542070388793945,"26":-7.9775004386901855,"27":-0.8563130497932434,"28":-10.735627174377441,"29":13.173784255981445,"30":16.71923065185547,"31":-3.180382251739502,"32":8.064621925354004,"33":10.038702011108398,"34":1.3658642768859863,"35":-6.740231990814209,"36":2.9208221435546875,"37":2.604579448699951,"38":-4.34833288192749,"39":-2.2092795372009277}},"6":{"bias":-0.2770693004131317,"weights":{"0":-10.10250473022461,"1":0.810423731803894,"2":-7.027364253997803,"3":5.038507461547852,"4":-4.324620246887207,"5":-5.4187517166137695,"6":0.8785251379013062,"7":4.706747055053711,"8":-11.916388511657715,"9":-7.243836402893066,"10":-0.24445313215255737,"11":-2.047297477722168,"12":-0.053623661398887634,"13":4.833718299865723,"14":-4.890933990478516,"15":4.026192665100098,"16":-3.764277219772339,"17":-16.821462631225586,"18":-7.902194499969482,"19":-10.945555686950684,"20":-22.21892547607422,"21":12.560470581054688,"22":-1.07796049118042,"23":4.602136135101318,"24":-12.838936805725098,"25":-4.721163749694824,"26":10.086227416992188,"27":-7.705351829528809,"28":-10.200565338134766,"29":11.093558311462402,"30":0.8725541234016418,"31":-11.805337905883789,"32":-3.2062432765960693,"33":-8.486913681030273,"34":-0.4162484407424927,"35":-14.197380065917969,"36":8.249011039733887,"37":13.649303436279297,"38":-6.578856468200684,"39":-5.554696083068848}},"7":{"bias":-4.070629596710205,"weights":{"0":23.205801010131836,"1":-19.62610626220703,"2":-6.221685409545898,"3":-3.464259386062622,"4":-15.656097412109375,"5":16.29645347595215,"6":8.651206970214844,"7":-10.999505996704102,"8":-2.302351713180542,"9":13.39427661895752,"10":0.9395707845687866,"11":-5.751275539398193,"12":10.460617065429688,"13":-2.2094175815582275,"14":-5.500977516174316,"15":-8.992585182189941,"16":-17.08800506591797,"17":4.216911315917969,"18":6.653984546661377,"19":-7.6925177574157715,"20":-13.792801856994629,"21":-5.597639560699463,"22":-5.5438055992126465,"23":1.5418040752410889,"24":0.9654906988143921,"25":-21.727100372314453,"26":-6.089659214019775,"27":-6.822081565856934,"28":15.45626163482666,"29":-10.405216217041016,"30":-10.312820434570312,"31":-2.479811906814575,"32":-14.94489574432373,"33":-9.824773788452148,"34":-3.7806613445281982,"35":-5.746530055999756,"36":-6.260007858276367,"37":-1.9169789552688599,"38":-3.931849718093872,"39":-9.714527130126953}},"8":{"bias":6.41195821762085,"weights":{"0":10.27979564666748,"1":-5.437251091003418,"2":14.915821075439453,"3":11.58958911895752,"4":9.826181411743164,"5":-12.594747543334961,"6":-8.136154174804688,"7":-3.0712735652923584,"8":-18.70107650756836,"9":-12.016282081604004,"10":8.608521461486816,"11":-4.270665168762207,"12":-8.089160919189453,"13":-9.110697746276855,"14":-8.47115707397461,"15":-3.3126654624938965,"16":12.578018188476562,"17":11.684697151184082,"18":-2.5973074436187744,"19":-2.9123287200927734,"20":-25.53201675415039,"21":-3.815563201904297,"22":-4.12701416015625,"23":-1.985235333442688,"24":-18.250843048095703,"25":-6.260239601135254,"26":-2.0998032093048096,"27":0.8212013840675354,"28":-0.2293674498796463,"29":1.5165807008743286,"30":1.656509518623352,"31":-2.3156330585479736,"32":-0.6393585801124573,"33":3.251220941543579,"34":-14.544031143188477,"35":-9.843402862548828,"36":-15.393871307373047,"37":-0.3921346962451935,"38":-14.781466484069824,"39":4.272149562835693}},"9":{"bias":-6.34041166305542,"weights":{"0":-3.9158706665039062,"1":0.08170188963413239,"2":-4.590870380401611,"3":4.234698295593262,"4":7.219305515289307,"5":-4.6371049880981445,"6":-7.063464164733887,"7":11.07525634765625,"8":-2.769150495529175,"9":-2.5700619220733643,"10":10.085509300231934,"11":-3.883831024169922,"12":-0.8832125067710876,"13":-8.23424243927002,"14":-9.651549339294434,"15":-6.567187309265137,"16":-0.2800089716911316,"17":14.331765174865723,"18":-12.050837516784668,"19":4.8177289962768555,"20":-6.044656276702881,"21":-5.305688381195068,"22":-9.247802734375,"23":-9.749374389648438,"24":3.2647831439971924,"25":-4.516085624694824,"26":-7.492516040802002,"27":-1.9535043239593506,"28":-0.3271828293800354,"29":-7.068353176116943,"30":3.595187187194824,"31":-0.4903010427951813,"32":-2.0838143825531006,"33":-8.288147926330566,"34":-2.71451735496521,"35":-2.4807543754577637,"36":1.406152367591858,"37":3.352682113647461,"38":-1.5119531154632568,"39":-1.28903329372406}},"10":{"bias":-10.96291732788086,"weights":{"0":-6.7068376541137695,"1":-2.4046788215637207,"2":-14.048208236694336,"3":-4.531126976013184,"4":6.775601387023926,"5":-6.410778522491455,"6":3.8913474082946777,"7":2.3266236782073975,"8":-0.4863106906414032,"9":-10.188014030456543,"10":3.133779287338257,"11":-2.0860722064971924,"12":3.788235902786255,"13":5.468338489532471,"14":-3.9322047233581543,"15":8.667847633361816,"16":5.77705192565918,"17":-1.1999971866607666,"18":3.9615976810455322,"19":7.9832258224487305,"20":-11.681587219238281,"21":-9.771284103393555,"22":5.427490711212158,"23":8.112496376037598,"24":-13.876562118530273,"25":-11.328653335571289,"26":6.221073150634766,"27":7.273015022277832,"28":1.9795373678207397,"29":-11.379405975341797,"30":-9.680120468139648,"31":-0.04610029608011246,"32":6.411464691162109,"33":12.52579116821289,"34":1.8816150426864624,"35":6.86036491394043,"36":1.29104483127594,"37":-4.2830424308776855,"38":-13.697298049926758,"39":-0.6749259829521179}},"11":{"bias":-3.5836429595947266,"weights":{"0":1.7221286296844482,"1":5.049652576446533,"2":-8.743928909301758,"3":2.198593854904175,"4":-0.6869460344314575,"5":-16.400413513183594,"6":2.6087727546691895,"7":-6.561511516571045,"8":-1.0256623029708862,"9":-10.197016716003418,"10":1.0703221559524536,"11":-7.188554763793945,"12":-1.1949812173843384,"13":-2.625912666320801,"14":-0.22215785086154938,"15":-1.350369930267334,"16":-1.026192307472229,"17":-0.5036739110946655,"18":-15.214394569396973,"19":-4.031368732452393,"20":-1.075549840927124,"21":14.51385498046875,"22":1.7825039625167847,"23":5.92636775970459,"24":13.124974250793457,"25":-1.7467421293258667,"26":-0.013658622279763222,"27":6.203237056732178,"28":-2.9352211952209473,"29":-13.229745864868164,"30":7.820394039154053,"31":-0.18528564274311066,"32":-1.538682460784912,"33":-12.628459930419922,"34":2.617823600769043,"35":1.853711724281311,"36":-7.829200744628906,"37":2.9235289096832275,"38":-5.31566047668457,"39":3.8520092964172363}},"12":{"bias":-22.01740074157715,"weights":{"0":-3.045098304748535,"1":7.404310703277588,"2":-14.686651229858398,"3":5.32195520401001,"4":14.42503547668457,"5":23.335569381713867,"6":3.9326601028442383,"7":13.268661499023438,"8":4.584460258483887,"9":1.677496075630188,"10":5.291289806365967,"11":3.3389902114868164,"12":-2.363567352294922,"13":-11.451318740844727,"14":-3.362349271774292,"15":-4.8240885734558105,"16":3.652416467666626,"17":-6.637504577636719,"18":-8.038743019104004,"19":-4.4949212074279785,"20":-0.4290631413459778,"21":-6.272819519042969,"22":2.4024884700775146,"23":-2.0802135467529297,"24":-7.9980950355529785,"25":6.698551654815674,"26":10.135581970214844,"27":4.659047603607178,"28":5.737523555755615,"29":-4.521430015563965,"30":-23.87361717224121,"31":0.5625807642936707,"32":3.263911008834839,"33":-0.7274428009986877,"34":-16.51981544494629,"35":-0.7869246602058411,"36":3.319981098175049,"37":0.7485499382019043,"38":-12.054563522338867,"39":4.924685478210449}},"13":{"bias":-5.792869567871094,"weights":{"0":1.7629715204238892,"1":7.699107646942139,"2":-1.6738040447235107,"3":-9.303934097290039,"4":1.6059705018997192,"5":17.238502502441406,"6":0.5652848482131958,"7":-0.44794872403144836,"8":-4.8813862800598145,"9":-10.296524047851562,"10":-4.420503616333008,"11":-4.930872917175293,"12":-1.4280850887298584,"13":-14.927175521850586,"14":-16.98247528076172,"15":-3.4695396423339844,"16":-8.229846000671387,"17":-1.3301949501037598,"18":-0.8736003637313843,"19":1.8149662017822266,"20":6.327508926391602,"21":3.792807102203369,"22":-2.5523693561553955,"23":-0.7395127415657043,"24":4.836153507232666,"25":-21.743398666381836,"26":4.60469913482666,"27":-15.740830421447754,"28":-12.526286125183105,"29":0.025090863928198814,"30":27.61969566345215,"31":-4.336136817932129,"32":-8.184317588806152,"33":-6.48553466796875,"34":-13.472087860107422,"35":7.031398296356201,"36":12.400947570800781,"37":-4.425718307495117,"38":12.364102363586426,"39":-13.349418640136719}},"14":{"bias":-0.7667107582092285,"weights":{"0":-10.023879051208496,"1":-3.7087206840515137,"2":-12.841242790222168,"3":-9.880846977233887,"4":-4.082405090332031,"5":-11.138483047485352,"6":4.333117485046387,"7":-5.691174030303955,"8":-5.566200256347656,"9":4.9441351890563965,"10":4.80498743057251,"11":5.606327056884766,"12":-8.622611999511719,"13":2.4429492950439453,"14":-4.99882698059082,"15":-5.755204200744629,"16":-1.425860047340393,"17":4.694975852966309,"18":-3.4283769130706787,"19":2.2579360008239746,"20":2.7777175903320312,"21":-4.069233417510986,"22":0.9603650569915771,"23":-13.477150917053223,"24":-8.523759841918945,"25":-8.154768943786621,"26":2.3566462993621826,"27":-13.324594497680664,"28":0.6524274349212646,"29":-4.221200466156006,"30":-1.2519829273223877,"31":-7.209772109985352,"32":-4.8625593185424805,"33":-7.887212753295898,"34":-3.5954768657684326,"35":8.27885913848877,"36":-6.239339828491211,"37":-13.426033020019531,"38":-8.616399765014648,"39":-4.772743225097656}},"15":{"bias":-33.012874603271484,"weights":{"0":-5.483506202697754,"1":-3.6922829151153564,"2":12.092745780944824,"3":7.984953880310059,"4":-9.79014778137207,"5":5.310790061950684,"6":-4.295923233032227,"7":5.063020706176758,"8":-15.9894380569458,"9":22.30029296875,"10":0.18868784606456757,"11":0.750419557094574,"12":-2.769343376159668,"13":0.8972815275192261,"14":-13.289342880249023,"15":-11.51673412322998,"16":-5.095331192016602,"17":1.7345374822616577,"18":6.675415992736816,"19":-11.198758125305176,"20":-12.08414363861084,"21":-1.9676649570465088,"22":-1.400870442390442,"23":-2.553797483444214,"24":-2.640573501586914,"25":2.5962865352630615,"26":-19.718120574951172,"27":-6.119832992553711,"28":-7.876855373382568,"29":3.183633804321289,"30":-3.1714231967926025,"31":-1.0422565937042236,"32":-2.118896245956421,"33":-5.504467487335205,"34":-7.11688232421875,"35":3.7827224731445312,"36":6.7407073974609375,"37":0.7060451507568359,"38":16.890443801879883,"39":4.725321292877197}},"16":{"bias":-5.958784103393555,"weights":{"0":-16.500457763671875,"1":7.674014091491699,"2":1.466214895248413,"3":-5.297904968261719,"4":-3.899193525314331,"5":-20.591718673706055,"6":2.463146209716797,"7":-15.116372108459473,"8":-7.230497360229492,"9":1.4107975959777832,"10":-0.15129736065864563,"11":-1.5450234413146973,"12":2.2158875465393066,"13":1.224254846572876,"14":8.410187721252441,"15":-5.842349529266357,"16":-7.247347831726074,"17":-17.154958724975586,"18":-6.477427959442139,"19":2.0354719161987305,"20":0.8862112760543823,"21":9.716069221496582,"22":6.892294883728027,"23":-15.116551399230957,"24":-1.5039916038513184,"25":-1.1579831838607788,"26":-6.6767802238464355,"27":5.5550713539123535,"28":-10.641904830932617,"29":-6.431076526641846,"30":3.6884524822235107,"31":-0.9448792338371277,"32":-1.0004079341888428,"33":2.720102548599243,"34":5.164629936218262,"35":5.155887603759766,"36":20.081022262573242,"37":13.49997329711914,"38":-5.462277889251709,"39":-19.38396644592285}},"17":{"bias":-3.262077569961548,"weights":{"0":-6.0881524085998535,"1":-2.877350091934204,"2":-12.052422523498535,"3":3.7605762481689453,"4":3.967351198196411,"5":3.0811617374420166,"6":-8.419129371643066,"7":10.953800201416016,"8":11.63357162475586,"9":-3.088688373565674,"10":-8.013344764709473,"11":-10.255581855773926,"12":-12.688563346862793,"13":4.7072649002075195,"14":0.767006516456604,"15":5.884613990783691,"16":-10.434013366699219,"17":1.516544222831726,"18":-21.845293045043945,"19":-6.66316556930542,"20":-12.098950386047363,"21":9.522049903869629,"22":4.436986446380615,"23":1.3428881168365479,"24":-5.521383762359619,"25":18.67592430114746,"26":-11.252846717834473,"27":-16.561002731323242,"28":3.478417158126831,"29":9.112799644470215,"30":16.268917083740234,"31":2.4477086067199707,"32":3.680105447769165,"33":-6.8292036056518555,"34":-7.118801116943359,"35":-5.622525691986084,"36":-4.989295959472656,"37":1.459194302558899,"38":-0.16853570938110352,"39":-16.966842651367188}},"18":{"bias":-2.287449359893799,"weights":{"0":-36.05957794189453,"1":-6.4097137451171875,"2":-1.8772450685501099,"3":16.063892364501953,"4":0.5527998208999634,"5":-7.529633522033691,"6":2.715566873550415,"7":5.315785884857178,"8":7.812388896942139,"9":-0.5120227932929993,"10":3.6817660331726074,"11":1.668623447418213,"12":-11.963930130004883,"13":2.82889986038208,"14":16.4698429107666,"15":1.2206754684448242,"16":5.5392231941223145,"17":10.0322847366333,"18":14.511454582214355,"19":1.1848098039627075,"20":-0.08336620777845383,"21":-1.431051254272461,"22":0.3390507400035858,"23":14.63595199584961,"24":7.932865619659424,"25":-8.585866928100586,"26":-8.206570625305176,"27":-10.073322296142578,"28":7.681446075439453,"29":-10.671364784240723,"30":20.992685317993164,"31":6.972744464874268,"32":-1.0292824506759644,"33":4.597714424133301,"34":0.3859021067619324,"35":-6.580789089202881,"36":-16.779796600341797,"37":1.4344478845596313,"38":23.665613174438477,"39":-1.3286185264587402}},"19":{"bias":-3.2177445888519287,"weights":{"0":13.575560569763184,"1":3.6951067447662354,"2":-1.4058337211608887,"3":-14.508922576904297,"4":-7.195502758026123,"5":-14.982202529907227,"6":-1.621163010597229,"7":-22.982791900634766,"8":3.4843060970306396,"9":1.306983232498169,"10":-4.228435039520264,"11":3.06146240234375,"12":-0.5178437232971191,"13":-1.5559711456298828,"14":-3.6506128311157227,"15":2.654283046722412,"16":-13.280763626098633,"17":0.201191246509552,"18":-15.120250701904297,"19":-3.470168113708496,"20":-12.98901653289795,"21":-1.4631773233413696,"22":3.602647542953491,"23":9.509689331054688,"24":0.8454169631004333,"25":-10.8143310546875,"26":-11.367554664611816,"27":-1.303655982017517,"28":10.060019493103027,"29":-2.2933754920959473,"30":3.2774407863616943,"31":-13.603350639343262,"32":-5.346442222595215,"33":-3.086120128631592,"34":-7.983899116516113,"35":1.505002737045288,"36":-7.196475028991699,"37":13.483403205871582,"38":7.214376449584961,"39":-4.012566566467285}}},{"0":{"bias":27.745941162109375,"weights":{"0":-8.8397798538208,"1":-14.247998237609863,"2":-8.472620010375977,"3":-8.355451583862305,"4":-20.673458099365234,"5":-11.382291793823242,"6":-9.576211929321289,"7":-8.027502059936523,"8":-13.66372299194336,"9":-11.674093246459961,"10":-7.949905872344971,"11":-5.565425872802734,"12":-16.449941635131836,"13":-12.088393211364746,"14":-15.703874588012695,"15":-9.415460586547852,"16":-13.610560417175293,"17":-4.670714378356934,"18":-14.05640697479248,"19":-21.92007064819336}}}],"outputLookup":true,"inputLookup":true,"activation":"sigmoid","trainOpts":{"iterations":3000,"errorThresh":0.005,"log":true,"logPeriod":10,"learningRate":0.3,"momentum":0.1,"callbackPeriod":10,"beta1":0.9,"beta2":0.999,"epsilon":1e-8}}